
J48 pruned tree
------------------

PredSA_freq_central_0 <= 0
|   propensity <= 0.537337
|   |   separation <= 12
|   |   |   PredSS_r2 = H
|   |   |   |   PredRCH_r2 = 0
|   |   |   |   |   PredCN_r2 = 0: negative (181.0/37.0)
|   |   |   |   |   PredCN_r2 = 1
|   |   |   |   |   |   PredSA_r1 = 0: positive (6.0/1.0)
|   |   |   |   |   |   PredSA_r1 = 1
|   |   |   |   |   |   |   PredCN_central = 0: negative (3.0/1.0)
|   |   |   |   |   |   |   PredCN_central = 1: positive (2.0)
|   |   |   |   |   |   |   PredCN_central = 2: negative (0.0)
|   |   |   |   |   |   |   PredCN_central = 3: negative (0.0)
|   |   |   |   |   |   |   PredCN_central = 4: negative (2.0)
|   |   |   |   |   |   PredSA_r1 = 2: negative (3.0)
|   |   |   |   |   |   PredSA_r1 = 3
|   |   |   |   |   |   |   PredSA_r2 = 0: positive (0.0)
|   |   |   |   |   |   |   PredSA_r2 = 1: positive (0.0)
|   |   |   |   |   |   |   PredSA_r2 = 2: positive (0.0)
|   |   |   |   |   |   |   PredSA_r2 = 3: positive (3.0)
|   |   |   |   |   |   |   PredSA_r2 = 4: negative (3.0/1.0)
|   |   |   |   |   |   PredSA_r1 = 4: negative (15.0)
|   |   |   |   |   PredCN_r2 = 2: positive (1.0)
|   |   |   |   |   PredCN_r2 = 3: positive (1.0)
|   |   |   |   |   PredCN_r2 = 4: negative (0.0)
|   |   |   |   PredRCH_r2 = 1
|   |   |   |   |   PredRCH_r1 = 0
|   |   |   |   |   |   PredSA_central = 0
|   |   |   |   |   |   |   PredRCH_freq_central_0 <= 0.69: negative (13.0/1.0)
|   |   |   |   |   |   |   PredRCH_freq_central_0 > 0.69: positive (4.0)
|   |   |   |   |   |   PredSA_central = 1: negative (8.0)
|   |   |   |   |   |   PredSA_central = 3: negative (21.0/7.0)
|   |   |   |   |   |   PredSA_central = 2
|   |   |   |   |   |   |   PredCN_r2 = 0: negative (3.0)
|   |   |   |   |   |   |   PredCN_r2 = 1: positive (4.0/1.0)
|   |   |   |   |   |   |   PredCN_r2 = 2: positive (1.0)
|   |   |   |   |   |   |   PredCN_r2 = 3: positive (0.0)
|   |   |   |   |   |   |   PredCN_r2 = 4: positive (0.0)
|   |   |   |   |   |   PredSA_central = 4
|   |   |   |   |   |   |   PredCN_central = 0
|   |   |   |   |   |   |   |   PredCN_r2 = 0
|   |   |   |   |   |   |   |   |   PredSA_r1 = 0: negative (0.0)
|   |   |   |   |   |   |   |   |   PredSA_r1 = 1: negative (0.0)
|   |   |   |   |   |   |   |   |   PredSA_r1 = 2: negative (0.0)
|   |   |   |   |   |   |   |   |   PredSA_r1 = 3: negative (4.0)
|   |   |   |   |   |   |   |   |   PredSA_r1 = 4
|   |   |   |   |   |   |   |   |   |   length <= 141
|   |   |   |   |   |   |   |   |   |   |   PredRCH_freq_central_0 <= 0.265: negative (2.0)
|   |   |   |   |   |   |   |   |   |   |   PredRCH_freq_central_0 > 0.265: positive (7.0/1.0)
|   |   |   |   |   |   |   |   |   |   length > 141: negative (5.0)
|   |   |   |   |   |   |   |   PredCN_r2 = 1
|   |   |   |   |   |   |   |   |   PredRCH_freq_global_0 <= 0.356: positive (4.0)
|   |   |   |   |   |   |   |   |   PredRCH_freq_global_0 > 0.356: negative (6.0/1.0)
|   |   |   |   |   |   |   |   PredCN_r2 = 2: negative (4.0)
|   |   |   |   |   |   |   |   PredCN_r2 = 3: negative (1.0)
|   |   |   |   |   |   |   |   PredCN_r2 = 4: negative (0.0)
|   |   |   |   |   |   |   PredCN_central = 1
|   |   |   |   |   |   |   |   PredCN_r2 = 0: positive (3.0)
|   |   |   |   |   |   |   |   PredCN_r2 = 1: negative (4.0/1.0)
|   |   |   |   |   |   |   |   PredCN_r2 = 2: positive (0.0)
|   |   |   |   |   |   |   |   PredCN_r2 = 3: positive (0.0)
|   |   |   |   |   |   |   |   PredCN_r2 = 4: positive (0.0)
|   |   |   |   |   |   |   PredCN_central = 2: negative (1.0)
|   |   |   |   |   |   |   PredCN_central = 3: negative (1.0)
|   |   |   |   |   |   |   PredCN_central = 4: negative (0.0)
|   |   |   |   |   PredRCH_r1 = 1
|   |   |   |   |   |   PredCN_r2 = 0
|   |   |   |   |   |   |   PredSS_r1 = H: negative (8.0/1.0)
|   |   |   |   |   |   |   PredSS_r1 = E: negative (0.0)
|   |   |   |   |   |   |   PredSS_r1 = C
|   |   |   |   |   |   |   |   length <= 125: negative (2.0)
|   |   |   |   |   |   |   |   length > 125: positive (4.0)
|   |   |   |   |   |   PredCN_r2 = 1
|   |   |   |   |   |   |   PredCN_r1 = 0: negative (3.0/1.0)
|   |   |   |   |   |   |   PredCN_r1 = 1: positive (10.0/3.0)
|   |   |   |   |   |   |   PredCN_r1 = 2: negative (2.0)
|   |   |   |   |   |   |   PredCN_r1 = 3: positive (2.0/1.0)
|   |   |   |   |   |   |   PredCN_r1 = 4: positive (0.0)
|   |   |   |   |   |   PredCN_r2 = 2: positive (1.0)
|   |   |   |   |   |   PredCN_r2 = 3: negative (1.0)
|   |   |   |   |   |   PredCN_r2 = 4: positive (1.0)
|   |   |   |   |   PredRCH_r1 = 2
|   |   |   |   |   |   PredRCH_freq_central_0 <= 0.325: negative (2.0)
|   |   |   |   |   |   PredRCH_freq_central_0 > 0.325: positive (8.0/1.0)
|   |   |   |   |   PredRCH_r1 = 3
|   |   |   |   |   |   PredCN_r1 = 0: positive (1.0)
|   |   |   |   |   |   PredCN_r1 = 1: negative (3.0)
|   |   |   |   |   |   PredCN_r1 = 2: positive (4.0/1.0)
|   |   |   |   |   |   PredCN_r1 = 3
|   |   |   |   |   |   |   PredCN_r2 = 0: negative (20.0/5.0)
|   |   |   |   |   |   |   PredCN_r2 = 1
|   |   |   |   |   |   |   |   PredCN_freq_global_0 <= 0.447
|   |   |   |   |   |   |   |   |   length <= 409: positive (32.0/7.0)
|   |   |   |   |   |   |   |   |   length > 409: negative (4.0)
|   |   |   |   |   |   |   |   PredCN_freq_global_0 > 0.447: negative (5.0)
|   |   |   |   |   |   |   PredCN_r2 = 2: positive (3.0/1.0)
|   |   |   |   |   |   |   PredCN_r2 = 3: positive (2.0/1.0)
|   |   |   |   |   |   |   PredCN_r2 = 4: positive (0.0)
|   |   |   |   |   |   PredCN_r1 = 4
|   |   |   |   |   |   |   PredCN_r2 = 0: positive (2.0)
|   |   |   |   |   |   |   PredCN_r2 = 1
|   |   |   |   |   |   |   |   length <= 124: negative (4.0)
|   |   |   |   |   |   |   |   length > 124: positive (7.0/1.0)
|   |   |   |   |   |   |   PredCN_r2 = 2: positive (0.0)
|   |   |   |   |   |   |   PredCN_r2 = 3: positive (0.0)
|   |   |   |   |   |   |   PredCN_r2 = 4: positive (0.0)
|   |   |   |   |   PredRCH_r1 = 4: positive (4.0)
|   |   |   |   PredRCH_r2 = 2
|   |   |   |   |   separation <= 6: positive (18.0/2.0)
|   |   |   |   |   separation > 6
|   |   |   |   |   |   PredSA_r1 = 0
|   |   |   |   |   |   |   PredCN_freq_central_0 <= 0.354: negative (6.0/1.0)
|   |   |   |   |   |   |   PredCN_freq_central_0 > 0.354: positive (6.0)
|   |   |   |   |   |   PredSA_r1 = 1
|   |   |   |   |   |   |   PredCN_r2 = 0: positive (1.0)
|   |   |   |   |   |   |   PredCN_r2 = 1: positive (0.0)
|   |   |   |   |   |   |   PredCN_r2 = 2: negative (3.0)
|   |   |   |   |   |   |   PredCN_r2 = 3: positive (2.0)
|   |   |   |   |   |   |   PredCN_r2 = 4: positive (0.0)
|   |   |   |   |   |   PredSA_r1 = 2: positive (1.0)
|   |   |   |   |   |   PredSA_r1 = 3
|   |   |   |   |   |   |   PredCN_freq_central_0 <= 0.69
|   |   |   |   |   |   |   |   PredRCH_freq_global_0 <= 0.367: negative (14.0/2.0)
|   |   |   |   |   |   |   |   PredRCH_freq_global_0 > 0.367: positive (3.0)
|   |   |   |   |   |   |   PredCN_freq_central_0 > 0.69: positive (4.0)
|   |   |   |   |   |   PredSA_r1 = 4: negative (21.0/4.0)
|   |   |   |   PredRCH_r2 = 3
|   |   |   |   |   PredCN_r1 = 0
|   |   |   |   |   |   PredSS_r1 = H: negative (46.0/8.0)
|   |   |   |   |   |   PredSS_r1 = E: negative (0.0)
|   |   |   |   |   |   PredSS_r1 = C
|   |   |   |   |   |   |   PredSA_r2 = 0: negative (43.0/11.0)
|   |   |   |   |   |   |   PredSA_r2 = 1
|   |   |   |   |   |   |   |   PredRCH_r1 = 0
|   |   |   |   |   |   |   |   |   PredCN_freq_global_0 <= 0.21: positive (5.0)
|   |   |   |   |   |   |   |   |   PredCN_freq_global_0 > 0.21: negative (7.0/1.0)
|   |   |   |   |   |   |   |   PredRCH_r1 = 1: positive (2.0)
|   |   |   |   |   |   |   |   PredRCH_r1 = 2: positive (0.0)
|   |   |   |   |   |   |   |   PredRCH_r1 = 3: positive (0.0)
|   |   |   |   |   |   |   |   PredRCH_r1 = 4: positive (0.0)
|   |   |   |   |   |   |   PredSA_r2 = 2: positive (5.0/1.0)
|   |   |   |   |   |   |   PredSA_r2 = 3: positive (18.0/7.0)
|   |   |   |   |   |   |   PredSA_r2 = 4: negative (10.0/2.0)
|   |   |   |   |   PredCN_r1 = 1
|   |   |   |   |   |   PredRCH_r1 = 0
|   |   |   |   |   |   |   PredCN_central = 0: positive (7.0/2.0)
|   |   |   |   |   |   |   PredCN_central = 1: negative (1.0)
|   |   |   |   |   |   |   PredCN_central = 2: negative (2.0)
|   |   |   |   |   |   |   PredCN_central = 3
|   |   |   |   |   |   |   |   PredCN_freq_central_0 <= 0.5: negative (6.0)
|   |   |   |   |   |   |   |   PredCN_freq_central_0 > 0.5: positive (3.0/1.0)
|   |   |   |   |   |   |   PredCN_central = 4
|   |   |   |   |   |   |   |   PredCN_freq_central_0 <= 0.134: positive (3.0)
|   |   |   |   |   |   |   |   PredCN_freq_central_0 > 0.134: negative (4.0/1.0)
|   |   |   |   |   |   PredRCH_r1 = 1
|   |   |   |   |   |   |   propensity <= -0.437416
|   |   |   |   |   |   |   |   separation <= 10: negative (5.0/1.0)
|   |   |   |   |   |   |   |   separation > 10: positive (2.0)
|   |   |   |   |   |   |   propensity > -0.437416: positive (13.0/1.0)
|   |   |   |   |   |   PredRCH_r1 = 2: positive (1.0)
|   |   |   |   |   |   PredRCH_r1 = 3: positive (3.0)
|   |   |   |   |   |   PredRCH_r1 = 4: positive (0.0)
|   |   |   |   |   PredCN_r1 = 2
|   |   |   |   |   |   PredCN_central = 0
|   |   |   |   |   |   |   length <= 144: positive (5.0)
|   |   |   |   |   |   |   length > 144: negative (3.0)
|   |   |   |   |   |   PredCN_central = 1: negative (1.0)
|   |   |   |   |   |   PredCN_central = 2: negative (1.0)
|   |   |   |   |   |   PredCN_central = 3: positive (3.0)
|   |   |   |   |   |   PredCN_central = 4: positive (1.0)
|   |   |   |   |   PredCN_r1 = 3: positive (95.0/21.0)
|   |   |   |   |   PredCN_r1 = 4: positive (35.0/7.0)
|   |   |   |   PredRCH_r2 = 4: positive (8.0/1.0)
|   |   |   PredSS_r2 = E
|   |   |   |   PredSS_r1 = H
|   |   |   |   |   PredRCH_r2 = 0
|   |   |   |   |   |   separation <= 7: positive (2.0)
|   |   |   |   |   |   separation > 7: negative (4.0)
|   |   |   |   |   PredRCH_r2 = 1
|   |   |   |   |   |   PredRCH_freq_central_0 <= 0.45: negative (5.0)
|   |   |   |   |   |   PredRCH_freq_central_0 > 0.45: positive (4.0)
|   |   |   |   |   PredRCH_r2 = 2: positive (6.0)
|   |   |   |   |   PredRCH_r2 = 3
|   |   |   |   |   |   PredSA_r2 = 0: positive (38.0/6.0)
|   |   |   |   |   |   PredSA_r2 = 1
|   |   |   |   |   |   |   PredCN_r1 = 0: negative (5.0)
|   |   |   |   |   |   |   PredCN_r1 = 1: negative (0.0)
|   |   |   |   |   |   |   PredCN_r1 = 2: negative (0.0)
|   |   |   |   |   |   |   PredCN_r1 = 3: positive (4.0/1.0)
|   |   |   |   |   |   |   PredCN_r1 = 4: negative (0.0)
|   |   |   |   |   |   PredSA_r2 = 2: positive (4.0)
|   |   |   |   |   |   PredSA_r2 = 3: negative (10.0/4.0)
|   |   |   |   |   |   PredSA_r2 = 4: positive (3.0)
|   |   |   |   |   PredRCH_r2 = 4: positive (1.0)
|   |   |   |   PredSS_r1 = E: positive (468.0/47.0)
|   |   |   |   PredSS_r1 = C
|   |   |   |   |   PredRCH_freq_central_0 <= 0.789
|   |   |   |   |   |   PredRCH_freq_central_0 <= 0.236
|   |   |   |   |   |   |   PredSA_r1 = 0: positive (6.0)
|   |   |   |   |   |   |   PredSA_r1 = 1: negative (10.0/1.0)
|   |   |   |   |   |   |   PredSA_r1 = 2: negative (1.0)
|   |   |   |   |   |   |   PredSA_r1 = 3
|   |   |   |   |   |   |   |   PredRCH_r1 = 0: negative (4.0)
|   |   |   |   |   |   |   |   PredRCH_r1 = 1: negative (4.0)
|   |   |   |   |   |   |   |   PredRCH_r1 = 2: negative (0.0)
|   |   |   |   |   |   |   |   PredRCH_r1 = 3
|   |   |   |   |   |   |   |   |   PredRCH_freq_global_0 <= 0.32: positive (6.0)
|   |   |   |   |   |   |   |   |   PredRCH_freq_global_0 > 0.32: negative (2.0)
|   |   |   |   |   |   |   |   PredRCH_r1 = 4: negative (0.0)
|   |   |   |   |   |   |   PredSA_r1 = 4: negative (23.0/6.0)
|   |   |   |   |   |   PredRCH_freq_central_0 > 0.236
|   |   |   |   |   |   |   PredSS_central = H
|   |   |   |   |   |   |   |   PredSA_central = 0: positive (4.0)
|   |   |   |   |   |   |   |   PredSA_central = 1: positive (2.0)
|   |   |   |   |   |   |   |   PredSA_central = 3
|   |   |   |   |   |   |   |   |   propensity <= -0.636156: negative (3.0)
|   |   |   |   |   |   |   |   |   propensity > -0.636156
|   |   |   |   |   |   |   |   |   |   PredSA_freq_global_0 <= 0.285: positive (12.0)
|   |   |   |   |   |   |   |   |   |   PredSA_freq_global_0 > 0.285: negative (2.0)
|   |   |   |   |   |   |   |   PredSA_central = 2: positive (2.0)
|   |   |   |   |   |   |   |   PredSA_central = 4
|   |   |   |   |   |   |   |   |   PredCN_central = 0: negative (6.0/2.0)
|   |   |   |   |   |   |   |   |   PredCN_central = 1: positive (2.0)
|   |   |   |   |   |   |   |   |   PredCN_central = 2: positive (0.0)
|   |   |   |   |   |   |   |   |   PredCN_central = 3: positive (0.0)
|   |   |   |   |   |   |   |   |   PredCN_central = 4: positive (0.0)
|   |   |   |   |   |   |   PredSS_central = E
|   |   |   |   |   |   |   |   PredRCH_r1 = 0
|   |   |   |   |   |   |   |   |   PredRCH_r2 = 0: negative (8.0)
|   |   |   |   |   |   |   |   |   PredRCH_r2 = 1
|   |   |   |   |   |   |   |   |   |   PredSA_r1 = 0: positive (0.0)
|   |   |   |   |   |   |   |   |   |   PredSA_r1 = 1: positive (0.0)
|   |   |   |   |   |   |   |   |   |   PredSA_r1 = 2: positive (0.0)
|   |   |   |   |   |   |   |   |   |   PredSA_r1 = 3: positive (2.0)
|   |   |   |   |   |   |   |   |   |   PredSA_r1 = 4
|   |   |   |   |   |   |   |   |   |   |   PredCN_central = 0: negative (0.0)
|   |   |   |   |   |   |   |   |   |   |   PredCN_central = 1: negative (0.0)
|   |   |   |   |   |   |   |   |   |   |   PredCN_central = 2: negative (0.0)
|   |   |   |   |   |   |   |   |   |   |   PredCN_central = 3: negative (2.0)
|   |   |   |   |   |   |   |   |   |   |   PredCN_central = 4: positive (3.0/1.0)
|   |   |   |   |   |   |   |   |   PredRCH_r2 = 2: positive (2.0/1.0)
|   |   |   |   |   |   |   |   |   PredRCH_r2 = 3
|   |   |   |   |   |   |   |   |   |   PredCN_r1 = 0
|   |   |   |   |   |   |   |   |   |   |   PredCN_central = 0: negative (1.0)
|   |   |   |   |   |   |   |   |   |   |   PredCN_central = 1: positive (2.0)
|   |   |   |   |   |   |   |   |   |   |   PredCN_central = 2: positive (1.0)
|   |   |   |   |   |   |   |   |   |   |   PredCN_central = 3: negative (4.0/1.0)
|   |   |   |   |   |   |   |   |   |   |   PredCN_central = 4
|   |   |   |   |   |   |   |   |   |   |   |   separation <= 8: positive (6.0/2.0)
|   |   |   |   |   |   |   |   |   |   |   |   separation > 8: negative (6.0/1.0)
|   |   |   |   |   |   |   |   |   |   PredCN_r1 = 1
|   |   |   |   |   |   |   |   |   |   |   PredCN_freq_global_0 <= 0.211: positive (9.0/1.0)
|   |   |   |   |   |   |   |   |   |   |   PredCN_freq_global_0 > 0.211: negative (3.0)
|   |   |   |   |   |   |   |   |   |   PredCN_r1 = 2: positive (0.0)
|   |   |   |   |   |   |   |   |   |   PredCN_r1 = 3: positive (0.0)
|   |   |   |   |   |   |   |   |   |   PredCN_r1 = 4: negative (1.0)
|   |   |   |   |   |   |   |   |   PredRCH_r2 = 4: positive (3.0/1.0)
|   |   |   |   |   |   |   |   PredRCH_r1 = 1
|   |   |   |   |   |   |   |   |   PredSA_freq_global_0 <= 0.235: negative (10.0/2.0)
|   |   |   |   |   |   |   |   |   PredSA_freq_global_0 > 0.235: positive (4.0/1.0)
|   |   |   |   |   |   |   |   PredRCH_r1 = 2: negative (8.0/1.0)
|   |   |   |   |   |   |   |   PredRCH_r1 = 3: positive (24.0/5.0)
|   |   |   |   |   |   |   |   PredRCH_r1 = 4: negative (0.0)
|   |   |   |   |   |   |   PredSS_central = C
|   |   |   |   |   |   |   |   PredSA_r1 = 0: positive (5.0)
|   |   |   |   |   |   |   |   PredSA_r1 = 1: positive (15.0/2.0)
|   |   |   |   |   |   |   |   PredSA_r1 = 2
|   |   |   |   |   |   |   |   |   PredCN_freq_central_0 <= 0.472: positive (7.0/1.0)
|   |   |   |   |   |   |   |   |   PredCN_freq_central_0 > 0.472: negative (2.0)
|   |   |   |   |   |   |   |   PredSA_r1 = 3: positive (39.0/13.0)
|   |   |   |   |   |   |   |   PredSA_r1 = 4
|   |   |   |   |   |   |   |   |   separation <= 9: positive (75.0/20.0)
|   |   |   |   |   |   |   |   |   separation > 9
|   |   |   |   |   |   |   |   |   |   PredCN_freq_global_0 <= 0.168: positive (6.0/1.0)
|   |   |   |   |   |   |   |   |   |   PredCN_freq_global_0 > 0.168: negative (16.0/3.0)
|   |   |   |   |   PredRCH_freq_central_0 > 0.789: positive (46.0/3.0)
|   |   |   PredSS_r2 = C
|   |   |   |   PredRCH_freq_central_0 <= 0.563
|   |   |   |   |   PredRCH_r2 = 0
|   |   |   |   |   |   PredCN_r2 = 0
|   |   |   |   |   |   |   propensity <= -0.609454
|   |   |   |   |   |   |   |   PredSA_r2 = 0: negative (0.0)
|   |   |   |   |   |   |   |   PredSA_r2 = 1: negative (0.0)
|   |   |   |   |   |   |   |   PredSA_r2 = 2: negative (0.0)
|   |   |   |   |   |   |   |   PredSA_r2 = 3
|   |   |   |   |   |   |   |   |   separation <= 7: positive (2.0)
|   |   |   |   |   |   |   |   |   separation > 7: negative (2.0)
|   |   |   |   |   |   |   |   PredSA_r2 = 4: negative (67.0/9.0)
|   |   |   |   |   |   |   propensity > -0.609454
|   |   |   |   |   |   |   |   PredCN_central = 0
|   |   |   |   |   |   |   |   |   PredCN_freq_central_0 <= 0.789
|   |   |   |   |   |   |   |   |   |   PredSA_freq_global_0 <= 0.233
|   |   |   |   |   |   |   |   |   |   |   PredSA_r2 = 0: positive (0.0)
|   |   |   |   |   |   |   |   |   |   |   PredSA_r2 = 1: positive (0.0)
|   |   |   |   |   |   |   |   |   |   |   PredSA_r2 = 2: positive (0.0)
|   |   |   |   |   |   |   |   |   |   |   PredSA_r2 = 3: positive (4.0)
|   |   |   |   |   |   |   |   |   |   |   PredSA_r2 = 4
|   |   |   |   |   |   |   |   |   |   |   |   PredSA_central = 0: negative (0.0)
|   |   |   |   |   |   |   |   |   |   |   |   PredSA_central = 1: negative (0.0)
|   |   |   |   |   |   |   |   |   |   |   |   PredSA_central = 3
|   |   |   |   |   |   |   |   |   |   |   |   |   separation <= 11: positive (8.0)
|   |   |   |   |   |   |   |   |   |   |   |   |   separation > 11
|   |   |   |   |   |   |   |   |   |   |   |   |   |   PredRCH_freq_central_0 <= 0.5: negative (3.0)
|   |   |   |   |   |   |   |   |   |   |   |   |   |   PredRCH_freq_central_0 > 0.5: positive (2.0)
|   |   |   |   |   |   |   |   |   |   |   |   PredSA_central = 2: negative (0.0)
|   |   |   |   |   |   |   |   |   |   |   |   PredSA_central = 4
|   |   |   |   |   |   |   |   |   |   |   |   |   PredRCH_r1 = 0
|   |   |   |   |   |   |   |   |   |   |   |   |   |   PredRCH_freq_global_0 <= 0.36: positive (5.0)
|   |   |   |   |   |   |   |   |   |   |   |   |   |   PredRCH_freq_global_0 > 0.36: negative (7.0/1.0)
|   |   |   |   |   |   |   |   |   |   |   |   |   PredRCH_r1 = 1
|   |   |   |   |   |   |   |   |   |   |   |   |   |   length <= 128: positive (2.0)
|   |   |   |   |   |   |   |   |   |   |   |   |   |   length > 128: negative (3.0/1.0)
|   |   |   |   |   |   |   |   |   |   |   |   |   PredRCH_r1 = 2: positive (3.0/1.0)
|   |   |   |   |   |   |   |   |   |   |   |   |   PredRCH_r1 = 3
|   |   |   |   |   |   |   |   |   |   |   |   |   |   PredSA_r1 = 0: negative (9.0/2.0)
|   |   |   |   |   |   |   |   |   |   |   |   |   |   PredSA_r1 = 1
|   |   |   |   |   |   |   |   |   |   |   |   |   |   |   PredCN_freq_central_0 <= 0.364: positive (3.0)
|   |   |   |   |   |   |   |   |   |   |   |   |   |   |   PredCN_freq_central_0 > 0.364: negative (3.0)
|   |   |   |   |   |   |   |   |   |   |   |   |   |   PredSA_r1 = 2: positive (4.0/2.0)
|   |   |   |   |   |   |   |   |   |   |   |   |   |   PredSA_r1 = 3
|   |   |   |   |   |   |   |   |   |   |   |   |   |   |   propensity <= -0.475949: positive (2.0)
|   |   |   |   |   |   |   |   |   |   |   |   |   |   |   propensity > -0.475949: negative (8.0/1.0)
|   |   |   |   |   |   |   |   |   |   |   |   |   |   PredSA_r1 = 4: positive (2.0)
|   |   |   |   |   |   |   |   |   |   |   |   |   PredRCH_r1 = 4: negative (3.0)
|   |   |   |   |   |   |   |   |   |   PredSA_freq_global_0 > 0.233: negative (8.0)
|   |   |   |   |   |   |   |   |   PredCN_freq_central_0 > 0.789: positive (7.0)
|   |   |   |   |   |   |   |   PredCN_central = 1
|   |   |   |   |   |   |   |   |   PredSS_r1 = H: positive (6.0/1.0)
|   |   |   |   |   |   |   |   |   PredSS_r1 = E: negative (12.0/3.0)
|   |   |   |   |   |   |   |   |   PredSS_r1 = C: negative (21.0/6.0)
|   |   |   |   |   |   |   |   PredCN_central = 2: negative (21.0/6.0)
|   |   |   |   |   |   |   |   PredCN_central = 3
|   |   |   |   |   |   |   |   |   separation <= 10
|   |   |   |   |   |   |   |   |   |   PredCN_freq_central_0 <= 0.134: negative (12.0)
|   |   |   |   |   |   |   |   |   |   PredCN_freq_central_0 > 0.134
|   |   |   |   |   |   |   |   |   |   |   PredSA_central = 0: positive (4.0)
|   |   |   |   |   |   |   |   |   |   |   PredSA_central = 1
|   |   |   |   |   |   |   |   |   |   |   |   separation <= 6: positive (5.0/1.0)
|   |   |   |   |   |   |   |   |   |   |   |   separation > 6: negative (6.0)
|   |   |   |   |   |   |   |   |   |   |   PredSA_central = 3: negative (20.0/7.0)
|   |   |   |   |   |   |   |   |   |   |   PredSA_central = 2
|   |   |   |   |   |   |   |   |   |   |   |   PredCN_freq_global_0 <= 0.192: positive (2.0)
|   |   |   |   |   |   |   |   |   |   |   |   PredCN_freq_global_0 > 0.192: negative (4.0)
|   |   |   |   |   |   |   |   |   |   |   PredSA_central = 4
|   |   |   |   |   |   |   |   |   |   |   |   length <= 159: positive (2.0)
|   |   |   |   |   |   |   |   |   |   |   |   length > 159: negative (4.0)
|   |   |   |   |   |   |   |   |   separation > 10: negative (11.0)
|   |   |   |   |   |   |   |   PredCN_central = 4
|   |   |   |   |   |   |   |   |   PredSA_r1 = 0: negative (13.0/1.0)
|   |   |   |   |   |   |   |   |   PredSA_r1 = 1
|   |   |   |   |   |   |   |   |   |   PredSA_r2 = 0: positive (0.0)
|   |   |   |   |   |   |   |   |   |   PredSA_r2 = 1: positive (0.0)
|   |   |   |   |   |   |   |   |   |   PredSA_r2 = 2: positive (0.0)
|   |   |   |   |   |   |   |   |   |   PredSA_r2 = 3: positive (2.0)
|   |   |   |   |   |   |   |   |   |   PredSA_r2 = 4: negative (4.0/1.0)
|   |   |   |   |   |   |   |   |   PredSA_r1 = 2: positive (2.0)
|   |   |   |   |   |   |   |   |   PredSA_r1 = 3
|   |   |   |   |   |   |   |   |   |   PredCN_r1 = 0: negative (1.0)
|   |   |   |   |   |   |   |   |   |   PredCN_r1 = 1
|   |   |   |   |   |   |   |   |   |   |   PredSS_central = H: negative (0.0)
|   |   |   |   |   |   |   |   |   |   |   PredSS_central = E: negative (3.0)
|   |   |   |   |   |   |   |   |   |   |   PredSS_central = C: positive (2.0)
|   |   |   |   |   |   |   |   |   |   PredCN_r1 = 2: negative (1.0)
|   |   |   |   |   |   |   |   |   |   PredCN_r1 = 3
|   |   |   |   |   |   |   |   |   |   |   PredSS_central = H: positive (0.0)
|   |   |   |   |   |   |   |   |   |   |   PredSS_central = E: positive (4.0)
|   |   |   |   |   |   |   |   |   |   |   PredSS_central = C: negative (2.0)
|   |   |   |   |   |   |   |   |   |   PredCN_r1 = 4: negative (3.0)
|   |   |   |   |   |   |   |   |   PredSA_r1 = 4
|   |   |   |   |   |   |   |   |   |   PredRCH_freq_central_0 <= 0.366: negative (6.0)
|   |   |   |   |   |   |   |   |   |   PredRCH_freq_central_0 > 0.366
|   |   |   |   |   |   |   |   |   |   |   separation <= 7: positive (5.0)
|   |   |   |   |   |   |   |   |   |   |   separation > 7: negative (2.0)
|   |   |   |   |   |   PredCN_r2 = 1
|   |   |   |   |   |   |   separation <= 6
|   |   |   |   |   |   |   |   PredRCH_freq_central_0 <= 0.1: negative (5.0)
|   |   |   |   |   |   |   |   PredRCH_freq_central_0 > 0.1
|   |   |   |   |   |   |   |   |   PredSS_r1 = H
|   |   |   |   |   |   |   |   |   |   PredCN_freq_global_0 <= 0.331: positive (14.0)
|   |   |   |   |   |   |   |   |   |   PredCN_freq_global_0 > 0.331: negative (3.0/1.0)
|   |   |   |   |   |   |   |   |   PredSS_r1 = E
|   |   |   |   |   |   |   |   |   |   PredCN_freq_central_0 <= 0.1: negative (3.0)
|   |   |   |   |   |   |   |   |   |   PredCN_freq_central_0 > 0.1: positive (5.0)
|   |   |   |   |   |   |   |   |   PredSS_r1 = C
|   |   |   |   |   |   |   |   |   |   length <= 123: negative (4.0)
|   |   |   |   |   |   |   |   |   |   length > 123: positive (9.0/3.0)
|   |   |   |   |   |   |   separation > 6
|   |   |   |   |   |   |   |   PredCN_r1 = 0: negative (35.0/6.0)
|   |   |   |   |   |   |   |   PredCN_r1 = 1
|   |   |   |   |   |   |   |   |   PredCN_central = 0: negative (9.0/1.0)
|   |   |   |   |   |   |   |   |   PredCN_central = 1
|   |   |   |   |   |   |   |   |   |   propensity <= -0.568282: positive (2.0)
|   |   |   |   |   |   |   |   |   |   propensity > -0.568282: negative (4.0)
|   |   |   |   |   |   |   |   |   PredCN_central = 2: positive (2.0/1.0)
|   |   |   |   |   |   |   |   |   PredCN_central = 3
|   |   |   |   |   |   |   |   |   |   PredSS_central = H: positive (3.0)
|   |   |   |   |   |   |   |   |   |   PredSS_central = E: negative (5.0/1.0)
|   |   |   |   |   |   |   |   |   |   PredSS_central = C: positive (3.0)
|   |   |   |   |   |   |   |   |   PredCN_central = 4
|   |   |   |   |   |   |   |   |   |   PredRCH_freq_global_0 <= 0.253: negative (4.0)
|   |   |   |   |   |   |   |   |   |   PredRCH_freq_global_0 > 0.253: positive (2.0)
|   |   |   |   |   |   |   |   PredCN_r1 = 2: positive (7.0/1.0)
|   |   |   |   |   |   |   |   PredCN_r1 = 3
|   |   |   |   |   |   |   |   |   PredSS_r1 = H
|   |   |   |   |   |   |   |   |   |   PredCN_freq_central_0 <= 0.325
|   |   |   |   |   |   |   |   |   |   |   separation <= 9: positive (4.0)
|   |   |   |   |   |   |   |   |   |   |   separation > 9: negative (2.0)
|   |   |   |   |   |   |   |   |   |   PredCN_freq_central_0 > 0.325: negative (4.0)
|   |   |   |   |   |   |   |   |   PredSS_r1 = E
|   |   |   |   |   |   |   |   |   |   propensity <= -0.376477: negative (4.0)
|   |   |   |   |   |   |   |   |   |   propensity > -0.376477
|   |   |   |   |   |   |   |   |   |   |   PredCN_freq_central_0 <= 0.15: negative (3.0/1.0)
|   |   |   |   |   |   |   |   |   |   |   PredCN_freq_central_0 > 0.15: positive (4.0)
|   |   |   |   |   |   |   |   |   PredSS_r1 = C: negative (18.0/1.0)
|   |   |   |   |   |   |   |   PredCN_r1 = 4
|   |   |   |   |   |   |   |   |   PredSA_r1 = 0
|   |   |   |   |   |   |   |   |   |   PredCN_freq_central_0 <= 0.234: negative (6.0)
|   |   |   |   |   |   |   |   |   |   PredCN_freq_central_0 > 0.234: positive (4.0/1.0)
|   |   |   |   |   |   |   |   |   PredSA_r1 = 1
|   |   |   |   |   |   |   |   |   |   propensity <= -0.507532: negative (2.0)
|   |   |   |   |   |   |   |   |   |   propensity > -0.507532: positive (6.0)
|   |   |   |   |   |   |   |   |   PredSA_r1 = 2: positive (0.0)
|   |   |   |   |   |   |   |   |   PredSA_r1 = 3: negative (1.0)
|   |   |   |   |   |   |   |   |   PredSA_r1 = 4: positive (1.0)
|   |   |   |   |   |   PredCN_r2 = 2: negative (15.0/1.0)
|   |   |   |   |   |   PredCN_r2 = 3
|   |   |   |   |   |   |   PredRCH_r1 = 0: negative (10.0/1.0)
|   |   |   |   |   |   |   PredRCH_r1 = 1
|   |   |   |   |   |   |   |   PredCN_r1 = 0: negative (3.0)
|   |   |   |   |   |   |   |   PredCN_r1 = 1: negative (1.0)
|   |   |   |   |   |   |   |   PredCN_r1 = 2: positive (2.0)
|   |   |   |   |   |   |   |   PredCN_r1 = 3: positive (1.0)
|   |   |   |   |   |   |   |   PredCN_r1 = 4: negative (0.0)
|   |   |   |   |   |   |   PredRCH_r1 = 2: positive (1.0)
|   |   |   |   |   |   |   PredRCH_r1 = 3: positive (7.0/2.0)
|   |   |   |   |   |   |   PredRCH_r1 = 4: positive (1.0)
|   |   |   |   |   |   PredCN_r2 = 4: positive (4.0)
|   |   |   |   |   PredRCH_r2 = 1
|   |   |   |   |   |   separation <= 7
|   |   |   |   |   |   |   PredSA_central = 0: positive (16.0/1.0)
|   |   |   |   |   |   |   PredSA_central = 1
|   |   |   |   |   |   |   |   PredSS_central = H: positive (1.0)
|   |   |   |   |   |   |   |   PredSS_central = E: negative (2.0)
|   |   |   |   |   |   |   |   PredSS_central = C
|   |   |   |   |   |   |   |   |   PredCN_central = 0: positive (0.0)
|   |   |   |   |   |   |   |   |   PredCN_central = 1: positive (0.0)
|   |   |   |   |   |   |   |   |   PredCN_central = 2: positive (0.0)
|   |   |   |   |   |   |   |   |   PredCN_central = 3: negative (6.0/2.0)
|   |   |   |   |   |   |   |   |   PredCN_central = 4: positive (5.0)
|   |   |   |   |   |   |   PredSA_central = 3
|   |   |   |   |   |   |   |   PredCN_freq_central_0 <= 0.266: positive (13.0/2.0)
|   |   |   |   |   |   |   |   PredCN_freq_central_0 > 0.266
|   |   |   |   |   |   |   |   |   PredCN_r1 = 0: negative (1.0)
|   |   |   |   |   |   |   |   |   PredCN_r1 = 1: negative (2.0)
|   |   |   |   |   |   |   |   |   PredCN_r1 = 2: negative (0.0)
|   |   |   |   |   |   |   |   |   PredCN_r1 = 3
|   |   |   |   |   |   |   |   |   |   PredCN_freq_central_0 <= 0.5: negative (4.0)
|   |   |   |   |   |   |   |   |   |   PredCN_freq_central_0 > 0.5: positive (4.0/1.0)
|   |   |   |   |   |   |   |   |   PredCN_r1 = 4: positive (2.0)
|   |   |   |   |   |   |   PredSA_central = 2: negative (8.0/2.0)
|   |   |   |   |   |   |   PredSA_central = 4
|   |   |   |   |   |   |   |   PredCN_r1 = 0: negative (6.0/1.0)
|   |   |   |   |   |   |   |   PredCN_r1 = 1: positive (4.0)
|   |   |   |   |   |   |   |   PredCN_r1 = 2: negative (3.0/1.0)
|   |   |   |   |   |   |   |   PredCN_r1 = 3: positive (5.0/1.0)
|   |   |   |   |   |   |   |   PredCN_r1 = 4
|   |   |   |   |   |   |   |   |   PredRCH_freq_central_0 <= 0.366: positive (2.0)
|   |   |   |   |   |   |   |   |   PredRCH_freq_central_0 > 0.366: negative (4.0)
|   |   |   |   |   |   separation > 7
|   |   |   |   |   |   |   PredSS_central = H
|   |   |   |   |   |   |   |   PredSS_r1 = H: negative (9.0/3.0)
|   |   |   |   |   |   |   |   PredSS_r1 = E: positive (4.0)
|   |   |   |   |   |   |   |   PredSS_r1 = C
|   |   |   |   |   |   |   |   |   length <= 117: negative (3.0)
|   |   |   |   |   |   |   |   |   length > 117: positive (8.0/1.0)
|   |   |   |   |   |   |   PredSS_central = E: negative (26.0/8.0)
|   |   |   |   |   |   |   PredSS_central = C
|   |   |   |   |   |   |   |   PredSA_freq_global_0 <= 0.07: negative (11.0)
|   |   |   |   |   |   |   |   PredSA_freq_global_0 > 0.07
|   |   |   |   |   |   |   |   |   PredSS_r1 = H: negative (7.0/1.0)
|   |   |   |   |   |   |   |   |   PredSS_r1 = E
|   |   |   |   |   |   |   |   |   |   PredSA_r1 = 0: positive (3.0)
|   |   |   |   |   |   |   |   |   |   PredSA_r1 = 1: negative (4.0/1.0)
|   |   |   |   |   |   |   |   |   |   PredSA_r1 = 2: positive (0.0)
|   |   |   |   |   |   |   |   |   |   PredSA_r1 = 3: positive (4.0)
|   |   |   |   |   |   |   |   |   |   PredSA_r1 = 4: negative (1.0)
|   |   |   |   |   |   |   |   |   PredSS_r1 = C
|   |   |   |   |   |   |   |   |   |   PredSA_r1 = 0: negative (3.0)
|   |   |   |   |   |   |   |   |   |   PredSA_r1 = 1
|   |   |   |   |   |   |   |   |   |   |   PredSA_r2 = 0: negative (0.0)
|   |   |   |   |   |   |   |   |   |   |   PredSA_r2 = 1: negative (0.0)
|   |   |   |   |   |   |   |   |   |   |   PredSA_r2 = 2: negative (0.0)
|   |   |   |   |   |   |   |   |   |   |   PredSA_r2 = 3: negative (3.0)
|   |   |   |   |   |   |   |   |   |   |   PredSA_r2 = 4: positive (2.0)
|   |   |   |   |   |   |   |   |   |   PredSA_r1 = 2: negative (2.0)
|   |   |   |   |   |   |   |   |   |   PredSA_r1 = 3
|   |   |   |   |   |   |   |   |   |   |   PredRCH_r1 = 0: positive (4.0/2.0)
|   |   |   |   |   |   |   |   |   |   |   PredRCH_r1 = 1: positive (2.0)
|   |   |   |   |   |   |   |   |   |   |   PredRCH_r1 = 2: positive (0.0)
|   |   |   |   |   |   |   |   |   |   |   PredRCH_r1 = 3: negative (2.0)
|   |   |   |   |   |   |   |   |   |   |   PredRCH_r1 = 4: positive (0.0)
|   |   |   |   |   |   |   |   |   |   PredSA_r1 = 4
|   |   |   |   |   |   |   |   |   |   |   PredCN_freq_global_0 <= 0.203: negative (5.0/1.0)
|   |   |   |   |   |   |   |   |   |   |   PredCN_freq_global_0 > 0.203: positive (8.0/2.0)
|   |   |   |   |   PredRCH_r2 = 2: negative (36.0/12.0)
|   |   |   |   |   PredRCH_r2 = 3
|   |   |   |   |   |   PredRCH_r1 = 0
|   |   |   |   |   |   |   PredSS_r1 = H: negative (19.0/2.0)
|   |   |   |   |   |   |   PredSS_r1 = E: negative (5.0/1.0)
|   |   |   |   |   |   |   PredSS_r1 = C
|   |   |   |   |   |   |   |   PredCN_r1 = 0
|   |   |   |   |   |   |   |   |   PredSA_r1 = 0: negative (0.0)
|   |   |   |   |   |   |   |   |   PredSA_r1 = 1: negative (0.0)
|   |   |   |   |   |   |   |   |   PredSA_r1 = 2: negative (0.0)
|   |   |   |   |   |   |   |   |   PredSA_r1 = 3: positive (5.0/1.0)
|   |   |   |   |   |   |   |   |   PredSA_r1 = 4
|   |   |   |   |   |   |   |   |   |   PredSA_central = 0: negative (7.0/1.0)
|   |   |   |   |   |   |   |   |   |   PredSA_central = 1: negative (1.0)
|   |   |   |   |   |   |   |   |   |   PredSA_central = 3
|   |   |   |   |   |   |   |   |   |   |   PredCN_freq_global_0 <= 0.362: negative (17.0/3.0)
|   |   |   |   |   |   |   |   |   |   |   PredCN_freq_global_0 > 0.362: positive (3.0)
|   |   |   |   |   |   |   |   |   |   PredSA_central = 2: negative (3.0)
|   |   |   |   |   |   |   |   |   |   PredSA_central = 4
|   |   |   |   |   |   |   |   |   |   |   PredSS_central = H: positive (2.0)
|   |   |   |   |   |   |   |   |   |   |   PredSS_central = E: positive (0.0)
|   |   |   |   |   |   |   |   |   |   |   PredSS_central = C
|   |   |   |   |   |   |   |   |   |   |   |   PredCN_freq_global_0 <= 0.242
|   |   |   |   |   |   |   |   |   |   |   |   |   PredSA_freq_global_0 <= 0.21: positive (7.0)
|   |   |   |   |   |   |   |   |   |   |   |   |   PredSA_freq_global_0 > 0.21: negative (2.0)
|   |   |   |   |   |   |   |   |   |   |   |   PredCN_freq_global_0 > 0.242: negative (9.0/1.0)
|   |   |   |   |   |   |   |   PredCN_r1 = 1
|   |   |   |   |   |   |   |   |   PredSS_central = H: negative (3.0)
|   |   |   |   |   |   |   |   |   PredSS_central = E
|   |   |   |   |   |   |   |   |   |   separation <= 10: positive (3.0)
|   |   |   |   |   |   |   |   |   |   separation > 10
|   |   |   |   |   |   |   |   |   |   |   PredCN_freq_central_0 <= 0.045
|   |   |   |   |   |   |   |   |   |   |   |   propensity <= -0.576346: negative (2.0)
|   |   |   |   |   |   |   |   |   |   |   |   propensity > -0.576346: positive (2.0)
|   |   |   |   |   |   |   |   |   |   |   PredCN_freq_central_0 > 0.045: negative (2.0)
|   |   |   |   |   |   |   |   |   PredSS_central = C
|   |   |   |   |   |   |   |   |   |   PredSA_r2 = 0: negative (4.0)
|   |   |   |   |   |   |   |   |   |   PredSA_r2 = 1
|   |   |   |   |   |   |   |   |   |   |   separation <= 8: positive (5.0/1.0)
|   |   |   |   |   |   |   |   |   |   |   separation > 8: negative (3.0)
|   |   |   |   |   |   |   |   |   |   PredSA_r2 = 2: positive (4.0/1.0)
|   |   |   |   |   |   |   |   |   |   PredSA_r2 = 3
|   |   |   |   |   |   |   |   |   |   |   PredCN_freq_global_0 <= 0.22: negative (4.0)
|   |   |   |   |   |   |   |   |   |   |   PredCN_freq_global_0 > 0.22: positive (2.0)
|   |   |   |   |   |   |   |   |   |   PredSA_r2 = 4: negative (1.0)
|   |   |   |   |   |   |   |   PredCN_r1 = 2: positive (1.0)
|   |   |   |   |   |   |   |   PredCN_r1 = 3
|   |   |   |   |   |   |   |   |   separation <= 7: positive (2.0)
|   |   |   |   |   |   |   |   |   separation > 7: negative (3.0/1.0)
|   |   |   |   |   |   |   |   PredCN_r1 = 4: negative (2.0)
|   |   |   |   |   |   PredRCH_r1 = 1
|   |   |   |   |   |   |   PredSA_r2 = 0
|   |   |   |   |   |   |   |   PredSA_central = 0: positive (2.0)
|   |   |   |   |   |   |   |   PredSA_central = 1: positive (1.0)
|   |   |   |   |   |   |   |   PredSA_central = 3: negative (2.0)
|   |   |   |   |   |   |   |   PredSA_central = 2: positive (0.0)
|   |   |   |   |   |   |   |   PredSA_central = 4
|   |   |   |   |   |   |   |   |   PredSA_r1 = 0: positive (0.0)
|   |   |   |   |   |   |   |   |   PredSA_r1 = 1: positive (0.0)
|   |   |   |   |   |   |   |   |   PredSA_r1 = 2: positive (0.0)
|   |   |   |   |   |   |   |   |   PredSA_r1 = 3: negative (2.0)
|   |   |   |   |   |   |   |   |   PredSA_r1 = 4: positive (4.0)
|   |   |   |   |   |   |   PredSA_r2 = 1
|   |   |   |   |   |   |   |   separation <= 7: positive (12.0/1.0)
|   |   |   |   |   |   |   |   separation > 7
|   |   |   |   |   |   |   |   |   PredSS_r1 = H: positive (5.0/1.0)
|   |   |   |   |   |   |   |   |   PredSS_r1 = E: negative (0.0)
|   |   |   |   |   |   |   |   |   PredSS_r1 = C: negative (5.0)
|   |   |   |   |   |   |   PredSA_r2 = 2
|   |   |   |   |   |   |   |   propensity <= -0.568282: positive (2.0)
|   |   |   |   |   |   |   |   propensity > -0.568282: negative (2.0)
|   |   |   |   |   |   |   PredSA_r2 = 3: negative (14.0/5.0)
|   |   |   |   |   |   |   PredSA_r2 = 4: positive (11.0/2.0)
|   |   |   |   |   |   PredRCH_r1 = 2
|   |   |   |   |   |   |   PredSA_r2 = 0: negative (1.0)
|   |   |   |   |   |   |   PredSA_r2 = 1: positive (11.0/1.0)
|   |   |   |   |   |   |   PredSA_r2 = 2: positive (0.0)
|   |   |   |   |   |   |   PredSA_r2 = 3
|   |   |   |   |   |   |   |   PredRCH_freq_central_0 <= 0.472: negative (2.0)
|   |   |   |   |   |   |   |   PredRCH_freq_central_0 > 0.472: positive (2.0)
|   |   |   |   |   |   |   PredSA_r2 = 4: positive (0.0)
|   |   |   |   |   |   PredRCH_r1 = 3
|   |   |   |   |   |   |   PredSA_r2 = 0: positive (30.0/4.0)
|   |   |   |   |   |   |   PredSA_r2 = 1: positive (68.0/20.0)
|   |   |   |   |   |   |   PredSA_r2 = 2
|   |   |   |   |   |   |   |   PredCN_freq_global_0 <= 0.157: negative (5.0)
|   |   |   |   |   |   |   |   PredCN_freq_global_0 > 0.157
|   |   |   |   |   |   |   |   |   PredRCH_freq_global_0 <= 0.352: positive (9.0)
|   |   |   |   |   |   |   |   |   PredRCH_freq_global_0 > 0.352: negative (4.0/1.0)
|   |   |   |   |   |   |   PredSA_r2 = 3
|   |   |   |   |   |   |   |   PredCN_r2 = 0: positive (2.0/1.0)
|   |   |   |   |   |   |   |   PredCN_r2 = 1: negative (2.0)
|   |   |   |   |   |   |   |   PredCN_r2 = 2
|   |   |   |   |   |   |   |   |   separation <= 8: positive (2.0)
|   |   |   |   |   |   |   |   |   separation > 8: negative (4.0)
|   |   |   |   |   |   |   |   PredCN_r2 = 3: positive (60.0/17.0)
|   |   |   |   |   |   |   |   PredCN_r2 = 4
|   |   |   |   |   |   |   |   |   PredSA_central = 0: positive (0.0)
|   |   |   |   |   |   |   |   |   PredSA_central = 1: negative (1.0)
|   |   |   |   |   |   |   |   |   PredSA_central = 3
|   |   |   |   |   |   |   |   |   |   length <= 222: negative (2.0)
|   |   |   |   |   |   |   |   |   |   length > 222: positive (2.0)
|   |   |   |   |   |   |   |   |   PredSA_central = 2: positive (0.0)
|   |   |   |   |   |   |   |   |   PredSA_central = 4: positive (3.0)
|   |   |   |   |   |   |   PredSA_r2 = 4
|   |   |   |   |   |   |   |   PredRCH_freq_global_0 <= 0.265: positive (6.0)
|   |   |   |   |   |   |   |   PredRCH_freq_global_0 > 0.265: negative (22.0/7.0)
|   |   |   |   |   |   PredRCH_r1 = 4
|   |   |   |   |   |   |   PredRCH_freq_central_0 <= 0.275
|   |   |   |   |   |   |   |   length <= 298: negative (10.0/1.0)
|   |   |   |   |   |   |   |   length > 298: positive (10.0/4.0)
|   |   |   |   |   |   |   PredRCH_freq_central_0 > 0.275: positive (13.0/2.0)
|   |   |   |   |   PredRCH_r2 = 4
|   |   |   |   |   |   PredSA_r1 = 0
|   |   |   |   |   |   |   PredCN_freq_global_0 <= 0.147: negative (4.0/1.0)
|   |   |   |   |   |   |   PredCN_freq_global_0 > 0.147: positive (6.0)
|   |   |   |   |   |   PredSA_r1 = 1: positive (8.0/1.0)
|   |   |   |   |   |   PredSA_r1 = 2: positive (5.0)
|   |   |   |   |   |   PredSA_r1 = 3
|   |   |   |   |   |   |   length <= 437: positive (8.0)
|   |   |   |   |   |   |   length > 437: negative (2.0)
|   |   |   |   |   |   PredSA_r1 = 4
|   |   |   |   |   |   |   PredCN_freq_central_0 <= 0.562: negative (10.0/2.0)
|   |   |   |   |   |   |   PredCN_freq_central_0 > 0.562: positive (3.0)
|   |   |   |   PredRCH_freq_central_0 > 0.563
|   |   |   |   |   PredRCH_r1 = 0
|   |   |   |   |   |   PredCN_r1 = 0
|   |   |   |   |   |   |   PredSA_r2 = 0
|   |   |   |   |   |   |   |   separation <= 7
|   |   |   |   |   |   |   |   |   propensity <= 0.065226: positive (2.0)
|   |   |   |   |   |   |   |   |   propensity > 0.065226: negative (2.0)
|   |   |   |   |   |   |   |   separation > 7: negative (2.0)
|   |   |   |   |   |   |   PredSA_r2 = 1: positive (20.0/4.0)
|   |   |   |   |   |   |   PredSA_r2 = 2
|   |   |   |   |   |   |   |   PredRCH_freq_central_0 <= 0.789: negative (5.0)
|   |   |   |   |   |   |   |   PredRCH_freq_central_0 > 0.789: positive (5.0)
|   |   |   |   |   |   |   PredSA_r2 = 3
|   |   |   |   |   |   |   |   PredRCH_freq_central_0 <= 0.707: negative (38.0/10.0)
|   |   |   |   |   |   |   |   PredRCH_freq_central_0 > 0.707: positive (28.0/8.0)
|   |   |   |   |   |   |   PredSA_r2 = 4
|   |   |   |   |   |   |   |   PredCN_central = 0
|   |   |   |   |   |   |   |   |   PredSS_central = H
|   |   |   |   |   |   |   |   |   |   PredSA_central = 0: negative (0.0)
|   |   |   |   |   |   |   |   |   |   PredSA_central = 1: negative (0.0)
|   |   |   |   |   |   |   |   |   |   PredSA_central = 3: negative (4.0/1.0)
|   |   |   |   |   |   |   |   |   |   PredSA_central = 2: negative (0.0)
|   |   |   |   |   |   |   |   |   |   PredSA_central = 4
|   |   |   |   |   |   |   |   |   |   |   PredSA_freq_global_0 <= 0.14: positive (3.0)
|   |   |   |   |   |   |   |   |   |   |   PredSA_freq_global_0 > 0.14: negative (6.0/1.0)
|   |   |   |   |   |   |   |   |   PredSS_central = E: positive (1.0)
|   |   |   |   |   |   |   |   |   PredSS_central = C
|   |   |   |   |   |   |   |   |   |   PredRCH_r2 = 0: negative (48.0/6.0)
|   |   |   |   |   |   |   |   |   |   PredRCH_r2 = 1
|   |   |   |   |   |   |   |   |   |   |   PredCN_freq_central_0 <= 0.926: positive (2.0)
|   |   |   |   |   |   |   |   |   |   |   PredCN_freq_central_0 > 0.926: negative (3.0)
|   |   |   |   |   |   |   |   |   |   PredRCH_r2 = 2: negative (3.0/1.0)
|   |   |   |   |   |   |   |   |   |   PredRCH_r2 = 3: positive (4.0/1.0)
|   |   |   |   |   |   |   |   |   |   PredRCH_r2 = 4: negative (0.0)
|   |   |   |   |   |   |   |   PredCN_central = 1
|   |   |   |   |   |   |   |   |   propensity <= -0.629576: negative (2.0)
|   |   |   |   |   |   |   |   |   propensity > -0.629576: positive (14.0/1.0)
|   |   |   |   |   |   |   |   PredCN_central = 2
|   |   |   |   |   |   |   |   |   PredSS_r1 = H: negative (3.0)
|   |   |   |   |   |   |   |   |   PredSS_r1 = E: positive (0.0)
|   |   |   |   |   |   |   |   |   PredSS_r1 = C
|   |   |   |   |   |   |   |   |   |   separation <= 7: positive (5.0)
|   |   |   |   |   |   |   |   |   |   separation > 7
|   |   |   |   |   |   |   |   |   |   |   PredRCH_freq_central_0 <= 0.738: negative (3.0)
|   |   |   |   |   |   |   |   |   |   |   PredRCH_freq_central_0 > 0.738: positive (2.0)
|   |   |   |   |   |   |   |   PredCN_central = 3
|   |   |   |   |   |   |   |   |   PredCN_r2 = 0
|   |   |   |   |   |   |   |   |   |   PredRCH_r2 = 0
|   |   |   |   |   |   |   |   |   |   |   PredSS_central = H: negative (7.0)
|   |   |   |   |   |   |   |   |   |   |   PredSS_central = E: negative (5.0/1.0)
|   |   |   |   |   |   |   |   |   |   |   PredSS_central = C
|   |   |   |   |   |   |   |   |   |   |   |   PredSS_r1 = H: positive (5.0/1.0)
|   |   |   |   |   |   |   |   |   |   |   |   PredSS_r1 = E: negative (0.0)
|   |   |   |   |   |   |   |   |   |   |   |   PredSS_r1 = C
|   |   |   |   |   |   |   |   |   |   |   |   |   propensity <= -0.468591: positive (4.0/1.0)
|   |   |   |   |   |   |   |   |   |   |   |   |   propensity > -0.468591: negative (10.0/1.0)
|   |   |   |   |   |   |   |   |   |   PredRCH_r2 = 1: positive (5.0/1.0)
|   |   |   |   |   |   |   |   |   |   PredRCH_r2 = 2: negative (0.0)
|   |   |   |   |   |   |   |   |   |   PredRCH_r2 = 3: negative (0.0)
|   |   |   |   |   |   |   |   |   |   PredRCH_r2 = 4: negative (0.0)
|   |   |   |   |   |   |   |   |   PredCN_r2 = 1
|   |   |   |   |   |   |   |   |   |   PredSS_r1 = H: negative (0.0)
|   |   |   |   |   |   |   |   |   |   PredSS_r1 = E: positive (2.0)
|   |   |   |   |   |   |   |   |   |   PredSS_r1 = C
|   |   |   |   |   |   |   |   |   |   |   propensity <= -0.417446: negative (5.0)
|   |   |   |   |   |   |   |   |   |   |   propensity > -0.417446: positive (3.0/1.0)
|   |   |   |   |   |   |   |   |   PredCN_r2 = 2: positive (3.0)
|   |   |   |   |   |   |   |   |   PredCN_r2 = 3: positive (1.0)
|   |   |   |   |   |   |   |   |   PredCN_r2 = 4: positive (1.0)
|   |   |   |   |   |   |   |   PredCN_central = 4
|   |   |   |   |   |   |   |   |   separation <= 6: positive (7.0/2.0)
|   |   |   |   |   |   |   |   |   separation > 6: negative (14.0/3.0)
|   |   |   |   |   |   PredCN_r1 = 1
|   |   |   |   |   |   |   PredSS_central = H
|   |   |   |   |   |   |   |   PredCN_r2 = 0: positive (3.0)
|   |   |   |   |   |   |   |   PredCN_r2 = 1: negative (2.0)
|   |   |   |   |   |   |   |   PredCN_r2 = 2: positive (0.0)
|   |   |   |   |   |   |   |   PredCN_r2 = 3: negative (1.0)
|   |   |   |   |   |   |   |   PredCN_r2 = 4: positive (1.0)
|   |   |   |   |   |   |   PredSS_central = E
|   |   |   |   |   |   |   |   PredRCH_freq_central_0 <= 0.612
|   |   |   |   |   |   |   |   |   PredSA_r2 = 0: positive (0.0)
|   |   |   |   |   |   |   |   |   PredSA_r2 = 1: positive (0.0)
|   |   |   |   |   |   |   |   |   PredSA_r2 = 2: positive (0.0)
|   |   |   |   |   |   |   |   |   PredSA_r2 = 3: negative (2.0)
|   |   |   |   |   |   |   |   |   PredSA_r2 = 4: positive (2.0)
|   |   |   |   |   |   |   |   PredRCH_freq_central_0 > 0.612: positive (16.0)
|   |   |   |   |   |   |   PredSS_central = C
|   |   |   |   |   |   |   |   PredSS_r1 = H: negative (2.0)
|   |   |   |   |   |   |   |   PredSS_r1 = E
|   |   |   |   |   |   |   |   |   PredRCH_freq_global_0 <= 0.337: negative (4.0)
|   |   |   |   |   |   |   |   |   PredRCH_freq_global_0 > 0.337
|   |   |   |   |   |   |   |   |   |   PredSA_central = 0: positive (1.0)
|   |   |   |   |   |   |   |   |   |   PredSA_central = 1: positive (0.0)
|   |   |   |   |   |   |   |   |   |   PredSA_central = 3: positive (4.0)
|   |   |   |   |   |   |   |   |   |   PredSA_central = 2: positive (0.0)
|   |   |   |   |   |   |   |   |   |   PredSA_central = 4
|   |   |   |   |   |   |   |   |   |   |   propensity <= -0.311866: negative (3.0)
|   |   |   |   |   |   |   |   |   |   |   propensity > -0.311866: positive (2.0)
|   |   |   |   |   |   |   |   PredSS_r1 = C: positive (44.0/17.0)
|   |   |   |   |   |   PredCN_r1 = 2: positive (5.0/1.0)
|   |   |   |   |   |   PredCN_r1 = 3
|   |   |   |   |   |   |   PredSS_central = H: negative (0.0)
|   |   |   |   |   |   |   PredSS_central = E: positive (2.0)
|   |   |   |   |   |   |   PredSS_central = C: negative (3.0)
|   |   |   |   |   |   PredCN_r1 = 4: positive (2.0)
|   |   |   |   |   PredRCH_r1 = 1
|   |   |   |   |   |   separation <= 7: positive (121.0/23.0)
|   |   |   |   |   |   separation > 7
|   |   |   |   |   |   |   length <= 203
|   |   |   |   |   |   |   |   PredCN_r2 = 0
|   |   |   |   |   |   |   |   |   PredSS_central = H: negative (5.0)
|   |   |   |   |   |   |   |   |   PredSS_central = E: positive (2.0)
|   |   |   |   |   |   |   |   |   PredSS_central = C: negative (7.0/1.0)
|   |   |   |   |   |   |   |   PredCN_r2 = 1
|   |   |   |   |   |   |   |   |   PredRCH_freq_central_0 <= 0.707: negative (9.0)
|   |   |   |   |   |   |   |   |   PredRCH_freq_central_0 > 0.707: positive (4.0/1.0)
|   |   |   |   |   |   |   |   PredCN_r2 = 2: positive (7.0/2.0)
|   |   |   |   |   |   |   |   PredCN_r2 = 3
|   |   |   |   |   |   |   |   |   PredCN_r1 = 0: positive (5.0/1.0)
|   |   |   |   |   |   |   |   |   PredCN_r1 = 1: negative (5.0/1.0)
|   |   |   |   |   |   |   |   |   PredCN_r1 = 2: positive (1.0)
|   |   |   |   |   |   |   |   |   PredCN_r1 = 3: negative (1.0)
|   |   |   |   |   |   |   |   |   PredCN_r1 = 4: positive (0.0)
|   |   |   |   |   |   |   |   PredCN_r2 = 4: positive (2.0)
|   |   |   |   |   |   |   length > 203: positive (18.0/2.0)
|   |   |   |   |   PredRCH_r1 = 2
|   |   |   |   |   |   PredRCH_r2 = 0
|   |   |   |   |   |   |   PredSA_r1 = 0: positive (2.0)
|   |   |   |   |   |   |   PredSA_r1 = 1
|   |   |   |   |   |   |   |   PredCN_r1 = 0: negative (0.0)
|   |   |   |   |   |   |   |   PredCN_r1 = 1: negative (0.0)
|   |   |   |   |   |   |   |   PredCN_r1 = 2: positive (2.0)
|   |   |   |   |   |   |   |   PredCN_r1 = 3: negative (3.0)
|   |   |   |   |   |   |   |   PredCN_r1 = 4: negative (0.0)
|   |   |   |   |   |   |   PredSA_r1 = 2
|   |   |   |   |   |   |   |   PredCN_freq_global_0 <= 0.177: negative (2.0)
|   |   |   |   |   |   |   |   PredCN_freq_global_0 > 0.177: positive (4.0)
|   |   |   |   |   |   |   PredSA_r1 = 3
|   |   |   |   |   |   |   |   PredSA_r2 = 0: positive (0.0)
|   |   |   |   |   |   |   |   PredSA_r2 = 1: positive (0.0)
|   |   |   |   |   |   |   |   PredSA_r2 = 2: positive (0.0)
|   |   |   |   |   |   |   |   PredSA_r2 = 3: positive (3.0)
|   |   |   |   |   |   |   |   PredSA_r2 = 4
|   |   |   |   |   |   |   |   |   separation <= 8
|   |   |   |   |   |   |   |   |   |   separation <= 6: negative (4.0/1.0)
|   |   |   |   |   |   |   |   |   |   separation > 6: positive (6.0)
|   |   |   |   |   |   |   |   |   separation > 8: negative (2.0)
|   |   |   |   |   |   |   PredSA_r1 = 4: negative (5.0)
|   |   |   |   |   |   PredRCH_r2 = 1
|   |   |   |   |   |   |   separation <= 9: positive (15.0/1.0)
|   |   |   |   |   |   |   separation > 9: negative (2.0)
|   |   |   |   |   |   PredRCH_r2 = 2: negative (2.0)
|   |   |   |   |   |   PredRCH_r2 = 3: positive (11.0/1.0)
|   |   |   |   |   |   PredRCH_r2 = 4: positive (0.0)
|   |   |   |   |   PredRCH_r1 = 3
|   |   |   |   |   |   PredRCH_r2 = 0
|   |   |   |   |   |   |   PredSA_r1 = 0
|   |   |   |   |   |   |   |   PredCN_central = 0
|   |   |   |   |   |   |   |   |   separation <= 8: negative (5.0)
|   |   |   |   |   |   |   |   |   separation > 8: positive (5.0/1.0)
|   |   |   |   |   |   |   |   PredCN_central = 1: positive (4.0)
|   |   |   |   |   |   |   |   PredCN_central = 2: negative (3.0/1.0)
|   |   |   |   |   |   |   |   PredCN_central = 3: positive (14.0/4.0)
|   |   |   |   |   |   |   |   PredCN_central = 4: negative (6.0)
|   |   |   |   |   |   |   PredSA_r1 = 1
|   |   |   |   |   |   |   |   PredCN_central = 0
|   |   |   |   |   |   |   |   |   PredCN_r1 = 0: positive (0.0)
|   |   |   |   |   |   |   |   |   PredCN_r1 = 1: positive (0.0)
|   |   |   |   |   |   |   |   |   PredCN_r1 = 2: positive (0.0)
|   |   |   |   |   |   |   |   |   PredCN_r1 = 3
|   |   |   |   |   |   |   |   |   |   PredSS_r1 = H
|   |   |   |   |   |   |   |   |   |   |   PredRCH_freq_central_0 <= 0.69: negative (5.0/1.0)
|   |   |   |   |   |   |   |   |   |   |   PredRCH_freq_central_0 > 0.69: positive (4.0/1.0)
|   |   |   |   |   |   |   |   |   |   PredSS_r1 = E: positive (5.0/1.0)
|   |   |   |   |   |   |   |   |   |   PredSS_r1 = C
|   |   |   |   |   |   |   |   |   |   |   PredCN_freq_global_0 <= 0.354: negative (6.0)
|   |   |   |   |   |   |   |   |   |   |   PredCN_freq_global_0 > 0.354: positive (3.0)
|   |   |   |   |   |   |   |   |   PredCN_r1 = 4: positive (5.0/1.0)
|   |   |   |   |   |   |   |   PredCN_central = 1: positive (4.0/1.0)
|   |   |   |   |   |   |   |   PredCN_central = 2: positive (1.0)
|   |   |   |   |   |   |   |   PredCN_central = 3: negative (16.0/6.0)
|   |   |   |   |   |   |   |   PredCN_central = 4
|   |   |   |   |   |   |   |   |   propensity <= 0.023586: positive (7.0)
|   |   |   |   |   |   |   |   |   propensity > 0.023586: negative (2.0)
|   |   |   |   |   |   |   PredSA_r1 = 2
|   |   |   |   |   |   |   |   propensity <= -0.667643: negative (2.0)
|   |   |   |   |   |   |   |   propensity > -0.667643
|   |   |   |   |   |   |   |   |   PredCN_r1 = 0: positive (0.0)
|   |   |   |   |   |   |   |   |   PredCN_r1 = 1: positive (0.0)
|   |   |   |   |   |   |   |   |   PredCN_r1 = 2: positive (0.0)
|   |   |   |   |   |   |   |   |   PredCN_r1 = 3: positive (14.0)
|   |   |   |   |   |   |   |   |   PredCN_r1 = 4
|   |   |   |   |   |   |   |   |   |   length <= 184: positive (2.0)
|   |   |   |   |   |   |   |   |   |   length > 184: negative (2.0)
|   |   |   |   |   |   |   PredSA_r1 = 3
|   |   |   |   |   |   |   |   PredSA_r2 = 0: positive (0.0)
|   |   |   |   |   |   |   |   PredSA_r2 = 1: positive (0.0)
|   |   |   |   |   |   |   |   PredSA_r2 = 2: positive (0.0)
|   |   |   |   |   |   |   |   PredSA_r2 = 3: positive (5.0)
|   |   |   |   |   |   |   |   PredSA_r2 = 4
|   |   |   |   |   |   |   |   |   separation <= 7: positive (11.0/2.0)
|   |   |   |   |   |   |   |   |   separation > 7: negative (25.0/9.0)
|   |   |   |   |   |   |   PredSA_r1 = 4
|   |   |   |   |   |   |   |   PredCN_freq_central_0 <= 0.651
|   |   |   |   |   |   |   |   |   PredSA_r2 = 0: negative (0.0)
|   |   |   |   |   |   |   |   |   PredSA_r2 = 1: negative (0.0)
|   |   |   |   |   |   |   |   |   PredSA_r2 = 2: negative (0.0)
|   |   |   |   |   |   |   |   |   PredSA_r2 = 3: positive (3.0)
|   |   |   |   |   |   |   |   |   PredSA_r2 = 4: negative (6.0/1.0)
|   |   |   |   |   |   |   |   PredCN_freq_central_0 > 0.651: positive (14.0)
|   |   |   |   |   |   PredRCH_r2 = 1: positive (69.0/20.0)
|   |   |   |   |   |   PredRCH_r2 = 2: positive (19.0/1.0)
|   |   |   |   |   |   PredRCH_r2 = 3: positive (108.0/28.0)
|   |   |   |   |   |   PredRCH_r2 = 4: negative (1.0)
|   |   |   |   |   PredRCH_r1 = 4
|   |   |   |   |   |   separation <= 6: negative (4.0)
|   |   |   |   |   |   separation > 6: positive (5.0/1.0)
|   |   separation > 12
|   |   |   PredCN_r2 = 0
|   |   |   |   PredRCH_freq_global_0 <= 0.679
|   |   |   |   |   separation <= 44
|   |   |   |   |   |   PredRCH_r1 = 0
|   |   |   |   |   |   |   PredSS_r1 = H
|   |   |   |   |   |   |   |   PredCN_freq_central_0 <= 0.895: negative (50.0/2.0)
|   |   |   |   |   |   |   |   PredCN_freq_central_0 > 0.895
|   |   |   |   |   |   |   |   |   PredRCH_freq_global_0 <= 0.422: positive (3.0)
|   |   |   |   |   |   |   |   |   PredRCH_freq_global_0 > 0.422: negative (3.0)
|   |   |   |   |   |   |   PredSS_r1 = E
|   |   |   |   |   |   |   |   PredRCH_freq_global_0 <= 0.397: negative (7.0)
|   |   |   |   |   |   |   |   PredRCH_freq_global_0 > 0.397
|   |   |   |   |   |   |   |   |   propensity <= -0.228215: positive (9.0/1.0)
|   |   |   |   |   |   |   |   |   propensity > -0.228215: negative (2.0)
|   |   |   |   |   |   |   PredSS_r1 = C: negative (217.0/43.0)
|   |   |   |   |   |   PredRCH_r1 = 1
|   |   |   |   |   |   |   PredSS_r2 = H: negative (18.0/2.0)
|   |   |   |   |   |   |   PredSS_r2 = E: positive (3.0/1.0)
|   |   |   |   |   |   |   PredSS_r2 = C
|   |   |   |   |   |   |   |   PredRCH_r2 = 0
|   |   |   |   |   |   |   |   |   PredCN_central = 0
|   |   |   |   |   |   |   |   |   |   PredSS_central = H
|   |   |   |   |   |   |   |   |   |   |   PredCN_freq_central_0 <= 0.469: positive (2.0)
|   |   |   |   |   |   |   |   |   |   |   PredCN_freq_central_0 > 0.469: negative (4.0)
|   |   |   |   |   |   |   |   |   |   PredSS_central = E: positive (1.0)
|   |   |   |   |   |   |   |   |   |   PredSS_central = C: negative (14.0/2.0)
|   |   |   |   |   |   |   |   |   PredCN_central = 1
|   |   |   |   |   |   |   |   |   |   PredSA_central = 0: negative (0.0)
|   |   |   |   |   |   |   |   |   |   PredSA_central = 1: negative (0.0)
|   |   |   |   |   |   |   |   |   |   PredSA_central = 3: negative (10.0/1.0)
|   |   |   |   |   |   |   |   |   |   PredSA_central = 2: negative (0.0)
|   |   |   |   |   |   |   |   |   |   PredSA_central = 4: positive (2.0)
|   |   |   |   |   |   |   |   |   PredCN_central = 2: negative (5.0)
|   |   |   |   |   |   |   |   |   PredCN_central = 3
|   |   |   |   |   |   |   |   |   |   length <= 94: positive (3.0)
|   |   |   |   |   |   |   |   |   |   length > 94
|   |   |   |   |   |   |   |   |   |   |   PredCN_freq_central_0 <= 0.321: positive (4.0/1.0)
|   |   |   |   |   |   |   |   |   |   |   PredCN_freq_central_0 > 0.321: negative (15.0/1.0)
|   |   |   |   |   |   |   |   |   PredCN_central = 4
|   |   |   |   |   |   |   |   |   |   separation <= 13: positive (2.0)
|   |   |   |   |   |   |   |   |   |   separation > 13: negative (9.0)
|   |   |   |   |   |   |   |   PredRCH_r2 = 1
|   |   |   |   |   |   |   |   |   PredSA_freq_global_0 <= 0.166: negative (5.0)
|   |   |   |   |   |   |   |   |   PredSA_freq_global_0 > 0.166: positive (5.0/1.0)
|   |   |   |   |   |   |   |   PredRCH_r2 = 2: negative (0.0)
|   |   |   |   |   |   |   |   PredRCH_r2 = 3: positive (2.0)
|   |   |   |   |   |   |   |   PredRCH_r2 = 4: negative (0.0)
|   |   |   |   |   |   PredRCH_r1 = 2: negative (41.0/6.0)
|   |   |   |   |   |   PredRCH_r1 = 3
|   |   |   |   |   |   |   separation <= 31
|   |   |   |   |   |   |   |   PredSA_freq_global_0 <= 0.136
|   |   |   |   |   |   |   |   |   PredSA_r2 = 0: negative (0.0)
|   |   |   |   |   |   |   |   |   PredSA_r2 = 1: negative (0.0)
|   |   |   |   |   |   |   |   |   PredSA_r2 = 2: negative (0.0)
|   |   |   |   |   |   |   |   |   PredSA_r2 = 3
|   |   |   |   |   |   |   |   |   |   PredRCH_freq_central_0 <= 0.419: negative (7.0/2.0)
|   |   |   |   |   |   |   |   |   |   PredRCH_freq_central_0 > 0.419: positive (8.0)
|   |   |   |   |   |   |   |   |   PredSA_r2 = 4
|   |   |   |   |   |   |   |   |   |   PredRCH_r2 = 0
|   |   |   |   |   |   |   |   |   |   |   PredSA_r1 = 0
|   |   |   |   |   |   |   |   |   |   |   |   length <= 164: negative (9.0)
|   |   |   |   |   |   |   |   |   |   |   |   length > 164: positive (2.0)
|   |   |   |   |   |   |   |   |   |   |   PredSA_r1 = 1: negative (21.0/6.0)
|   |   |   |   |   |   |   |   |   |   |   PredSA_r1 = 2: negative (3.0/1.0)
|   |   |   |   |   |   |   |   |   |   |   PredSA_r1 = 3
|   |   |   |   |   |   |   |   |   |   |   |   propensity <= -0.228215: negative (6.0/2.0)
|   |   |   |   |   |   |   |   |   |   |   |   propensity > -0.228215: positive (7.0/1.0)
|   |   |   |   |   |   |   |   |   |   |   PredSA_r1 = 4: negative (7.0/1.0)
|   |   |   |   |   |   |   |   |   |   PredRCH_r2 = 1
|   |   |   |   |   |   |   |   |   |   |   PredSA_central = 0: positive (0.0)
|   |   |   |   |   |   |   |   |   |   |   PredSA_central = 1: positive (2.0)
|   |   |   |   |   |   |   |   |   |   |   PredSA_central = 3: negative (4.0/1.0)
|   |   |   |   |   |   |   |   |   |   |   PredSA_central = 2: positive (0.0)
|   |   |   |   |   |   |   |   |   |   |   PredSA_central = 4: positive (3.0)
|   |   |   |   |   |   |   |   |   |   PredRCH_r2 = 2: negative (0.0)
|   |   |   |   |   |   |   |   |   |   PredRCH_r2 = 3: negative (3.0/1.0)
|   |   |   |   |   |   |   |   |   |   PredRCH_r2 = 4: negative (0.0)
|   |   |   |   |   |   |   |   PredSA_freq_global_0 > 0.136
|   |   |   |   |   |   |   |   |   separation <= 26: negative (110.0/17.0)
|   |   |   |   |   |   |   |   |   separation > 26
|   |   |   |   |   |   |   |   |   |   PredSS_central = H: positive (5.0)
|   |   |   |   |   |   |   |   |   |   PredSS_central = E: positive (0.0)
|   |   |   |   |   |   |   |   |   |   PredSS_central = C: negative (2.0)
|   |   |   |   |   |   |   separation > 31: negative (18.0)
|   |   |   |   |   |   PredRCH_r1 = 4: negative (14.0)
|   |   |   |   |   separation > 44: negative (32.0)
|   |   |   |   PredRCH_freq_global_0 > 0.679
|   |   |   |   |   length <= 80: negative (3.0)
|   |   |   |   |   length > 80
|   |   |   |   |   |   PredSA_central = 0: positive (0.0)
|   |   |   |   |   |   PredSA_central = 1: negative (1.0)
|   |   |   |   |   |   PredSA_central = 3: negative (2.0)
|   |   |   |   |   |   PredSA_central = 2: positive (0.0)
|   |   |   |   |   |   PredSA_central = 4
|   |   |   |   |   |   |   PredCN_r1 = 0
|   |   |   |   |   |   |   |   separation <= 33: positive (8.0)
|   |   |   |   |   |   |   |   separation > 33: negative (4.0/1.0)
|   |   |   |   |   |   |   PredCN_r1 = 1: negative (1.0)
|   |   |   |   |   |   |   PredCN_r1 = 2: positive (0.0)
|   |   |   |   |   |   |   PredCN_r1 = 3: positive (5.0)
|   |   |   |   |   |   |   PredCN_r1 = 4: negative (1.0)
|   |   |   PredCN_r2 = 1
|   |   |   |   propensity <= -0.667643: negative (65.0/8.0)
|   |   |   |   propensity > -0.667643
|   |   |   |   |   PredSS_r1 = H: negative (38.0/10.0)
|   |   |   |   |   PredSS_r1 = E
|   |   |   |   |   |   separation <= 22
|   |   |   |   |   |   |   separation <= 13: negative (8.0/1.0)
|   |   |   |   |   |   |   separation > 13
|   |   |   |   |   |   |   |   PredRCH_r1 = 0
|   |   |   |   |   |   |   |   |   PredSS_central = H: negative (1.0)
|   |   |   |   |   |   |   |   |   PredSS_central = E: positive (3.0)
|   |   |   |   |   |   |   |   |   PredSS_central = C: negative (4.0/1.0)
|   |   |   |   |   |   |   |   PredRCH_r1 = 1
|   |   |   |   |   |   |   |   |   PredRCH_freq_central_0 <= 0.483: positive (4.0)
|   |   |   |   |   |   |   |   |   PredRCH_freq_central_0 > 0.483: negative (4.0/1.0)
|   |   |   |   |   |   |   |   PredRCH_r1 = 2
|   |   |   |   |   |   |   |   |   PredCN_freq_central_0 <= 0.579: positive (2.0)
|   |   |   |   |   |   |   |   |   PredCN_freq_central_0 > 0.579: negative (2.0)
|   |   |   |   |   |   |   |   PredRCH_r1 = 3
|   |   |   |   |   |   |   |   |   PredSS_r2 = H: positive (3.0)
|   |   |   |   |   |   |   |   |   PredSS_r2 = E: positive (3.0)
|   |   |   |   |   |   |   |   |   PredSS_r2 = C
|   |   |   |   |   |   |   |   |   |   PredRCH_r2 = 0
|   |   |   |   |   |   |   |   |   |   |   PredCN_freq_central_0 <= 0.24: negative (6.0/1.0)
|   |   |   |   |   |   |   |   |   |   |   PredCN_freq_central_0 > 0.24: positive (16.0/2.0)
|   |   |   |   |   |   |   |   |   |   PredRCH_r2 = 1: negative (4.0/1.0)
|   |   |   |   |   |   |   |   |   |   PredRCH_r2 = 2: positive (0.0)
|   |   |   |   |   |   |   |   |   |   PredRCH_r2 = 3: positive (0.0)
|   |   |   |   |   |   |   |   |   |   PredRCH_r2 = 4: positive (1.0)
|   |   |   |   |   |   |   |   PredRCH_r1 = 4: positive (2.0/1.0)
|   |   |   |   |   |   separation > 22: negative (14.0/1.0)
|   |   |   |   |   PredSS_r1 = C
|   |   |   |   |   |   PredRCH_r1 = 0
|   |   |   |   |   |   |   PredSS_central = H
|   |   |   |   |   |   |   |   propensity <= -0.475949: positive (4.0)
|   |   |   |   |   |   |   |   propensity > -0.475949: negative (4.0)
|   |   |   |   |   |   |   PredSS_central = E: negative (12.0/1.0)
|   |   |   |   |   |   |   PredSS_central = C
|   |   |   |   |   |   |   |   length <= 152: negative (21.0/4.0)
|   |   |   |   |   |   |   |   length > 152
|   |   |   |   |   |   |   |   |   PredRCH_freq_central_0 <= 0.541: negative (20.0/6.0)
|   |   |   |   |   |   |   |   |   PredRCH_freq_central_0 > 0.541: positive (5.0/1.0)
|   |   |   |   |   |   PredRCH_r1 = 1
|   |   |   |   |   |   |   PredSA_central = 0
|   |   |   |   |   |   |   |   PredSA_r2 = 0: negative (0.0)
|   |   |   |   |   |   |   |   PredSA_r2 = 1: negative (0.0)
|   |   |   |   |   |   |   |   PredSA_r2 = 2: negative (0.0)
|   |   |   |   |   |   |   |   PredSA_r2 = 3: positive (4.0/1.0)
|   |   |   |   |   |   |   |   PredSA_r2 = 4: negative (3.0)
|   |   |   |   |   |   |   PredSA_central = 1: positive (4.0/1.0)
|   |   |   |   |   |   |   PredSA_central = 3: negative (5.0/1.0)
|   |   |   |   |   |   |   PredSA_central = 2: positive (0.0)
|   |   |   |   |   |   |   PredSA_central = 4: positive (5.0/1.0)
|   |   |   |   |   |   PredRCH_r1 = 2
|   |   |   |   |   |   |   PredRCH_freq_central_0 <= 0.407: negative (3.0)
|   |   |   |   |   |   |   PredRCH_freq_central_0 > 0.407: positive (4.0/1.0)
|   |   |   |   |   |   PredRCH_r1 = 3
|   |   |   |   |   |   |   PredCN_r1 = 0: positive (2.0/1.0)
|   |   |   |   |   |   |   PredCN_r1 = 1: negative (0.0)
|   |   |   |   |   |   |   PredCN_r1 = 2: positive (1.0)
|   |   |   |   |   |   |   PredCN_r1 = 3
|   |   |   |   |   |   |   |   PredCN_central = 0
|   |   |   |   |   |   |   |   |   PredCN_freq_central_0 <= 0.487: positive (4.0/1.0)
|   |   |   |   |   |   |   |   |   PredCN_freq_central_0 > 0.487: negative (4.0)
|   |   |   |   |   |   |   |   PredCN_central = 1
|   |   |   |   |   |   |   |   |   propensity <= -0.072807: negative (3.0)
|   |   |   |   |   |   |   |   |   propensity > -0.072807: positive (3.0)
|   |   |   |   |   |   |   |   PredCN_central = 2: negative (1.0)
|   |   |   |   |   |   |   |   PredCN_central = 3: negative (12.0/1.0)
|   |   |   |   |   |   |   |   PredCN_central = 4
|   |   |   |   |   |   |   |   |   propensity <= -0.021681: negative (2.0)
|   |   |   |   |   |   |   |   |   propensity > -0.021681: positive (2.0)
|   |   |   |   |   |   |   PredCN_r1 = 4
|   |   |   |   |   |   |   |   PredSS_r2 = H: negative (2.0)
|   |   |   |   |   |   |   |   PredSS_r2 = E: positive (0.0)
|   |   |   |   |   |   |   |   PredSS_r2 = C
|   |   |   |   |   |   |   |   |   length <= 222: positive (9.0/1.0)
|   |   |   |   |   |   |   |   |   length > 222: negative (2.0)
|   |   |   |   |   |   PredRCH_r1 = 4: negative (4.0/1.0)
|   |   |   PredCN_r2 = 2
|   |   |   |   PredSS_r1 = H
|   |   |   |   |   PredRCH_freq_central_0 <= 0.524: negative (13.0/1.0)
|   |   |   |   |   PredRCH_freq_central_0 > 0.524: positive (10.0/1.0)
|   |   |   |   PredSS_r1 = E
|   |   |   |   |   PredSA_freq_global_0 <= 0.146: positive (15.0)
|   |   |   |   |   PredSA_freq_global_0 > 0.146
|   |   |   |   |   |   PredSA_central = 0: negative (2.0)
|   |   |   |   |   |   PredSA_central = 1: positive (1.0)
|   |   |   |   |   |   PredSA_central = 3: positive (4.0)
|   |   |   |   |   |   PredSA_central = 2: positive (0.0)
|   |   |   |   |   |   PredSA_central = 4
|   |   |   |   |   |   |   PredRCH_freq_central_0 <= 0.427: negative (4.0)
|   |   |   |   |   |   |   PredRCH_freq_central_0 > 0.427: positive (4.0/1.0)
|   |   |   |   PredSS_r1 = C
|   |   |   |   |   PredSS_r2 = H
|   |   |   |   |   |   propensity <= -0.45308: negative (7.0)
|   |   |   |   |   |   propensity > -0.45308: positive (11.0/3.0)
|   |   |   |   |   PredSS_r2 = E: negative (21.0/1.0)
|   |   |   |   |   PredSS_r2 = C
|   |   |   |   |   |   propensity <= -0.606822: positive (11.0/2.0)
|   |   |   |   |   |   propensity > -0.606822: negative (28.0/7.0)
|   |   |   PredCN_r2 = 3
|   |   |   |   PredSA_r1 = 0: positive (63.0/22.0)
|   |   |   |   PredSA_r1 = 1
|   |   |   |   |   PredCN_central = 0
|   |   |   |   |   |   propensity <= -0.046904: positive (4.0/1.0)
|   |   |   |   |   |   propensity > -0.046904: negative (5.0)
|   |   |   |   |   PredCN_central = 1: negative (8.0/1.0)
|   |   |   |   |   PredCN_central = 2: positive (5.0/1.0)
|   |   |   |   |   PredCN_central = 3
|   |   |   |   |   |   separation <= 29: positive (14.0/2.0)
|   |   |   |   |   |   separation > 29: negative (3.0)
|   |   |   |   |   PredCN_central = 4: positive (10.0/3.0)
|   |   |   |   PredSA_r1 = 2
|   |   |   |   |   PredSA_central = 0: positive (7.0)
|   |   |   |   |   PredSA_central = 1: positive (0.0)
|   |   |   |   |   PredSA_central = 3: positive (3.0/1.0)
|   |   |   |   |   PredSA_central = 2: positive (1.0)
|   |   |   |   |   PredSA_central = 4: negative (3.0)
|   |   |   |   PredSA_r1 = 3
|   |   |   |   |   PredSS_central = H
|   |   |   |   |   |   PredCN_freq_global_0 <= 0.196: negative (17.0/1.0)
|   |   |   |   |   |   PredCN_freq_global_0 > 0.196
|   |   |   |   |   |   |   PredSA_r2 = 0
|   |   |   |   |   |   |   |   PredSA_freq_global_0 <= 0.151: negative (5.0)
|   |   |   |   |   |   |   |   PredSA_freq_global_0 > 0.151: positive (4.0/1.0)
|   |   |   |   |   |   |   PredSA_r2 = 1: positive (5.0/1.0)
|   |   |   |   |   |   |   PredSA_r2 = 2
|   |   |   |   |   |   |   |   separation <= 14: positive (2.0)
|   |   |   |   |   |   |   |   separation > 14: negative (2.0)
|   |   |   |   |   |   |   PredSA_r2 = 3: negative (8.0/1.0)
|   |   |   |   |   |   |   PredSA_r2 = 4
|   |   |   |   |   |   |   |   PredCN_freq_global_0 <= 0.248: positive (2.0)
|   |   |   |   |   |   |   |   PredCN_freq_global_0 > 0.248: negative (3.0)
|   |   |   |   |   PredSS_central = E
|   |   |   |   |   |   PredRCH_r2 = 0: positive (2.0/1.0)
|   |   |   |   |   |   PredRCH_r2 = 1: negative (4.0)
|   |   |   |   |   |   PredRCH_r2 = 2: positive (2.0/1.0)
|   |   |   |   |   |   PredRCH_r2 = 3
|   |   |   |   |   |   |   PredCN_central = 0: positive (0.0)
|   |   |   |   |   |   |   PredCN_central = 1: positive (5.0)
|   |   |   |   |   |   |   PredCN_central = 2: positive (3.0/1.0)
|   |   |   |   |   |   |   PredCN_central = 3
|   |   |   |   |   |   |   |   PredCN_freq_central_0 <= 0.389: negative (5.0)
|   |   |   |   |   |   |   |   PredCN_freq_central_0 > 0.389: positive (3.0)
|   |   |   |   |   |   |   PredCN_central = 4
|   |   |   |   |   |   |   |   propensity <= 0.166803: positive (8.0/1.0)
|   |   |   |   |   |   |   |   propensity > 0.166803: negative (3.0)
|   |   |   |   |   |   PredRCH_r2 = 4: negative (1.0)
|   |   |   |   |   PredSS_central = C
|   |   |   |   |   |   length <= 87: positive (6.0)
|   |   |   |   |   |   length > 87
|   |   |   |   |   |   |   PredRCH_freq_central_0 <= 0.478
|   |   |   |   |   |   |   |   PredCN_freq_central_0 <= 0.089: positive (7.0/3.0)
|   |   |   |   |   |   |   |   PredCN_freq_central_0 > 0.089: negative (31.0/2.0)
|   |   |   |   |   |   |   PredRCH_freq_central_0 > 0.478
|   |   |   |   |   |   |   |   PredSA_central = 0: positive (3.0)
|   |   |   |   |   |   |   |   PredSA_central = 1: positive (4.0)
|   |   |   |   |   |   |   |   PredSA_central = 3
|   |   |   |   |   |   |   |   |   PredCN_r1 = 0: negative (1.0)
|   |   |   |   |   |   |   |   |   PredCN_r1 = 1: negative (2.0)
|   |   |   |   |   |   |   |   |   PredCN_r1 = 2: positive (2.0)
|   |   |   |   |   |   |   |   |   PredCN_r1 = 3
|   |   |   |   |   |   |   |   |   |   PredSA_freq_global_0 <= 0.209: positive (8.0/1.0)
|   |   |   |   |   |   |   |   |   |   PredSA_freq_global_0 > 0.209: negative (3.0)
|   |   |   |   |   |   |   |   |   PredCN_r1 = 4: negative (1.0)
|   |   |   |   |   |   |   |   PredSA_central = 2: positive (2.0/1.0)
|   |   |   |   |   |   |   |   PredSA_central = 4
|   |   |   |   |   |   |   |   |   PredSA_freq_global_0 <= 0.013: positive (2.0)
|   |   |   |   |   |   |   |   |   PredSA_freq_global_0 > 0.013: negative (9.0/1.0)
|   |   |   |   PredSA_r1 = 4
|   |   |   |   |   PredCN_r1 = 0: negative (143.0/42.0)
|   |   |   |   |   PredCN_r1 = 1
|   |   |   |   |   |   PredCN_freq_global_0 <= 0.107: positive (3.0)
|   |   |   |   |   |   PredCN_freq_global_0 > 0.107: negative (28.0/1.0)
|   |   |   |   |   PredCN_r1 = 2
|   |   |   |   |   |   PredRCH_r2 = 0: negative (0.0)
|   |   |   |   |   |   PredRCH_r2 = 1: negative (3.0)
|   |   |   |   |   |   PredRCH_r2 = 2: negative (0.0)
|   |   |   |   |   |   PredRCH_r2 = 3: positive (5.0/2.0)
|   |   |   |   |   |   PredRCH_r2 = 4: negative (0.0)
|   |   |   |   |   PredCN_r1 = 3
|   |   |   |   |   |   PredRCH_r1 = 0: negative (2.0)
|   |   |   |   |   |   PredRCH_r1 = 1: negative (2.0)
|   |   |   |   |   |   PredRCH_r1 = 2: negative (0.0)
|   |   |   |   |   |   PredRCH_r1 = 3
|   |   |   |   |   |   |   PredSA_freq_global_0 <= 0.162: negative (8.0/1.0)
|   |   |   |   |   |   |   PredSA_freq_global_0 > 0.162: positive (5.0)
|   |   |   |   |   |   PredRCH_r1 = 4: positive (2.0)
|   |   |   |   |   PredCN_r1 = 4
|   |   |   |   |   |   separation <= 15: positive (2.0)
|   |   |   |   |   |   separation > 15: negative (5.0)
|   |   |   PredCN_r2 = 4
|   |   |   |   PredSA_r1 = 0: positive (27.0/5.0)
|   |   |   |   PredSA_r1 = 1
|   |   |   |   |   PredCN_r1 = 0: positive (0.0)
|   |   |   |   |   PredCN_r1 = 1: positive (0.0)
|   |   |   |   |   PredCN_r1 = 2: positive (0.0)
|   |   |   |   |   PredCN_r1 = 3
|   |   |   |   |   |   PredSS_r1 = H: positive (2.0)
|   |   |   |   |   |   PredSS_r1 = E: negative (1.0)
|   |   |   |   |   |   PredSS_r1 = C: negative (8.0/2.0)
|   |   |   |   |   PredCN_r1 = 4: positive (15.0/2.0)
|   |   |   |   PredSA_r1 = 2
|   |   |   |   |   separation <= 15: positive (4.0)
|   |   |   |   |   separation > 15: negative (3.0)
|   |   |   |   PredSA_r1 = 3
|   |   |   |   |   PredSS_r1 = H
|   |   |   |   |   |   PredSA_r2 = 0: negative (6.0)
|   |   |   |   |   |   PredSA_r2 = 1: positive (2.0)
|   |   |   |   |   |   PredSA_r2 = 2: negative (0.0)
|   |   |   |   |   |   PredSA_r2 = 3: negative (2.0)
|   |   |   |   |   |   PredSA_r2 = 4: negative (0.0)
|   |   |   |   |   PredSS_r1 = E: positive (26.0/6.0)
|   |   |   |   |   PredSS_r1 = C
|   |   |   |   |   |   PredCN_r1 = 0: negative (9.0/3.0)
|   |   |   |   |   |   PredCN_r1 = 1
|   |   |   |   |   |   |   PredRCH_freq_central_0 <= 0.464: negative (6.0/1.0)
|   |   |   |   |   |   |   PredRCH_freq_central_0 > 0.464: positive (8.0/1.0)
|   |   |   |   |   |   PredCN_r1 = 2: negative (7.0/2.0)
|   |   |   |   |   |   PredCN_r1 = 3
|   |   |   |   |   |   |   PredRCH_r2 = 0: positive (0.0)
|   |   |   |   |   |   |   PredRCH_r2 = 1: positive (0.0)
|   |   |   |   |   |   |   PredRCH_r2 = 2: positive (0.0)
|   |   |   |   |   |   |   PredRCH_r2 = 3
|   |   |   |   |   |   |   |   PredCN_freq_central_0 <= 0.56: positive (14.0/1.0)
|   |   |   |   |   |   |   |   PredCN_freq_central_0 > 0.56: negative (2.0)
|   |   |   |   |   |   |   PredRCH_r2 = 4: negative (2.0)
|   |   |   |   |   |   PredCN_r1 = 4
|   |   |   |   |   |   |   PredCN_freq_central_0 <= 0.135: positive (2.0)
|   |   |   |   |   |   |   PredCN_freq_central_0 > 0.135: negative (2.0)
|   |   |   |   PredSA_r1 = 4
|   |   |   |   |   separation <= 28
|   |   |   |   |   |   PredRCH_r1 = 0
|   |   |   |   |   |   |   PredSS_r1 = H: negative (3.0)
|   |   |   |   |   |   |   PredSS_r1 = E: positive (3.0/1.0)
|   |   |   |   |   |   |   PredSS_r1 = C
|   |   |   |   |   |   |   |   PredCN_r1 = 0
|   |   |   |   |   |   |   |   |   PredCN_central = 0
|   |   |   |   |   |   |   |   |   |   PredSA_freq_global_0 <= 0.109: positive (3.0)
|   |   |   |   |   |   |   |   |   |   PredSA_freq_global_0 > 0.109: negative (3.0)
|   |   |   |   |   |   |   |   |   PredCN_central = 1
|   |   |   |   |   |   |   |   |   |   PredSS_central = H: positive (0.0)
|   |   |   |   |   |   |   |   |   |   PredSS_central = E: negative (2.0)
|   |   |   |   |   |   |   |   |   |   PredSS_central = C: positive (3.0)
|   |   |   |   |   |   |   |   |   PredCN_central = 2: negative (2.0)
|   |   |   |   |   |   |   |   |   PredCN_central = 3: negative (10.0/2.0)
|   |   |   |   |   |   |   |   |   PredCN_central = 4: negative (0.0)
|   |   |   |   |   |   |   |   PredCN_r1 = 1
|   |   |   |   |   |   |   |   |   PredSS_r2 = H: negative (1.0)
|   |   |   |   |   |   |   |   |   PredSS_r2 = E: negative (4.0)
|   |   |   |   |   |   |   |   |   PredSS_r2 = C: positive (5.0)
|   |   |   |   |   |   |   |   PredCN_r1 = 2: positive (1.0)
|   |   |   |   |   |   |   |   PredCN_r1 = 3: negative (2.0)
|   |   |   |   |   |   |   |   PredCN_r1 = 4: negative (0.0)
|   |   |   |   |   |   PredRCH_r1 = 1
|   |   |   |   |   |   |   PredSS_central = H: positive (4.0)
|   |   |   |   |   |   |   PredSS_central = E: negative (1.0)
|   |   |   |   |   |   |   PredSS_central = C
|   |   |   |   |   |   |   |   propensity <= 0.033973: negative (4.0)
|   |   |   |   |   |   |   |   propensity > 0.033973: positive (2.0)
|   |   |   |   |   |   PredRCH_r1 = 2: negative (0.0)
|   |   |   |   |   |   PredRCH_r1 = 3
|   |   |   |   |   |   |   PredRCH_r2 = 0: negative (0.0)
|   |   |   |   |   |   |   PredRCH_r2 = 1: negative (0.0)
|   |   |   |   |   |   |   PredRCH_r2 = 2: negative (0.0)
|   |   |   |   |   |   |   PredRCH_r2 = 3: negative (3.0)
|   |   |   |   |   |   |   PredRCH_r2 = 4
|   |   |   |   |   |   |   |   separation <= 20: positive (3.0)
|   |   |   |   |   |   |   |   separation > 20: negative (2.0)
|   |   |   |   |   |   PredRCH_r1 = 4: positive (1.0)
|   |   |   |   |   separation > 28: negative (8.0)
|   propensity > 0.537337
|   |   PredRCH_r1 = 0
|   |   |   PredSA_r1 = 0: positive (1.0)
|   |   |   PredSA_r1 = 1: positive (2.0)
|   |   |   PredSA_r1 = 2: negative (0.0)
|   |   |   PredSA_r1 = 3
|   |   |   |   PredSS_r1 = H: negative (2.0)
|   |   |   |   PredSS_r1 = E: positive (5.0/1.0)
|   |   |   |   PredSS_r1 = C
|   |   |   |   |   PredCN_r1 = 0: positive (2.0)
|   |   |   |   |   PredCN_r1 = 1: negative (8.0/1.0)
|   |   |   |   |   PredCN_r1 = 2: negative (0.0)
|   |   |   |   |   PredCN_r1 = 3: negative (1.0)
|   |   |   |   |   PredCN_r1 = 4: negative (0.0)
|   |   |   PredSA_r1 = 4
|   |   |   |   length <= 470: negative (71.0/23.0)
|   |   |   |   length > 470: positive (5.0)
|   |   PredRCH_r1 = 1
|   |   |   separation <= 21
|   |   |   |   PredSA_central = 0
|   |   |   |   |   PredRCH_freq_central_0 <= 0.309: negative (2.0)
|   |   |   |   |   PredRCH_freq_central_0 > 0.309: positive (20.0)
|   |   |   |   PredSA_central = 1
|   |   |   |   |   PredSA_freq_global_0 <= 0.142: positive (5.0)
|   |   |   |   |   PredSA_freq_global_0 > 0.142: negative (8.0/2.0)
|   |   |   |   PredSA_central = 3
|   |   |   |   |   PredSA_r2 = 0: positive (9.0/1.0)
|   |   |   |   |   PredSA_r2 = 1: negative (7.0/1.0)
|   |   |   |   |   PredSA_r2 = 2
|   |   |   |   |   |   PredSS_r1 = H: negative (2.0)
|   |   |   |   |   |   PredSS_r1 = E: positive (0.0)
|   |   |   |   |   |   PredSS_r1 = C: positive (4.0)
|   |   |   |   |   PredSA_r2 = 3: negative (6.0/1.0)
|   |   |   |   |   PredSA_r2 = 4: positive (4.0/1.0)
|   |   |   |   PredSA_central = 2: positive (10.0/2.0)
|   |   |   |   PredSA_central = 4: positive (33.0/6.0)
|   |   |   separation > 21
|   |   |   |   PredSS_central = H: negative (6.0/1.0)
|   |   |   |   PredSS_central = E: negative (5.0)
|   |   |   |   PredSS_central = C: positive (7.0/2.0)
|   |   PredRCH_r1 = 2
|   |   |   PredRCH_r2 = 0
|   |   |   |   propensity <= 0.969439: negative (6.0/1.0)
|   |   |   |   propensity > 0.969439: positive (3.0/1.0)
|   |   |   PredRCH_r2 = 1
|   |   |   |   PredSS_r1 = H
|   |   |   |   |   PredCN_freq_global_0 <= 0.235: positive (2.0)
|   |   |   |   |   PredCN_freq_global_0 > 0.235: negative (3.0)
|   |   |   |   PredSS_r1 = E: positive (4.0)
|   |   |   |   PredSS_r1 = C: negative (2.0)
|   |   |   PredRCH_r2 = 2
|   |   |   |   PredCN_r2 = 0: positive (0.0)
|   |   |   |   PredCN_r2 = 1: positive (0.0)
|   |   |   |   PredCN_r2 = 2: positive (13.0/4.0)
|   |   |   |   PredCN_r2 = 3
|   |   |   |   |   PredRCH_freq_global_0 <= 0.32: negative (3.0)
|   |   |   |   |   PredRCH_freq_global_0 > 0.32: positive (5.0)
|   |   |   |   PredCN_r2 = 4: positive (0.0)
|   |   |   PredRCH_r2 = 3: positive (103.0/22.0)
|   |   |   PredRCH_r2 = 4: positive (0.0)
|   |   PredRCH_r1 = 3
|   |   |   PredRCH_r2 = 0
|   |   |   |   PredSS_r2 = H
|   |   |   |   |   length <= 102: positive (4.0)
|   |   |   |   |   length > 102: negative (10.0)
|   |   |   |   PredSS_r2 = E: positive (3.0)
|   |   |   |   PredSS_r2 = C
|   |   |   |   |   PredSA_r2 = 0: positive (0.0)
|   |   |   |   |   PredSA_r2 = 1: positive (1.0)
|   |   |   |   |   PredSA_r2 = 2: positive (1.0)
|   |   |   |   |   PredSA_r2 = 3
|   |   |   |   |   |   PredSS_r1 = H
|   |   |   |   |   |   |   separation <= 16: positive (3.0)
|   |   |   |   |   |   |   separation > 16: negative (2.0)
|   |   |   |   |   |   PredSS_r1 = E: positive (3.0)
|   |   |   |   |   |   PredSS_r1 = C: negative (4.0)
|   |   |   |   |   PredSA_r2 = 4
|   |   |   |   |   |   PredCN_central = 0
|   |   |   |   |   |   |   propensity <= 0.842337: positive (6.0)
|   |   |   |   |   |   |   propensity > 0.842337: negative (2.0)
|   |   |   |   |   |   PredCN_central = 1
|   |   |   |   |   |   |   PredSA_freq_global_0 <= 0.16: negative (4.0)
|   |   |   |   |   |   |   PredSA_freq_global_0 > 0.16: positive (4.0)
|   |   |   |   |   |   PredCN_central = 2: negative (6.0/1.0)
|   |   |   |   |   |   PredCN_central = 3
|   |   |   |   |   |   |   PredSA_freq_global_0 <= 0.117: positive (7.0/1.0)
|   |   |   |   |   |   |   PredSA_freq_global_0 > 0.117
|   |   |   |   |   |   |   |   separation <= 6: positive (2.0)
|   |   |   |   |   |   |   |   separation > 6: negative (9.0)
|   |   |   |   |   |   PredCN_central = 4
|   |   |   |   |   |   |   PredCN_r1 = 0: positive (0.0)
|   |   |   |   |   |   |   PredCN_r1 = 1: positive (0.0)
|   |   |   |   |   |   |   PredCN_r1 = 2: positive (0.0)
|   |   |   |   |   |   |   PredCN_r1 = 3: positive (4.0/1.0)
|   |   |   |   |   |   |   PredCN_r1 = 4
|   |   |   |   |   |   |   |   PredSA_freq_global_0 <= 0.147: positive (2.0)
|   |   |   |   |   |   |   |   PredSA_freq_global_0 > 0.147: negative (4.0)
|   |   |   PredRCH_r2 = 1
|   |   |   |   PredSA_r2 = 0: positive (0.0)
|   |   |   |   PredSA_r2 = 1: positive (0.0)
|   |   |   |   PredSA_r2 = 2: positive (5.0)
|   |   |   |   PredSA_r2 = 3
|   |   |   |   |   PredCN_central = 0
|   |   |   |   |   |   PredSA_central = 0: positive (0.0)
|   |   |   |   |   |   PredSA_central = 1: positive (0.0)
|   |   |   |   |   |   PredSA_central = 3: negative (2.0)
|   |   |   |   |   |   PredSA_central = 2: positive (0.0)
|   |   |   |   |   |   PredSA_central = 4: positive (14.0/3.0)
|   |   |   |   |   PredCN_central = 1
|   |   |   |   |   |   length <= 143
|   |   |   |   |   |   |   PredRCH_freq_global_0 <= 0.371: negative (5.0)
|   |   |   |   |   |   |   PredRCH_freq_global_0 > 0.371: positive (2.0)
|   |   |   |   |   |   length > 143: positive (6.0)
|   |   |   |   |   PredCN_central = 2: negative (4.0/1.0)
|   |   |   |   |   PredCN_central = 3: positive (20.0/1.0)
|   |   |   |   |   PredCN_central = 4: positive (4.0/1.0)
|   |   |   |   PredSA_r2 = 4
|   |   |   |   |   PredCN_r2 = 0
|   |   |   |   |   |   PredSS_central = H: positive (10.0/1.0)
|   |   |   |   |   |   PredSS_central = E
|   |   |   |   |   |   |   PredRCH_freq_global_0 <= 0.302: negative (3.0)
|   |   |   |   |   |   |   PredRCH_freq_global_0 > 0.302: positive (2.0)
|   |   |   |   |   |   PredSS_central = C: negative (5.0/1.0)
|   |   |   |   |   PredCN_r2 = 1: negative (4.0/1.0)
|   |   |   |   |   PredCN_r2 = 2: negative (0.0)
|   |   |   |   |   PredCN_r2 = 3: negative (3.0)
|   |   |   |   |   PredCN_r2 = 4: negative (0.0)
|   |   |   PredRCH_r2 = 2: positive (105.0/20.0)
|   |   |   PredRCH_r2 = 3
|   |   |   |   PredSA_r1 = 0
|   |   |   |   |   PredSA_r2 = 0: positive (262.0/27.0)
|   |   |   |   |   PredSA_r2 = 1
|   |   |   |   |   |   separation <= 8
|   |   |   |   |   |   |   PredCN_freq_global_0 <= 0.4: positive (73.0)
|   |   |   |   |   |   |   PredCN_freq_global_0 > 0.4: negative (4.0/1.0)
|   |   |   |   |   |   separation > 8
|   |   |   |   |   |   |   PredCN_freq_central_0 <= 0.186
|   |   |   |   |   |   |   |   separation <= 9: negative (6.0)
|   |   |   |   |   |   |   |   separation > 9: positive (12.0/3.0)
|   |   |   |   |   |   |   PredCN_freq_central_0 > 0.186: positive (62.0/6.0)
|   |   |   |   |   PredSA_r2 = 2
|   |   |   |   |   |   PredCN_central = 0: positive (1.0)
|   |   |   |   |   |   PredCN_central = 1
|   |   |   |   |   |   |   PredRCH_freq_central_0 <= 0.437: negative (2.0)
|   |   |   |   |   |   |   PredRCH_freq_central_0 > 0.437: positive (2.0)
|   |   |   |   |   |   PredCN_central = 2: negative (1.0)
|   |   |   |   |   |   PredCN_central = 3
|   |   |   |   |   |   |   PredCN_r1 = 0: positive (0.0)
|   |   |   |   |   |   |   PredCN_r1 = 1: positive (0.0)
|   |   |   |   |   |   |   PredCN_r1 = 2: positive (0.0)
|   |   |   |   |   |   |   PredCN_r1 = 3
|   |   |   |   |   |   |   |   propensity <= 1.01951: positive (5.0/1.0)
|   |   |   |   |   |   |   |   propensity > 1.01951: negative (3.0)
|   |   |   |   |   |   |   PredCN_r1 = 4: positive (3.0)
|   |   |   |   |   |   PredCN_central = 4
|   |   |   |   |   |   |   propensity <= 1.111785: negative (2.0)
|   |   |   |   |   |   |   propensity > 1.111785: positive (4.0)
|   |   |   |   |   PredSA_r2 = 3
|   |   |   |   |   |   PredRCH_freq_central_0 <= 0.165: negative (2.0)
|   |   |   |   |   |   PredRCH_freq_central_0 > 0.165: positive (32.0/2.0)
|   |   |   |   |   PredSA_r2 = 4
|   |   |   |   |   |   PredSS_central = H: positive (4.0/1.0)
|   |   |   |   |   |   PredSS_central = E: positive (4.0)
|   |   |   |   |   |   PredSS_central = C: negative (6.0/1.0)
|   |   |   |   PredSA_r1 = 1
|   |   |   |   |   PredSA_r2 = 0: positive (183.0/39.0)
|   |   |   |   |   PredSA_r2 = 1: positive (103.0/19.0)
|   |   |   |   |   PredSA_r2 = 2
|   |   |   |   |   |   PredSS_central = H: positive (5.0)
|   |   |   |   |   |   PredSS_central = E: negative (3.0)
|   |   |   |   |   |   PredSS_central = C: positive (6.0)
|   |   |   |   |   PredSA_r2 = 3
|   |   |   |   |   |   PredCN_central = 0: positive (2.0)
|   |   |   |   |   |   PredCN_central = 1: negative (5.0)
|   |   |   |   |   |   PredCN_central = 2: negative (6.0/1.0)
|   |   |   |   |   |   PredCN_central = 3
|   |   |   |   |   |   |   PredSS_central = H: negative (2.0)
|   |   |   |   |   |   |   PredSS_central = E: positive (4.0)
|   |   |   |   |   |   |   PredSS_central = C
|   |   |   |   |   |   |   |   separation <= 11: positive (4.0)
|   |   |   |   |   |   |   |   separation > 11: negative (4.0/1.0)
|   |   |   |   |   |   PredCN_central = 4
|   |   |   |   |   |   |   PredCN_freq_central_0 <= 0.33: negative (4.0/1.0)
|   |   |   |   |   |   |   PredCN_freq_central_0 > 0.33: positive (4.0)
|   |   |   |   |   PredSA_r2 = 4
|   |   |   |   |   |   PredCN_freq_central_0 <= 0.358: negative (5.0)
|   |   |   |   |   |   PredCN_freq_central_0 > 0.358: positive (10.0/3.0)
|   |   |   |   PredSA_r1 = 2
|   |   |   |   |   separation <= 17: positive (40.0/7.0)
|   |   |   |   |   separation > 17: negative (6.0/1.0)
|   |   |   |   PredSA_r1 = 3
|   |   |   |   |   separation <= 20
|   |   |   |   |   |   PredRCH_freq_central_0 <= 0.591
|   |   |   |   |   |   |   PredCN_r1 = 0: positive (0.0)
|   |   |   |   |   |   |   PredCN_r1 = 1: positive (0.0)
|   |   |   |   |   |   |   PredCN_r1 = 2
|   |   |   |   |   |   |   |   PredSA_central = 0: positive (0.0)
|   |   |   |   |   |   |   |   PredSA_central = 1: positive (1.0)
|   |   |   |   |   |   |   |   PredSA_central = 3: negative (2.0)
|   |   |   |   |   |   |   |   PredSA_central = 2: positive (0.0)
|   |   |   |   |   |   |   |   PredSA_central = 4: positive (4.0)
|   |   |   |   |   |   |   PredCN_r1 = 3
|   |   |   |   |   |   |   |   length <= 101: negative (9.0/3.0)
|   |   |   |   |   |   |   |   length > 101: positive (34.0/11.0)
|   |   |   |   |   |   |   PredCN_r1 = 4: negative (2.0)
|   |   |   |   |   |   PredRCH_freq_central_0 > 0.591: positive (23.0/1.0)
|   |   |   |   |   separation > 20: negative (7.0/1.0)
|   |   |   |   PredSA_r1 = 4
|   |   |   |   |   separation <= 6: positive (8.0)
|   |   |   |   |   separation > 6
|   |   |   |   |   |   PredSA_central = 0: negative (3.0)
|   |   |   |   |   |   PredSA_central = 1: positive (1.0)
|   |   |   |   |   |   PredSA_central = 3
|   |   |   |   |   |   |   PredSS_central = H
|   |   |   |   |   |   |   |   PredRCH_freq_global_0 <= 0.349: positive (3.0)
|   |   |   |   |   |   |   |   PredRCH_freq_global_0 > 0.349: negative (4.0/1.0)
|   |   |   |   |   |   |   PredSS_central = E: negative (2.0)
|   |   |   |   |   |   |   PredSS_central = C
|   |   |   |   |   |   |   |   PredCN_freq_global_0 <= 0.19: negative (3.0/1.0)
|   |   |   |   |   |   |   |   PredCN_freq_global_0 > 0.19: positive (5.0)
|   |   |   |   |   |   PredSA_central = 2: negative (0.0)
|   |   |   |   |   |   PredSA_central = 4: negative (6.0/2.0)
|   |   |   PredRCH_r2 = 4: positive (23.0/3.0)
|   |   PredRCH_r1 = 4
|   |   |   separation <= 13: positive (40.0/8.0)
|   |   |   separation > 13
|   |   |   |   PredCN_central = 0: negative (1.0)
|   |   |   |   PredCN_central = 1: negative (3.0)
|   |   |   |   PredCN_central = 2: negative (1.0)
|   |   |   |   PredCN_central = 3
|   |   |   |   |   PredRCH_freq_global_0 <= 0.263: positive (3.0)
|   |   |   |   |   PredRCH_freq_global_0 > 0.263: negative (5.0/1.0)
|   |   |   |   PredCN_central = 4
|   |   |   |   |   length <= 274: negative (3.0)
|   |   |   |   |   length > 274: positive (3.0)
PredSA_freq_central_0 > 0
|   separation <= 61
|   |   propensity <= 0.295433
|   |   |   PredSS_r2 = H
|   |   |   |   PredRCH_r2 = 0: negative (3892.0/346.0)
|   |   |   |   PredRCH_r2 = 1
|   |   |   |   |   length <= 86
|   |   |   |   |   |   PredCN_r1 = 0: negative (116.0/19.0)
|   |   |   |   |   |   PredCN_r1 = 1
|   |   |   |   |   |   |   separation <= 43
|   |   |   |   |   |   |   |   PredSA_r2 = 0: negative (0.0)
|   |   |   |   |   |   |   |   PredSA_r2 = 1: negative (0.0)
|   |   |   |   |   |   |   |   PredSA_r2 = 2: negative (4.0/1.0)
|   |   |   |   |   |   |   |   PredSA_r2 = 3
|   |   |   |   |   |   |   |   |   PredSA_r1 = 0: negative (0.0)
|   |   |   |   |   |   |   |   |   PredSA_r1 = 1: negative (0.0)
|   |   |   |   |   |   |   |   |   PredSA_r1 = 2: negative (2.0)
|   |   |   |   |   |   |   |   |   PredSA_r1 = 3
|   |   |   |   |   |   |   |   |   |   PredCN_central = 0
|   |   |   |   |   |   |   |   |   |   |   PredCN_freq_central_0 <= 0.309
|   |   |   |   |   |   |   |   |   |   |   |   PredSS_central = H
|   |   |   |   |   |   |   |   |   |   |   |   |   PredSA_freq_central_0 <= 0.241: positive (2.0)
|   |   |   |   |   |   |   |   |   |   |   |   |   PredSA_freq_central_0 > 0.241: negative (4.0)
|   |   |   |   |   |   |   |   |   |   |   |   PredSS_central = E: negative (0.0)
|   |   |   |   |   |   |   |   |   |   |   |   PredSS_central = C: negative (3.0)
|   |   |   |   |   |   |   |   |   |   |   PredCN_freq_central_0 > 0.309: positive (4.0)
|   |   |   |   |   |   |   |   |   |   PredCN_central = 1
|   |   |   |   |   |   |   |   |   |   |   PredSA_freq_central_0 <= 0.171: positive (2.0)
|   |   |   |   |   |   |   |   |   |   |   PredSA_freq_central_0 > 0.171: negative (3.0)
|   |   |   |   |   |   |   |   |   |   PredCN_central = 2: negative (3.0)
|   |   |   |   |   |   |   |   |   |   PredCN_central = 3
|   |   |   |   |   |   |   |   |   |   |   PredSS_central = H
|   |   |   |   |   |   |   |   |   |   |   |   PredRCH_freq_global_0 <= 0.373: negative (3.0)
|   |   |   |   |   |   |   |   |   |   |   |   PredRCH_freq_global_0 > 0.373: positive (3.0)
|   |   |   |   |   |   |   |   |   |   |   PredSS_central = E: positive (0.0)
|   |   |   |   |   |   |   |   |   |   |   PredSS_central = C: positive (5.0)
|   |   |   |   |   |   |   |   |   |   PredCN_central = 4: positive (2.0/1.0)
|   |   |   |   |   |   |   |   |   PredSA_r1 = 4: negative (12.0/4.0)
|   |   |   |   |   |   |   |   PredSA_r2 = 4: negative (10.0/1.0)
|   |   |   |   |   |   |   separation > 43: negative (13.0)
|   |   |   |   |   |   PredCN_r1 = 2: negative (24.0/5.0)
|   |   |   |   |   |   PredCN_r1 = 3
|   |   |   |   |   |   |   PredRCH_r1 = 0: negative (5.0/1.0)
|   |   |   |   |   |   |   PredRCH_r1 = 1
|   |   |   |   |   |   |   |   PredCN_freq_global_0 <= 0.32: negative (3.0)
|   |   |   |   |   |   |   |   PredCN_freq_global_0 > 0.32: positive (3.0)
|   |   |   |   |   |   |   PredRCH_r1 = 2: negative (6.0)
|   |   |   |   |   |   |   PredRCH_r1 = 3
|   |   |   |   |   |   |   |   PredSA_freq_global_0 <= 0.158
|   |   |   |   |   |   |   |   |   PredCN_r2 = 0
|   |   |   |   |   |   |   |   |   |   PredCN_central = 0: negative (11.0/3.0)
|   |   |   |   |   |   |   |   |   |   PredCN_central = 1: positive (5.0/1.0)
|   |   |   |   |   |   |   |   |   |   PredCN_central = 2: negative (0.0)
|   |   |   |   |   |   |   |   |   |   PredCN_central = 3: negative (5.0/1.0)
|   |   |   |   |   |   |   |   |   |   PredCN_central = 4: negative (1.0)
|   |   |   |   |   |   |   |   |   PredCN_r2 = 1: positive (24.0/7.0)
|   |   |   |   |   |   |   |   |   PredCN_r2 = 2
|   |   |   |   |   |   |   |   |   |   PredCN_freq_global_0 <= 0.415: positive (2.0)
|   |   |   |   |   |   |   |   |   |   PredCN_freq_global_0 > 0.415: negative (2.0)
|   |   |   |   |   |   |   |   |   PredCN_r2 = 3: positive (1.0)
|   |   |   |   |   |   |   |   |   PredCN_r2 = 4: positive (0.0)
|   |   |   |   |   |   |   |   PredSA_freq_global_0 > 0.158
|   |   |   |   |   |   |   |   |   PredCN_freq_global_0 <= 0.122: positive (9.0/3.0)
|   |   |   |   |   |   |   |   |   PredCN_freq_global_0 > 0.122: negative (78.0/14.0)
|   |   |   |   |   |   |   PredRCH_r1 = 4: negative (2.0)
|   |   |   |   |   |   PredCN_r1 = 4
|   |   |   |   |   |   |   PredRCH_r1 = 0: positive (0.0)
|   |   |   |   |   |   |   PredRCH_r1 = 1: positive (1.0)
|   |   |   |   |   |   |   PredRCH_r1 = 2: positive (0.0)
|   |   |   |   |   |   |   PredRCH_r1 = 3
|   |   |   |   |   |   |   |   PredCN_freq_central_0 <= 0.109: positive (10.0)
|   |   |   |   |   |   |   |   PredCN_freq_central_0 > 0.109
|   |   |   |   |   |   |   |   |   PredRCH_freq_central_0 <= 0.23: negative (6.0)
|   |   |   |   |   |   |   |   |   PredRCH_freq_central_0 > 0.23: positive (27.0/9.0)
|   |   |   |   |   |   |   PredRCH_r1 = 4
|   |   |   |   |   |   |   |   PredSA_r2 = 0: negative (0.0)
|   |   |   |   |   |   |   |   PredSA_r2 = 1: negative (0.0)
|   |   |   |   |   |   |   |   PredSA_r2 = 2: negative (0.0)
|   |   |   |   |   |   |   |   PredSA_r2 = 3: negative (4.0)
|   |   |   |   |   |   |   |   PredSA_r2 = 4: positive (2.0)
|   |   |   |   |   length > 86: negative (2904.0/500.0)
|   |   |   |   PredRCH_r2 = 2
|   |   |   |   |   PredSA_r1 = 0
|   |   |   |   |   |   PredSA_r2 = 0: negative (3.0)
|   |   |   |   |   |   PredSA_r2 = 1
|   |   |   |   |   |   |   PredCN_central = 0: negative (4.0/1.0)
|   |   |   |   |   |   |   PredCN_central = 1: positive (6.0/1.0)
|   |   |   |   |   |   |   PredCN_central = 2
|   |   |   |   |   |   |   |   PredRCH_freq_central_0 <= 0.272: negative (2.0)
|   |   |   |   |   |   |   |   PredRCH_freq_central_0 > 0.272: positive (3.0)
|   |   |   |   |   |   |   PredCN_central = 3
|   |   |   |   |   |   |   |   PredSA_freq_central_0 <= 0.192: positive (2.0)
|   |   |   |   |   |   |   |   PredSA_freq_central_0 > 0.192: negative (8.0/1.0)
|   |   |   |   |   |   |   PredCN_central = 4
|   |   |   |   |   |   |   |   PredCN_freq_global_0 <= 0.152: positive (4.0)
|   |   |   |   |   |   |   |   PredCN_freq_global_0 > 0.152: negative (2.0)
|   |   |   |   |   |   PredSA_r2 = 2
|   |   |   |   |   |   |   length <= 335
|   |   |   |   |   |   |   |   PredRCH_r1 = 0: negative (0.0)
|   |   |   |   |   |   |   |   PredRCH_r1 = 1: negative (0.0)
|   |   |   |   |   |   |   |   PredRCH_r1 = 2: negative (0.0)
|   |   |   |   |   |   |   |   PredRCH_r1 = 3
|   |   |   |   |   |   |   |   |   PredCN_central = 0
|   |   |   |   |   |   |   |   |   |   PredRCH_freq_central_0 <= 0.354: negative (7.0/1.0)
|   |   |   |   |   |   |   |   |   |   PredRCH_freq_central_0 > 0.354: positive (4.0)
|   |   |   |   |   |   |   |   |   PredCN_central = 1
|   |   |   |   |   |   |   |   |   |   PredSS_r1 = H
|   |   |   |   |   |   |   |   |   |   |   PredSA_freq_central_0 <= 0.186: positive (2.0)
|   |   |   |   |   |   |   |   |   |   |   PredSA_freq_central_0 > 0.186: negative (2.0)
|   |   |   |   |   |   |   |   |   |   PredSS_r1 = E: positive (4.0/1.0)
|   |   |   |   |   |   |   |   |   |   PredSS_r1 = C: positive (0.0)
|   |   |   |   |   |   |   |   |   PredCN_central = 2
|   |   |   |   |   |   |   |   |   |   separation <= 40: positive (3.0)
|   |   |   |   |   |   |   |   |   |   separation > 40: negative (3.0)
|   |   |   |   |   |   |   |   |   PredCN_central = 3
|   |   |   |   |   |   |   |   |   |   PredCN_freq_global_0 <= 0.181
|   |   |   |   |   |   |   |   |   |   |   PredCN_r1 = 0: positive (0.0)
|   |   |   |   |   |   |   |   |   |   |   PredCN_r1 = 1: positive (0.0)
|   |   |   |   |   |   |   |   |   |   |   PredCN_r1 = 2: positive (0.0)
|   |   |   |   |   |   |   |   |   |   |   PredCN_r1 = 3
|   |   |   |   |   |   |   |   |   |   |   |   PredSA_freq_global_0 <= 0.255: positive (2.0)
|   |   |   |   |   |   |   |   |   |   |   |   PredSA_freq_global_0 > 0.255: negative (3.0)
|   |   |   |   |   |   |   |   |   |   |   PredCN_r1 = 4: positive (4.0)
|   |   |   |   |   |   |   |   |   |   PredCN_freq_global_0 > 0.181: negative (8.0)
|   |   |   |   |   |   |   |   |   PredCN_central = 4
|   |   |   |   |   |   |   |   |   |   propensity <= -0.554962: positive (2.0)
|   |   |   |   |   |   |   |   |   |   propensity > -0.554962: negative (8.0)
|   |   |   |   |   |   |   |   PredRCH_r1 = 4
|   |   |   |   |   |   |   |   |   PredRCH_freq_central_0 <= 0.265: negative (12.0/3.0)
|   |   |   |   |   |   |   |   |   PredRCH_freq_central_0 > 0.265: positive (8.0/1.0)
|   |   |   |   |   |   |   length > 335: negative (17.0/1.0)
|   |   |   |   |   |   PredSA_r2 = 3
|   |   |   |   |   |   |   PredRCH_freq_central_0 <= 0.465
|   |   |   |   |   |   |   |   PredSS_central = H
|   |   |   |   |   |   |   |   |   PredCN_central = 0: negative (5.0)
|   |   |   |   |   |   |   |   |   PredCN_central = 1
|   |   |   |   |   |   |   |   |   |   separation <= 55: negative (9.0)
|   |   |   |   |   |   |   |   |   |   separation > 55: positive (2.0)
|   |   |   |   |   |   |   |   |   PredCN_central = 2
|   |   |   |   |   |   |   |   |   |   PredRCH_freq_central_0 <= 0.254: positive (2.0)
|   |   |   |   |   |   |   |   |   |   PredRCH_freq_central_0 > 0.254: negative (6.0)
|   |   |   |   |   |   |   |   |   PredCN_central = 3
|   |   |   |   |   |   |   |   |   |   separation <= 43: positive (10.0/2.0)
|   |   |   |   |   |   |   |   |   |   separation > 43: negative (9.0)
|   |   |   |   |   |   |   |   |   PredCN_central = 4: negative (4.0/1.0)
|   |   |   |   |   |   |   |   PredSS_central = E
|   |   |   |   |   |   |   |   |   PredCN_freq_central_0 <= 0.1: negative (6.0)
|   |   |   |   |   |   |   |   |   PredCN_freq_central_0 > 0.1
|   |   |   |   |   |   |   |   |   |   PredSS_r1 = H: negative (1.0)
|   |   |   |   |   |   |   |   |   |   PredSS_r1 = E
|   |   |   |   |   |   |   |   |   |   |   length <= 172: positive (2.0)
|   |   |   |   |   |   |   |   |   |   |   length > 172: negative (5.0/1.0)
|   |   |   |   |   |   |   |   |   |   PredSS_r1 = C: positive (2.0)
|   |   |   |   |   |   |   |   PredSS_central = C: negative (51.0/8.0)
|   |   |   |   |   |   |   PredRCH_freq_central_0 > 0.465: positive (6.0)
|   |   |   |   |   |   PredSA_r2 = 4: negative (3.0)
|   |   |   |   |   PredSA_r1 = 1
|   |   |   |   |   |   PredCN_r2 = 0: positive (1.0)
|   |   |   |   |   |   PredCN_r2 = 1: negative (30.0/4.0)
|   |   |   |   |   |   PredCN_r2 = 2
|   |   |   |   |   |   |   PredCN_central = 0
|   |   |   |   |   |   |   |   PredRCH_r1 = 0: positive (0.0)
|   |   |   |   |   |   |   |   PredRCH_r1 = 1: positive (0.0)
|   |   |   |   |   |   |   |   PredRCH_r1 = 2: positive (1.0)
|   |   |   |   |   |   |   |   PredRCH_r1 = 3
|   |   |   |   |   |   |   |   |   PredSA_r2 = 0: negative (0.0)
|   |   |   |   |   |   |   |   |   PredSA_r2 = 1: negative (1.0)
|   |   |   |   |   |   |   |   |   PredSA_r2 = 2
|   |   |   |   |   |   |   |   |   |   PredSA_central = 0: negative (0.0)
|   |   |   |   |   |   |   |   |   |   PredSA_central = 1: negative (0.0)
|   |   |   |   |   |   |   |   |   |   PredSA_central = 3: negative (3.0)
|   |   |   |   |   |   |   |   |   |   PredSA_central = 2: negative (0.0)
|   |   |   |   |   |   |   |   |   |   PredSA_central = 4
|   |   |   |   |   |   |   |   |   |   |   PredCN_freq_central_0 <= 0.141: negative (2.0)
