
J48 pruned tree
------------------

elevation <= 2708
|   elevation <= 2490
|   |   horz_dist_hydro <= 0
|   |   |   wilderness_area = 1: 2 (4.0/1.0)
|   |   |   wilderness_area = 2: 4 (0.0)
|   |   |   wilderness_area = 3
|   |   |   |   soil_type = 1: 6 (0.0)
|   |   |   |   soil_type = 2: 3 (10.0/1.0)
|   |   |   |   soil_type = 3
|   |   |   |   |   slope <= 19
|   |   |   |   |   |   horiz_dist_fire <= 470: 6 (7.0)
|   |   |   |   |   |   horiz_dist_fire > 470
|   |   |   |   |   |   |   hillshade_9am <= 235
|   |   |   |   |   |   |   |   slope <= 13
|   |   |   |   |   |   |   |   |   hillshade_noon <= 244: 2 (4.0/2.0)
|   |   |   |   |   |   |   |   |   hillshade_noon > 244: 3 (4.0/1.0)
|   |   |   |   |   |   |   |   slope > 13: 6 (4.0)
|   |   |   |   |   |   |   hillshade_9am > 235: 3 (3.0)
|   |   |   |   |   slope > 19: 6 (4.0/1.0)
|   |   |   |   soil_type = 4
|   |   |   |   |   hillshade_noon <= 214
|   |   |   |   |   |   aspect <= 72: 2 (3.0)
|   |   |   |   |   |   aspect > 72: 3 (4.0)
|   |   |   |   |   hillshade_noon > 214
|   |   |   |   |   |   horiz_dist_road <= 607
|   |   |   |   |   |   |   aspect <= 134: 3 (5.0)
|   |   |   |   |   |   |   aspect > 134
|   |   |   |   |   |   |   |   aspect <= 172: 2 (2.0)
|   |   |   |   |   |   |   |   aspect > 172: 3 (2.0/1.0)
|   |   |   |   |   |   horiz_dist_road > 607
|   |   |   |   |   |   |   hillshade_noon <= 239
|   |   |   |   |   |   |   |   hillshade_9am <= 236: 6 (23.0)
|   |   |   |   |   |   |   |   hillshade_9am > 236
|   |   |   |   |   |   |   |   |   slope <= 17
|   |   |   |   |   |   |   |   |   |   horiz_dist_road <= 907: 6 (4.0/1.0)
|   |   |   |   |   |   |   |   |   |   horiz_dist_road > 907: 3 (3.0)
|   |   |   |   |   |   |   |   |   slope > 17: 6 (4.0)
|   |   |   |   |   |   |   hillshade_noon > 239
|   |   |   |   |   |   |   |   hillshade_noon <= 251
|   |   |   |   |   |   |   |   |   hillshade_9am <= 217: 6 (4.0)
|   |   |   |   |   |   |   |   |   hillshade_9am > 217
|   |   |   |   |   |   |   |   |   |   elevation <= 2458
|   |   |   |   |   |   |   |   |   |   |   elevation <= 2438: 3 (2.0)
|   |   |   |   |   |   |   |   |   |   |   elevation > 2438: 6 (3.0)
|   |   |   |   |   |   |   |   |   |   elevation > 2458: 3 (6.0)
|   |   |   |   |   |   |   |   hillshade_noon > 251: 3 (5.0)
|   |   |   |   soil_type = 5: 6 (0.0)
|   |   |   |   soil_type = 6: 6 (0.0)
|   |   |   |   soil_type = 7: 6 (0.0)
|   |   |   |   soil_type = 8: 6 (0.0)
|   |   |   |   soil_type = 9: 6 (0.0)
|   |   |   |   soil_type = 10
|   |   |   |   |   horiz_dist_fire <= 666
|   |   |   |   |   |   slope <= 14: 2 (9.0/1.0)
|   |   |   |   |   |   slope > 14: 6 (3.0/1.0)
|   |   |   |   |   horiz_dist_fire > 666
|   |   |   |   |   |   hillshade_3pm <= 168
|   |   |   |   |   |   |   elevation <= 2435
|   |   |   |   |   |   |   |   horiz_dist_road <= 875: 6 (6.0)
|   |   |   |   |   |   |   |   horiz_dist_road > 875: 3 (2.0)
|   |   |   |   |   |   |   elevation > 2435: 6 (24.0/1.0)
|   |   |   |   |   |   hillshade_3pm > 168: 2 (2.0)
|   |   |   |   soil_type = 11: 3 (1.0)
|   |   |   |   soil_type = 12: 6 (0.0)
|   |   |   |   soil_type = 13: 6 (0.0)
|   |   |   |   soil_type = 14
|   |   |   |   |   hillshade_9am <= 178: 3 (3.0/1.0)
|   |   |   |   |   hillshade_9am > 178: 6 (55.0/2.0)
|   |   |   |   soil_type = 15: 6 (0.0)
|   |   |   |   soil_type = 16
|   |   |   |   |   aspect <= 233: 6 (50.0/3.0)
|   |   |   |   |   aspect > 233
|   |   |   |   |   |   elevation <= 2400: 3 (2.0)
|   |   |   |   |   |   elevation > 2400
|   |   |   |   |   |   |   aspect <= 289: 6 (4.0)
|   |   |   |   |   |   |   aspect > 289: 3 (3.0/1.0)
|   |   |   |   soil_type = 17: 6 (35.0)
|   |   |   |   soil_type = 18: 6 (0.0)
|   |   |   |   soil_type = 19: 6 (0.0)
|   |   |   |   soil_type = 20: 6 (24.0)
|   |   |   |   soil_type = 21: 6 (0.0)
|   |   |   |   soil_type = 22: 6 (0.0)
|   |   |   |   soil_type = 23: 6 (0.0)
|   |   |   |   soil_type = 24: 6 (0.0)
|   |   |   |   soil_type = 25: 6 (0.0)
|   |   |   |   soil_type = 26: 6 (0.0)
|   |   |   |   soil_type = 27: 6 (0.0)
|   |   |   |   soil_type = 28: 1 (2.0)
|   |   |   |   soil_type = 29: 6 (0.0)
|   |   |   |   soil_type = 30: 6 (0.0)
|   |   |   |   soil_type = 31: 6 (0.0)
|   |   |   |   soil_type = 32: 6 (0.0)
|   |   |   |   soil_type = 33: 1 (4.0/1.0)
|   |   |   |   soil_type = 34: 6 (0.0)
|   |   |   |   soil_type = 35: 6 (0.0)
|   |   |   |   soil_type = 36: 6 (0.0)
|   |   |   |   soil_type = 37: 6 (0.0)
|   |   |   |   soil_type = 38: 6 (0.0)
|   |   |   |   soil_type = 39: 6 (0.0)
|   |   |   |   soil_type = 40: 6 (0.0)
|   |   |   wilderness_area = 4
|   |   |   |   elevation <= 2339
|   |   |   |   |   elevation <= 2019
|   |   |   |   |   |   horiz_dist_road <= 108: 3 (36.0)
|   |   |   |   |   |   horiz_dist_road > 108
|   |   |   |   |   |   |   elevation <= 1977
|   |   |   |   |   |   |   |   horiz_dist_fire <= 577: 3 (6.0/1.0)
|   |   |   |   |   |   |   |   horiz_dist_fire > 577: 6 (10.0)
|   |   |   |   |   |   |   elevation > 1977
|   |   |   |   |   |   |   |   soil_type = 1: 3 (6.0)
|   |   |   |   |   |   |   |   soil_type = 2: 3 (0.0)
|   |   |   |   |   |   |   |   soil_type = 3: 3 (1.0)
|   |   |   |   |   |   |   |   soil_type = 4: 4 (3.0/1.0)
|   |   |   |   |   |   |   |   soil_type = 5: 3 (0.0)
|   |   |   |   |   |   |   |   soil_type = 6: 4 (2.0)
|   |   |   |   |   |   |   |   soil_type = 7: 3 (0.0)
|   |   |   |   |   |   |   |   soil_type = 8: 3 (0.0)
|   |   |   |   |   |   |   |   soil_type = 9: 3 (0.0)
|   |   |   |   |   |   |   |   soil_type = 10: 3 (8.0/1.0)
|   |   |   |   |   |   |   |   soil_type = 11: 3 (0.0)
|   |   |   |   |   |   |   |   soil_type = 12: 3 (0.0)
|   |   |   |   |   |   |   |   soil_type = 13: 3 (0.0)
|   |   |   |   |   |   |   |   soil_type = 14: 4 (3.0/1.0)
|   |   |   |   |   |   |   |   soil_type = 15: 3 (0.0)
|   |   |   |   |   |   |   |   soil_type = 16: 3 (0.0)
|   |   |   |   |   |   |   |   soil_type = 17
|   |   |   |   |   |   |   |   |   hillshade_noon <= 236: 4 (6.0)
|   |   |   |   |   |   |   |   |   hillshade_noon > 236: 3 (8.0)
|   |   |   |   |   |   |   |   soil_type = 18: 3 (0.0)
|   |   |   |   |   |   |   |   soil_type = 19: 3 (0.0)
|   |   |   |   |   |   |   |   soil_type = 20: 3 (0.0)
|   |   |   |   |   |   |   |   soil_type = 21: 3 (0.0)
|   |   |   |   |   |   |   |   soil_type = 22: 3 (0.0)
|   |   |   |   |   |   |   |   soil_type = 23: 3 (0.0)
|   |   |   |   |   |   |   |   soil_type = 24: 3 (0.0)
|   |   |   |   |   |   |   |   soil_type = 25: 3 (0.0)
|   |   |   |   |   |   |   |   soil_type = 26: 3 (0.0)
|   |   |   |   |   |   |   |   soil_type = 27: 3 (0.0)
|   |   |   |   |   |   |   |   soil_type = 28: 3 (0.0)
|   |   |   |   |   |   |   |   soil_type = 29: 3 (0.0)
|   |   |   |   |   |   |   |   soil_type = 30: 3 (0.0)
|   |   |   |   |   |   |   |   soil_type = 31: 3 (0.0)
|   |   |   |   |   |   |   |   soil_type = 32: 3 (0.0)
|   |   |   |   |   |   |   |   soil_type = 33: 3 (0.0)
|   |   |   |   |   |   |   |   soil_type = 34: 3 (0.0)
|   |   |   |   |   |   |   |   soil_type = 35: 3 (0.0)
|   |   |   |   |   |   |   |   soil_type = 36: 3 (0.0)
|   |   |   |   |   |   |   |   soil_type = 37: 3 (0.0)
|   |   |   |   |   |   |   |   soil_type = 38: 3 (0.0)
|   |   |   |   |   |   |   |   soil_type = 39: 3 (0.0)
|   |   |   |   |   |   |   |   soil_type = 40: 3 (0.0)
|   |   |   |   |   elevation > 2019
|   |   |   |   |   |   hillshade_9am <= 203
|   |   |   |   |   |   |   soil_type = 1
|   |   |   |   |   |   |   |   hillshade_9am <= 179: 3 (3.0)
|   |   |   |   |   |   |   |   hillshade_9am > 179: 4 (5.0/1.0)
|   |   |   |   |   |   |   soil_type = 2: 3 (0.0)
|   |   |   |   |   |   |   soil_type = 3: 4 (2.0)
|   |   |   |   |   |   |   soil_type = 4
|   |   |   |   |   |   |   |   horiz_dist_road <= 677: 3 (13.0)
|   |   |   |   |   |   |   |   horiz_dist_road > 677
|   |   |   |   |   |   |   |   |   horiz_dist_road <= 1159
|   |   |   |   |   |   |   |   |   |   hillshade_9am <= 188: 3 (7.0/3.0)
|   |   |   |   |   |   |   |   |   |   hillshade_9am > 188: 4 (8.0)
|   |   |   |   |   |   |   |   |   horiz_dist_road > 1159: 3 (6.0)
|   |   |   |   |   |   |   soil_type = 5: 3 (0.0)
|   |   |   |   |   |   |   soil_type = 6: 4 (4.0/1.0)
|   |   |   |   |   |   |   soil_type = 7: 3 (0.0)
|   |   |   |   |   |   |   soil_type = 8: 3 (0.0)
|   |   |   |   |   |   |   soil_type = 9: 3 (0.0)
|   |   |   |   |   |   |   soil_type = 10
|   |   |   |   |   |   |   |   slope <= 13
|   |   |   |   |   |   |   |   |   elevation <= 2317: 3 (9.0/2.0)
|   |   |   |   |   |   |   |   |   elevation > 2317: 6 (3.0)
|   |   |   |   |   |   |   |   slope > 13
|   |   |   |   |   |   |   |   |   horiz_dist_fire <= 516
|   |   |   |   |   |   |   |   |   |   hillshade_9am <= 167: 6 (8.0/1.0)
|   |   |   |   |   |   |   |   |   |   hillshade_9am > 167
|   |   |   |   |   |   |   |   |   |   |   elevation <= 2136: 4 (3.0/1.0)
|   |   |   |   |   |   |   |   |   |   |   elevation > 2136
|   |   |   |   |   |   |   |   |   |   |   |   aspect <= 319: 3 (8.0)
|   |   |   |   |   |   |   |   |   |   |   |   aspect > 319
|   |   |   |   |   |   |   |   |   |   |   |   |   horiz_dist_fire <= 474: 4 (3.0)
|   |   |   |   |   |   |   |   |   |   |   |   |   horiz_dist_fire > 474: 3 (2.0)
|   |   |   |   |   |   |   |   |   horiz_dist_fire > 516
|   |   |   |   |   |   |   |   |   |   horiz_dist_fire <= 774: 3 (46.0/2.0)
|   |   |   |   |   |   |   |   |   |   horiz_dist_fire > 774
|   |   |   |   |   |   |   |   |   |   |   slope <= 18: 6 (2.0)
|   |   |   |   |   |   |   |   |   |   |   slope > 18
|   |   |   |   |   |   |   |   |   |   |   |   elevation <= 2213: 4 (3.0/1.0)
|   |   |   |   |   |   |   |   |   |   |   |   elevation > 2213: 3 (11.0/2.0)
|   |   |   |   |   |   |   soil_type = 11: 3 (0.0)
|   |   |   |   |   |   |   soil_type = 12: 3 (0.0)
|   |   |   |   |   |   |   soil_type = 13: 3 (0.0)
|   |   |   |   |   |   |   soil_type = 14
|   |   |   |   |   |   |   |   hillshade_9am <= 170: 6 (4.0)
|   |   |   |   |   |   |   |   hillshade_9am > 170
|   |   |   |   |   |   |   |   |   horiz_dist_road <= 1061: 4 (19.0/3.0)
|   |   |   |   |   |   |   |   |   horiz_dist_road > 1061
|   |   |   |   |   |   |   |   |   |   hillshade_3pm <= 163: 4 (2.0)
|   |   |   |   |   |   |   |   |   |   hillshade_3pm > 163: 6 (5.0)
|   |   |   |   |   |   |   soil_type = 15: 3 (0.0)
|   |   |   |   |   |   |   soil_type = 16
|   |   |   |   |   |   |   |   slope <= 14: 4 (7.0)
|   |   |   |   |   |   |   |   slope > 14: 3 (7.0/2.0)
|   |   |   |   |   |   |   soil_type = 17
|   |   |   |   |   |   |   |   elevation <= 2279: 4 (45.0/3.0)
|   |   |   |   |   |   |   |   elevation > 2279
|   |   |   |   |   |   |   |   |   horiz_dist_road <= 1082: 4 (3.0/1.0)
|   |   |   |   |   |   |   |   |   horiz_dist_road > 1082: 6 (8.0)
|   |   |   |   |   |   |   soil_type = 18: 3 (0.0)
|   |   |   |   |   |   |   soil_type = 19: 3 (0.0)
|   |   |   |   |   |   |   soil_type = 20: 3 (0.0)
|   |   |   |   |   |   |   soil_type = 21: 3 (0.0)
|   |   |   |   |   |   |   soil_type = 22: 3 (0.0)
|   |   |   |   |   |   |   soil_type = 23: 3 (0.0)
|   |   |   |   |   |   |   soil_type = 24: 3 (0.0)
|   |   |   |   |   |   |   soil_type = 25: 3 (0.0)
|   |   |   |   |   |   |   soil_type = 26: 3 (0.0)
|   |   |   |   |   |   |   soil_type = 27: 3 (0.0)
|   |   |   |   |   |   |   soil_type = 28: 3 (0.0)
|   |   |   |   |   |   |   soil_type = 29: 3 (0.0)
|   |   |   |   |   |   |   soil_type = 30: 3 (0.0)
|   |   |   |   |   |   |   soil_type = 31: 3 (0.0)
|   |   |   |   |   |   |   soil_type = 32: 3 (0.0)
|   |   |   |   |   |   |   soil_type = 33: 3 (0.0)
|   |   |   |   |   |   |   soil_type = 34: 3 (0.0)
|   |   |   |   |   |   |   soil_type = 35: 3 (0.0)
|   |   |   |   |   |   |   soil_type = 36: 3 (0.0)
|   |   |   |   |   |   |   soil_type = 37: 3 (0.0)
|   |   |   |   |   |   |   soil_type = 38: 3 (0.0)
|   |   |   |   |   |   |   soil_type = 39: 3 (0.0)
|   |   |   |   |   |   |   soil_type = 40: 3 (0.0)
|   |   |   |   |   |   hillshade_9am > 203
|   |   |   |   |   |   |   hillshade_3pm <= 65
|   |   |   |   |   |   |   |   soil_type = 1
|   |   |   |   |   |   |   |   |   elevation <= 2176: 3 (10.0)
|   |   |   |   |   |   |   |   |   elevation > 2176
|   |   |   |   |   |   |   |   |   |   aspect <= 76: 4 (2.0)
|   |   |   |   |   |   |   |   |   |   aspect > 76: 6 (3.0)
|   |   |   |   |   |   |   |   soil_type = 2: 4 (2.0)
|   |   |   |   |   |   |   |   soil_type = 3: 3 (0.0)
|   |   |   |   |   |   |   |   soil_type = 4: 3 (0.0)
|   |   |   |   |   |   |   |   soil_type = 5: 4 (1.0)
|   |   |   |   |   |   |   |   soil_type = 6: 3 (1.0)
|   |   |   |   |   |   |   |   soil_type = 7: 3 (0.0)
|   |   |   |   |   |   |   |   soil_type = 8: 3 (0.0)
|   |   |   |   |   |   |   |   soil_type = 9: 3 (0.0)
|   |   |   |   |   |   |   |   soil_type = 10: 6 (2.0)
|   |   |   |   |   |   |   |   soil_type = 11: 3 (0.0)
|   |   |   |   |   |   |   |   soil_type = 12: 3 (0.0)
|   |   |   |   |   |   |   |   soil_type = 13: 3 (0.0)
|   |   |   |   |   |   |   |   soil_type = 14: 4 (2.0/1.0)
|   |   |   |   |   |   |   |   soil_type = 15: 3 (0.0)
|   |   |   |   |   |   |   |   soil_type = 16: 3 (0.0)
|   |   |   |   |   |   |   |   soil_type = 17: 4 (1.0)
|   |   |   |   |   |   |   |   soil_type = 18: 3 (0.0)
|   |   |   |   |   |   |   |   soil_type = 19: 3 (0.0)
|   |   |   |   |   |   |   |   soil_type = 20: 3 (0.0)
|   |   |   |   |   |   |   |   soil_type = 21: 3 (0.0)
|   |   |   |   |   |   |   |   soil_type = 22: 3 (0.0)
|   |   |   |   |   |   |   |   soil_type = 23: 3 (0.0)
|   |   |   |   |   |   |   |   soil_type = 24: 3 (0.0)
|   |   |   |   |   |   |   |   soil_type = 25: 3 (0.0)
|   |   |   |   |   |   |   |   soil_type = 26: 3 (0.0)
|   |   |   |   |   |   |   |   soil_type = 27: 3 (0.0)
|   |   |   |   |   |   |   |   soil_type = 28: 3 (0.0)
|   |   |   |   |   |   |   |   soil_type = 29: 3 (0.0)
|   |   |   |   |   |   |   |   soil_type = 30: 3 (0.0)
|   |   |   |   |   |   |   |   soil_type = 31: 3 (0.0)
|   |   |   |   |   |   |   |   soil_type = 32: 3 (0.0)
|   |   |   |   |   |   |   |   soil_type = 33: 3 (0.0)
|   |   |   |   |   |   |   |   soil_type = 34: 3 (0.0)
|   |   |   |   |   |   |   |   soil_type = 35: 3 (0.0)
|   |   |   |   |   |   |   |   soil_type = 36: 3 (0.0)
|   |   |   |   |   |   |   |   soil_type = 37: 3 (0.0)
|   |   |   |   |   |   |   |   soil_type = 38: 3 (0.0)
|   |   |   |   |   |   |   |   soil_type = 39: 3 (0.0)
|   |   |   |   |   |   |   |   soil_type = 40: 3 (0.0)
|   |   |   |   |   |   |   hillshade_3pm > 65
|   |   |   |   |   |   |   |   horiz_dist_road <= 940
|   |   |   |   |   |   |   |   |   hillshade_3pm <= 153
|   |   |   |   |   |   |   |   |   |   soil_type = 1
|   |   |   |   |   |   |   |   |   |   |   hillshade_9am <= 229
|   |   |   |   |   |   |   |   |   |   |   |   hillshade_9am <= 226: 4 (3.0)
|   |   |   |   |   |   |   |   |   |   |   |   hillshade_9am > 226: 3 (2.0)
|   |   |   |   |   |   |   |   |   |   |   hillshade_9am > 229: 4 (23.0/2.0)
|   |   |   |   |   |   |   |   |   |   soil_type = 2
|   |   |   |   |   |   |   |   |   |   |   hillshade_3pm <= 122: 4 (2.0)
|   |   |   |   |   |   |   |   |   |   |   hillshade_3pm > 122: 3 (4.0)
|   |   |   |   |   |   |   |   |   |   soil_type = 3: 4 (13.0/1.0)
|   |   |   |   |   |   |   |   |   |   soil_type = 4
|   |   |   |   |   |   |   |   |   |   |   horiz_dist_fire <= 1736
|   |   |   |   |   |   |   |   |   |   |   |   aspect <= 32
|   |   |   |   |   |   |   |   |   |   |   |   |   horiz_dist_road <= 713: 3 (2.0)
|   |   |   |   |   |   |   |   |   |   |   |   |   horiz_dist_road > 713: 4 (4.0)
|   |   |   |   |   |   |   |   |   |   |   |   aspect > 32: 4 (29.0)
|   |   |   |   |   |   |   |   |   |   |   horiz_dist_fire > 1736: 3 (3.0)
|   |   |   |   |   |   |   |   |   |   soil_type = 5: 4 (7.0/1.0)
|   |   |   |   |   |   |   |   |   |   soil_type = 6
|   |   |   |   |   |   |   |   |   |   |   aspect <= 88: 4 (2.0)
|   |   |   |   |   |   |   |   |   |   |   aspect > 88: 3 (4.0/1.0)
|   |   |   |   |   |   |   |   |   |   soil_type = 7: 4 (0.0)
|   |   |   |   |   |   |   |   |   |   soil_type = 8: 4 (0.0)
|   |   |   |   |   |   |   |   |   |   soil_type = 9: 4 (0.0)
|   |   |   |   |   |   |   |   |   |   soil_type = 10
|   |   |   |   |   |   |   |   |   |   |   horiz_dist_fire <= 807
|   |   |   |   |   |   |   |   |   |   |   |   slope <= 18
|   |   |   |   |   |   |   |   |   |   |   |   |   elevation <= 2128
|   |   |   |   |   |   |   |   |   |   |   |   |   |   hillshade_3pm <= 134: 4 (2.0)
|   |   |   |   |   |   |   |   |   |   |   |   |   |   hillshade_3pm > 134: 6 (2.0)
|   |   |   |   |   |   |   |   |   |   |   |   |   elevation > 2128
|   |   |   |   |   |   |   |   |   |   |   |   |   |   aspect <= 56
|   |   |   |   |   |   |   |   |   |   |   |   |   |   |   slope <= 6: 4 (3.0/1.0)
|   |   |   |   |   |   |   |   |   |   |   |   |   |   |   slope > 6: 3 (5.0)
|   |   |   |   |   |   |   |   |   |   |   |   |   |   aspect > 56
|   |   |   |   |   |   |   |   |   |   |   |   |   |   |   elevation <= 2205: 3 (2.0)
|   |   |   |   |   |   |   |   |   |   |   |   |   |   |   elevation > 2205: 4 (14.0)
|   |   |   |   |   |   |   |   |   |   |   |   slope > 18: 3 (6.0)
|   |   |   |   |   |   |   |   |   |   |   horiz_dist_fire > 807: 4 (10.0)
|   |   |   |   |   |   |   |   |   |   soil_type = 11: 4 (14.0/1.0)
|   |   |   |   |   |   |   |   |   |   soil_type = 12: 4 (0.0)
|   |   |   |   |   |   |   |   |   |   soil_type = 13: 4 (0.0)
|   |   |   |   |   |   |   |   |   |   soil_type = 14: 4 (28.0/2.0)
|   |   |   |   |   |   |   |   |   |   soil_type = 15: 4 (0.0)
|   |   |   |   |   |   |   |   |   |   soil_type = 16: 4 (7.0)
|   |   |   |   |   |   |   |   |   |   soil_type = 17
|   |   |   |   |   |   |   |   |   |   |   horiz_dist_road <= 301: 2 (2.0)
|   |   |   |   |   |   |   |   |   |   |   horiz_dist_road > 301: 4 (13.0/1.0)
|   |   |   |   |   |   |   |   |   |   soil_type = 18: 4 (0.0)
|   |   |   |   |   |   |   |   |   |   soil_type = 19: 4 (0.0)
|   |   |   |   |   |   |   |   |   |   soil_type = 20: 4 (0.0)
|   |   |   |   |   |   |   |   |   |   soil_type = 21: 4 (0.0)
|   |   |   |   |   |   |   |   |   |   soil_type = 22: 4 (0.0)
|   |   |   |   |   |   |   |   |   |   soil_type = 23: 4 (0.0)
|   |   |   |   |   |   |   |   |   |   soil_type = 24: 4 (0.0)
|   |   |   |   |   |   |   |   |   |   soil_type = 25: 4 (0.0)
|   |   |   |   |   |   |   |   |   |   soil_type = 26: 4 (0.0)
|   |   |   |   |   |   |   |   |   |   soil_type = 27: 4 (0.0)
|   |   |   |   |   |   |   |   |   |   soil_type = 28: 4 (0.0)
|   |   |   |   |   |   |   |   |   |   soil_type = 29: 4 (0.0)
|   |   |   |   |   |   |   |   |   |   soil_type = 30: 4 (0.0)
|   |   |   |   |   |   |   |   |   |   soil_type = 31: 4 (0.0)
|   |   |   |   |   |   |   |   |   |   soil_type = 32: 4 (0.0)
|   |   |   |   |   |   |   |   |   |   soil_type = 33: 4 (0.0)
|   |   |   |   |   |   |   |   |   |   soil_type = 34: 4 (0.0)
|   |   |   |   |   |   |   |   |   |   soil_type = 35: 4 (0.0)
|   |   |   |   |   |   |   |   |   |   soil_type = 36: 4 (0.0)
|   |   |   |   |   |   |   |   |   |   soil_type = 37: 4 (0.0)
|   |   |   |   |   |   |   |   |   |   soil_type = 38: 4 (0.0)
|   |   |   |   |   |   |   |   |   |   soil_type = 39: 4 (0.0)
|   |   |   |   |   |   |   |   |   |   soil_type = 40: 4 (0.0)
|   |   |   |   |   |   |   |   |   hillshade_3pm > 153
|   |   |   |   |   |   |   |   |   |   soil_type = 1: 3 (1.0)
|   |   |   |   |   |   |   |   |   |   soil_type = 2: 3 (2.0)
|   |   |   |   |   |   |   |   |   |   soil_type = 3: 3 (1.0)
|   |   |   |   |   |   |   |   |   |   soil_type = 4: 4 (5.0/1.0)
|   |   |   |   |   |   |   |   |   |   soil_type = 5: 3 (0.0)
|   |   |   |   |   |   |   |   |   |   soil_type = 6: 3 (3.0)
|   |   |   |   |   |   |   |   |   |   soil_type = 7: 3 (0.0)
|   |   |   |   |   |   |   |   |   |   soil_type = 8: 3 (0.0)
|   |   |   |   |   |   |   |   |   |   soil_type = 9: 3 (0.0)
|   |   |   |   |   |   |   |   |   |   soil_type = 10
|   |   |   |   |   |   |   |   |   |   |   horiz_dist_road <= 350: 3 (3.0/1.0)
|   |   |   |   |   |   |   |   |   |   |   horiz_dist_road > 350: 4 (3.0)
|   |   |   |   |   |   |   |   |   |   soil_type = 11: 3 (1.0)
|   |   |   |   |   |   |   |   |   |   soil_type = 12: 3 (0.0)
|   |   |   |   |   |   |   |   |   |   soil_type = 13: 3 (0.0)
|   |   |   |   |   |   |   |   |   |   soil_type = 14
|   |   |   |   |   |   |   |   |   |   |   horiz_dist_fire <= 850: 3 (6.0/1.0)
|   |   |   |   |   |   |   |   |   |   |   horiz_dist_fire > 850: 4 (3.0)
|   |   |   |   |   |   |   |   |   |   soil_type = 15: 3 (0.0)
|   |   |   |   |   |   |   |   |   |   soil_type = 16: 4 (5.0)
|   |   |   |   |   |   |   |   |   |   soil_type = 17
|   |   |   |   |   |   |   |   |   |   |   aspect <= 215: 4 (3.0/1.0)
|   |   |   |   |   |   |   |   |   |   |   aspect > 215: 3 (7.0/1.0)
|   |   |   |   |   |   |   |   |   |   soil_type = 18: 3 (0.0)
|   |   |   |   |   |   |   |   |   |   soil_type = 19: 3 (0.0)
|   |   |   |   |   |   |   |   |   |   soil_type = 20: 3 (0.0)
|   |   |   |   |   |   |   |   |   |   soil_type = 21: 3 (0.0)
|   |   |   |   |   |   |   |   |   |   soil_type = 22: 3 (0.0)
|   |   |   |   |   |   |   |   |   |   soil_type = 23: 3 (0.0)
|   |   |   |   |   |   |   |   |   |   soil_type = 24: 3 (0.0)
|   |   |   |   |   |   |   |   |   |   soil_type = 25: 3 (0.0)
|   |   |   |   |   |   |   |   |   |   soil_type = 26: 3 (0.0)
|   |   |   |   |   |   |   |   |   |   soil_type = 27: 3 (0.0)
|   |   |   |   |   |   |   |   |   |   soil_type = 28: 3 (0.0)
|   |   |   |   |   |   |   |   |   |   soil_type = 29: 3 (0.0)
|   |   |   |   |   |   |   |   |   |   soil_type = 30: 3 (0.0)
|   |   |   |   |   |   |   |   |   |   soil_type = 31: 3 (0.0)
|   |   |   |   |   |   |   |   |   |   soil_type = 32: 3 (0.0)
|   |   |   |   |   |   |   |   |   |   soil_type = 33: 3 (0.0)
|   |   |   |   |   |   |   |   |   |   soil_type = 34: 3 (0.0)
|   |   |   |   |   |   |   |   |   |   soil_type = 35: 3 (0.0)
|   |   |   |   |   |   |   |   |   |   soil_type = 36: 3 (0.0)
|   |   |   |   |   |   |   |   |   |   soil_type = 37: 3 (0.0)
|   |   |   |   |   |   |   |   |   |   soil_type = 38: 3 (0.0)
|   |   |   |   |   |   |   |   |   |   soil_type = 39: 3 (0.0)
|   |   |   |   |   |   |   |   |   |   soil_type = 40: 3 (0.0)
|   |   |   |   |   |   |   |   horiz_dist_road > 940: 4 (197.0/21.0)
|   |   |   |   elevation > 2339
|   |   |   |   |   soil_type = 1
|   |   |   |   |   |   horiz_dist_fire <= 911
|   |   |   |   |   |   |   hillshade_3pm <= 75: 3 (2.0)
|   |   |   |   |   |   |   hillshade_3pm > 75: 4 (7.0/1.0)
|   |   |   |   |   |   horiz_dist_fire > 911: 3 (2.0/1.0)
|   |   |   |   |   soil_type = 2: 4 (7.0/1.0)
|   |   |   |   |   soil_type = 3: 3 (0.0)
|   |   |   |   |   soil_type = 4
|   |   |   |   |   |   hillshade_noon <= 220: 2 (2.0)
|   |   |   |   |   |   hillshade_noon > 220: 3 (4.0)
|   |   |   |   |   soil_type = 5
|   |   |   |   |   |   hillshade_9am <= 235
|   |   |   |   |   |   |   slope <= 7: 4 (2.0)
|   |   |   |   |   |   |   slope > 7: 6 (6.0/1.0)
|   |   |   |   |   |   hillshade_9am > 235: 4 (5.0/1.0)
|   |   |   |   |   soil_type = 6
|   |   |   |   |   |   horiz_dist_fire <= 1423
|   |   |   |   |   |   |   horiz_dist_road <= 825: 4 (12.0/2.0)
|   |   |   |   |   |   |   horiz_dist_road > 825
|   |   |   |   |   |   |   |   elevation <= 2384: 4 (6.0)
|   |   |   |   |   |   |   |   elevation > 2384: 3 (10.0/1.0)
|   |   |   |   |   |   horiz_dist_fire > 1423: 3 (11.0)
|   |   |   |   |   soil_type = 7: 3 (0.0)
|   |   |   |   |   soil_type = 8: 3 (0.0)
|   |   |   |   |   soil_type = 9: 3 (0.0)
|   |   |   |   |   soil_type = 10
|   |   |   |   |   |   elevation <= 2411
|   |   |   |   |   |   |   horiz_dist_fire <= 850
|   |   |   |   |   |   |   |   hillshade_3pm <= 102: 3 (4.0)
|   |   |   |   |   |   |   |   hillshade_3pm > 102: 6 (27.0/2.0)
|   |   |   |   |   |   |   horiz_dist_fire > 850
|   |   |   |   |   |   |   |   hillshade_3pm <= 116: 4 (2.0)
|   |   |   |   |   |   |   |   hillshade_3pm > 116
|   |   |   |   |   |   |   |   |   horiz_dist_fire <= 1310: 3 (13.0/1.0)
|   |   |   |   |   |   |   |   |   horiz_dist_fire > 1310: 2 (5.0/1.0)
|   |   |   |   |   |   elevation > 2411
|   |   |   |   |   |   |   hillshade_9am <= 198: 6 (5.0)
|   |   |   |   |   |   |   hillshade_9am > 198: 2 (35.0/4.0)
|   |   |   |   |   soil_type = 11: 4 (3.0)
|   |   |   |   |   soil_type = 12: 3 (0.0)
|   |   |   |   |   soil_type = 13: 3 (0.0)
|   |   |   |   |   soil_type = 14: 6 (3.0)
|   |   |   |   |   soil_type = 15: 3 (0.0)
|   |   |   |   |   soil_type = 16
|   |   |   |   |   |   horiz_dist_road <= 679
|   |   |   |   |   |   |   horiz_dist_road <= 503: 3 (3.0/1.0)
|   |   |   |   |   |   |   horiz_dist_road > 503
|   |   |   |   |   |   |   |   hillshade_9am <= 201: 2 (9.0)
|   |   |   |   |   |   |   |   hillshade_9am > 201
|   |   |   |   |   |   |   |   |   horiz_dist_fire <= 1353
|   |   |   |   |   |   |   |   |   |   horiz_dist_road <= 551
|   |   |   |   |   |   |   |   |   |   |   elevation <= 2362: 2 (2.0)
|   |   |   |   |   |   |   |   |   |   |   elevation > 2362: 3 (2.0)
|   |   |   |   |   |   |   |   |   |   horiz_dist_road > 551: 2 (5.0)
|   |   |   |   |   |   |   |   |   horiz_dist_fire > 1353: 3 (3.0)
|   |   |   |   |   |   horiz_dist_road > 679: 6 (14.0/1.0)
|   |   |   |   |   soil_type = 17
|   |   |   |   |   |   slope <= 15: 3 (11.0)
|   |   |   |   |   |   slope > 15: 6 (2.0)
|   |   |   |   |   soil_type = 18: 3 (0.0)
|   |   |   |   |   soil_type = 19: 3 (0.0)
|   |   |   |   |   soil_type = 20: 3 (0.0)
|   |   |   |   |   soil_type = 21: 3 (0.0)
|   |   |   |   |   soil_type = 22: 3 (0.0)
|   |   |   |   |   soil_type = 23: 3 (0.0)
|   |   |   |   |   soil_type = 24: 3 (0.0)
|   |   |   |   |   soil_type = 25: 3 (0.0)
|   |   |   |   |   soil_type = 26: 3 (0.0)
|   |   |   |   |   soil_type = 27: 3 (0.0)
|   |   |   |   |   soil_type = 28: 3 (0.0)
|   |   |   |   |   soil_type = 29: 3 (0.0)
|   |   |   |   |   soil_type = 30: 3 (0.0)
|   |   |   |   |   soil_type = 31: 3 (0.0)
|   |   |   |   |   soil_type = 32: 3 (0.0)
|   |   |   |   |   soil_type = 33: 3 (0.0)
|   |   |   |   |   soil_type = 34: 3 (0.0)
|   |   |   |   |   soil_type = 35: 3 (0.0)
|   |   |   |   |   soil_type = 36: 3 (0.0)
|   |   |   |   |   soil_type = 37: 3 (0.0)
|   |   |   |   |   soil_type = 38: 3 (0.0)
|   |   |   |   |   soil_type = 39: 3 (0.0)
|   |   |   |   |   soil_type = 40: 3 (0.0)
|   |   horz_dist_hydro > 0
|   |   |   hillshade_9am <= 241
|   |   |   |   elevation <= 2419
|   |   |   |   |   vert_dist_hydro <= 149
|   |   |   |   |   |   horiz_dist_road <= 690
|   |   |   |   |   |   |   horiz_dist_fire <= 1486
|   |   |   |   |   |   |   |   elevation <= 2185
|   |   |   |   |   |   |   |   |   horiz_dist_fire <= 685
|   |   |   |   |   |   |   |   |   |   hillshade_3pm <= 208
|   |   |   |   |   |   |   |   |   |   |   horz_dist_hydro <= 277
|   |   |   |   |   |   |   |   |   |   |   |   hillshade_noon <= 214
|   |   |   |   |   |   |   |   |   |   |   |   |   horiz_dist_fire <= 190: 3 (74.0)
|   |   |   |   |   |   |   |   |   |   |   |   |   horiz_dist_fire > 190
|   |   |   |   |   |   |   |   |   |   |   |   |   |   soil_type = 1
|   |   |   |   |   |   |   |   |   |   |   |   |   |   |   elevation <= 2001
|   |   |   |   |   |   |   |   |   |   |   |   |   |   |   |   horiz_dist_road <= 180
|   |   |   |   |   |   |   |   |   |   |   |   |   |   |   |   |   horz_dist_hydro <= 124: 3 (30.0)
|   |   |   |   |   |   |   |   |   |   |   |   |   |   |   |   |   horz_dist_hydro > 124: 6 (6.0)
|   |   |   |   |   |   |   |   |   |   |   |   |   |   |   |   horiz_dist_road > 180
|   |   |   |   |   |   |   |   |   |   |   |   |   |   |   |   |   horz_dist_hydro <= 30
|   |   |   |   |   |   |   |   |   |   |   |   |   |   |   |   |   |   horiz_dist_road <= 247: 3 (3.0)
|   |   |   |   |   |   |   |   |   |   |   |   |   |   |   |   |   |   horiz_dist_road > 247: 6 (5.0)
|   |   |   |   |   |   |   |   |   |   |   |   |   |   |   |   |   horz_dist_hydro > 30: 6 (19.0)
|   |   |   |   |   |   |   |   |   |   |   |   |   |   |   elevation > 2001
|   |   |   |   |   |   |   |   |   |   |   |   |   |   |   |   horz_dist_hydro <= 90
|   |   |   |   |   |   |   |   |   |   |   |   |   |   |   |   |   aspect <= 66
|   |   |   |   |   |   |   |   |   |   |   |   |   |   |   |   |   |   horiz_dist_road <= 228: 3 (2.0)
|   |   |   |   |   |   |   |   |   |   |   |   |   |   |   |   |   |   horiz_dist_road > 228: 6 (6.0)
|   |   |   |   |   |   |   |   |   |   |   |   |   |   |   |   |   aspect > 66: 3 (11.0)
|   |   |   |   |   |   |   |   |   |   |   |   |   |   |   |   horz_dist_hydro > 90: 3 (75.0)
|   |   |   |   |   |   |   |   |   |   |   |   |   |   soil_type = 2: 6 (9.0)
|   |   |   |   |   |   |   |   |   |   |   |   |   |   soil_type = 3: 4 (2.0)
|   |   |   |   |   |   |   |   |   |   |   |   |   |   soil_type = 4
|   |   |   |   |   |   |   |   |   |   |   |   |   |   |   elevation <= 2066: 3 (9.0)
|   |   |   |   |   |   |   |   |   |   |   |   |   |   |   elevation > 2066
|   |   |   |   |   |   |   |   |   |   |   |   |   |   |   |   hillshade_noon <= 194: 6 (11.0)
|   |   |   |   |   |   |   |   |   |   |   |   |   |   |   |   hillshade_noon > 194: 3 (3.0)
|   |   |   |   |   |   |   |   |   |   |   |   |   |   soil_type = 5
|   |   |   |   |   |   |   |   |   |   |   |   |   |   |   horiz_dist_fire <= 437: 3 (13.0)
|   |   |   |   |   |   |   |   |   |   |   |   |   |   |   horiz_dist_fire > 437: 6 (16.0)
|   |   |   |   |   |   |   |   |   |   |   |   |   |   soil_type = 6: 3 (75.0)
|   |   |   |   |   |   |   |   |   |   |   |   |   |   soil_type = 7: 3 (0.0)
|   |   |   |   |   |   |   |   |   |   |   |   |   |   soil_type = 8: 3 (0.0)
|   |   |   |   |   |   |   |   |   |   |   |   |   |   soil_type = 9: 3 (0.0)
|   |   |   |   |   |   |   |   |   |   |   |   |   |   soil_type = 10
|   |   |   |   |   |   |   |   |   |   |   |   |   |   |   horiz_dist_road <= 175
|   |   |   |   |   |   |   |   |   |   |   |   |   |   |   |   elevation <= 2056: 3 (101.0)
|   |   |   |   |   |   |   |   |   |   |   |   |   |   |   |   elevation > 2056
|   |   |   |   |   |   |   |   |   |   |   |   |   |   |   |   |   hillshade_9am <= 174: 3 (8.0)
|   |   |   |   |   |   |   |   |   |   |   |   |   |   |   |   |   hillshade_9am > 174
|   |   |   |   |   |   |   |   |   |   |   |   |   |   |   |   |   |   vert_dist_hydro <= 21: 3 (3.0)
|   |   |   |   |   |   |   |   |   |   |   |   |   |   |   |   |   |   vert_dist_hydro > 21
|   |   |   |   |   |   |   |   |   |   |   |   |   |   |   |   |   |   |   hillshade_3pm <= 54: 3 (2.0)
|   |   |   |   |   |   |   |   |   |   |   |   |   |   |   |   |   |   |   hillshade_3pm > 54: 6 (14.0/1.0)
|   |   |   |   |   |   |   |   |   |   |   |   |   |   |   horiz_dist_road > 175
|   |   |   |   |   |   |   |   |   |   |   |   |   |   |   |   vert_dist_hydro <= 82
|   |   |   |   |   |   |   |   |   |   |   |   |   |   |   |   |   elevation <= 2047
|   |   |   |   |   |   |   |   |   |   |   |   |   |   |   |   |   |   horiz_dist_road <= 247
|   |   |   |   |   |   |   |   |   |   |   |   |   |   |   |   |   |   |   horiz_dist_road <= 210: 3 (6.0)
|   |   |   |   |   |   |   |   |   |   |   |   |   |   |   |   |   |   |   horiz_dist_road > 210
|   |   |   |   |   |   |   |   |   |   |   |   |   |   |   |   |   |   |   |   horiz_dist_fire <= 408: 6 (2.0)
|   |   |   |   |   |   |   |   |   |   |   |   |   |   |   |   |   |   |   |   horiz_dist_fire > 408: 3 (3.0)
|   |   |   |   |   |   |   |   |   |   |   |   |   |   |   |   |   |   horiz_dist_road > 247
|   |   |   |   |   |   |   |   |   |   |   |   |   |   |   |   |   |   |   horiz_dist_fire <= 666
|   |   |   |   |   |   |   |   |   |   |   |   |   |   |   |   |   |   |   |   horz_dist_hydro <= 60
|   |   |   |   |   |   |   |   |   |   |   |   |   |   |   |   |   |   |   |   |   horiz_dist_road <= 433: 6 (12.0/1.0)
|   |   |   |   |   |   |   |   |   |   |   |   |   |   |   |   |   |   |   |   |   horiz_dist_road > 433: 4 (5.0)
|   |   |   |   |   |   |   |   |   |   |   |   |   |   |   |   |   |   |   |   horz_dist_hydro > 60: 6 (20.0)
|   |   |   |   |   |   |   |   |   |   |   |   |   |   |   |   |   |   |   horiz_dist_fire > 666
|   |   |   |   |   |   |   |   |   |   |   |   |   |   |   |   |   |   |   |   slope <= 21: 6 (3.0)
|   |   |   |   |   |   |   |   |   |   |   |   |   |   |   |   |   |   |   |   slope > 21: 3 (3.0)
|   |   |   |   |   |   |   |   |   |   |   |   |   |   |   |   |   elevation > 2047
|   |   |   |   |   |   |   |   |   |   |   |   |   |   |   |   |   |   slope <= 37
|   |   |   |   |   |   |   |   |   |   |   |   |   |   |   |   |   |   |   horiz_dist_fire <= 379
|   |   |   |   |   |   |   |   |   |   |   |   |   |   |   |   |   |   |   |   horiz_dist_road <= 234: 3 (6.0)
|   |   |   |   |   |   |   |   |   |   |   |   |   |   |   |   |   |   |   |   horiz_dist_road > 234
|   |   |   |   |   |   |   |   |   |   |   |   |   |   |   |   |   |   |   |   |   vert_dist_hydro <= 69: 6 (51.0)
|   |   |   |   |   |   |   |   |   |   |   |   |   |   |   |   |   |   |   |   |   vert_dist_hydro > 69: 3 (2.0)
|   |   |   |   |   |   |   |   |   |   |   |   |   |   |   |   |   |   |   horiz_dist_fire > 379
|   |   |   |   |   |   |   |   |   |   |   |   |   |   |   |   |   |   |   |   vert_dist_hydro <= -23: 6 (13.0)
|   |   |   |   |   |   |   |   |   |   |   |   |   |   |   |   |   |   |   |   vert_dist_hydro > -23
|   |   |   |   |   |   |   |   |   |   |   |   |   |   |   |   |   |   |   |   |   horiz_dist_road <= 497
|   |   |   |   |   |   |   |   |   |   |   |   |   |   |   |   |   |   |   |   |   |   hillshade_9am <= 182
|   |   |   |   |   |   |   |   |   |   |   |   |   |   |   |   |   |   |   |   |   |   |   hillshade_noon <= 207
|   |   |   |   |   |   |   |   |   |   |   |   |   |   |   |   |   |   |   |   |   |   |   |   horz_dist_hydro <= 127
|   |   |   |   |   |   |   |   |   |   |   |   |   |   |   |   |   |   |   |   |   |   |   |   |   elevation <= 2090
|   |   |   |   |   |   |   |   |   |   |   |   |   |   |   |   |   |   |   |   |   |   |   |   |   |   horiz_dist_road <= 330
|   |   |   |   |   |   |   |   |   |   |   |   |   |   |   |   |   |   |   |   |   |   |   |   |   |   |   hillshade_9am <= 127: 3 (4.0)
|   |   |   |   |   |   |   |   |   |   |   |   |   |   |   |   |   |   |   |   |   |   |   |   |   |   |   hillshade_9am > 127: 6 (4.0/1.0)
|   |   |   |   |   |   |   |   |   |   |   |   |   |   |   |   |   |   |   |   |   |   |   |   |   |   horiz_dist_road > 330: 6 (23.0)
|   |   |   |   |   |   |   |   |   |   |   |   |   |   |   |   |   |   |   |   |   |   |   |   |   elevation > 2090
|   |   |   |   |   |   |   |   |   |   |   |   |   |   |   |   |   |   |   |   |   |   |   |   |   |   horiz_dist_fire <= 450
|   |   |   |   |   |   |   |   |   |   |   |   |   |   |   |   |   |   |   |   |   |   |   |   |   |   |   vert_dist_hydro <= 49: 6 (9.0)
|   |   |   |   |   |   |   |   |   |   |   |   |   |   |   |   |   |   |   |   |   |   |   |   |   |   |   vert_dist_hydro > 49: 3 (2.0)
|   |   |   |   |   |   |   |   |   |   |   |   |   |   |   |   |   |   |   |   |   |   |   |   |   |   horiz_dist_fire > 450
|   |   |   |   |   |   |   |   |   |   |   |   |   |   |   |   |   |   |   |   |   |   |   |   |   |   |   horz_dist_hydro <= 90: 3 (14.0)
|   |   |   |   |   |   |   |   |   |   |   |   |   |   |   |   |   |   |   |   |   |   |   |   |   |   |   horz_dist_hydro > 90
|   |   |   |   |   |   |   |   |   |   |   |   |   |   |   |   |   |   |   |   |   |   |   |   |   |   |   |   elevation <= 2110: 6 (4.0)
|   |   |   |   |   |   |   |   |   |   |   |   |   |   |   |   |   |   |   |   |   |   |   |   |   |   |   |   elevation > 2110: 3 (3.0)
|   |   |   |   |   |   |   |   |   |   |   |   |   |   |   |   |   |   |   |   |   |   |   |   horz_dist_hydro > 127
|   |   |   |   |   |   |   |   |   |   |   |   |   |   |   |   |   |   |   |   |   |   |   |   |   vert_dist_hydro <= 77: 3 (14.0)
|   |   |   |   |   |   |   |   |   |   |   |   |   |   |   |   |   |   |   |   |   |   |   |   |   vert_dist_hydro > 77: 6 (3.0/1.0)
|   |   |   |   |   |   |   |   |   |   |   |   |   |   |   |   |   |   |   |   |   |   |   hillshade_noon > 207: 3 (10.0/1.0)
|   |   |   |   |   |   |   |   |   |   |   |   |   |   |   |   |   |   |   |   |   |   hillshade_9am > 182
|   |   |   |   |   |   |   |   |   |   |   |   |   |   |   |   |   |   |   |   |   |   |   horiz_dist_road <= 437: 6 (64.0/9.0)
|   |   |   |   |   |   |   |   |   |   |   |   |   |   |   |   |   |   |   |   |   |   |   horiz_dist_road > 437
|   |   |   |   |   |   |   |   |   |   |   |   |   |   |   |   |   |   |   |   |   |   |   |   horiz_dist_road <= 484: 3 (7.0/1.0)
|   |   |   |   |   |   |   |   |   |   |   |   |   |   |   |   |   |   |   |   |   |   |   |   horiz_dist_road > 484: 6 (2.0)
|   |   |   |   |   |   |   |   |   |   |   |   |   |   |   |   |   |   |   |   |   horiz_dist_road > 497
|   |   |   |   |   |   |   |   |   |   |   |   |   |   |   |   |   |   |   |   |   |   elevation <= 2152
|   |   |   |   |   |   |   |   |   |   |   |   |   |   |   |   |   |   |   |   |   |   |   horz_dist_hydro <= 108: 3 (36.0/1.0)
|   |   |   |   |   |   |   |   |   |   |   |   |   |   |   |   |   |   |   |   |   |   |   horz_dist_hydro > 108
|   |   |   |   |   |   |   |   |   |   |   |   |   |   |   |   |   |   |   |   |   |   |   |   elevation <= 2105: 6 (3.0)
|   |   |   |   |   |   |   |   |   |   |   |   |   |   |   |   |   |   |   |   |   |   |   |   elevation > 2105: 3 (7.0)
|   |   |   |   |   |   |   |   |   |   |   |   |   |   |   |   |   |   |   |   |   |   elevation > 2152
|   |   |   |   |   |   |   |   |   |   |   |   |   |   |   |   |   |   |   |   |   |   |   horz_dist_hydro <= 150
|   |   |   |   |   |   |   |   |   |   |   |   |   |   |   |   |   |   |   |   |   |   |   |   horiz_dist_fire <= 573: 6 (8.0)
|   |   |   |   |   |   |   |   |   |   |   |   |   |   |   |   |   |   |   |   |   |   |   |   horiz_dist_fire > 573: 3 (2.0)
|   |   |   |   |   |   |   |   |   |   |   |   |   |   |   |   |   |   |   |   |   |   |   horz_dist_hydro > 150: 3 (8.0)
|   |   |   |   |   |   |   |   |   |   |   |   |   |   |   |   |   |   slope > 37
|   |   |   |   |   |   |   |   |   |   |   |   |   |   |   |   |   |   |   hillshade_9am <= 168: 3 (18.0)
|   |   |   |   |   |   |   |   |   |   |   |   |   |   |   |   |   |   |   hillshade_9am > 168: 6 (3.0)
|   |   |   |   |   |   |   |   |   |   |   |   |   |   |   |   vert_dist_hydro > 82
|   |   |   |   |   |   |   |   |   |   |   |   |   |   |   |   |   hillshade_3pm <= 39
|   |   |   |   |   |   |   |   |   |   |   |   |   |   |   |   |   |   aspect <= 60: 6 (2.0)
|   |   |   |   |   |   |   |   |   |   |   |   |   |   |   |   |   |   aspect > 60: 4 (2.0)
|   |   |   |   |   |   |   |   |   |   |   |   |   |   |   |   |   hillshade_3pm > 39
|   |   |   |   |   |   |   |   |   |   |   |   |   |   |   |   |   |   slope <= 34
|   |   |   |   |   |   |   |   |   |   |   |   |   |   |   |   |   |   |   hillshade_3pm <= 128
|   |   |   |   |   |   |   |   |   |   |   |   |   |   |   |   |   |   |   |   horiz_dist_road <= 395
|   |   |   |   |   |   |   |   |   |   |   |   |   |   |   |   |   |   |   |   |   elevation <= 2076: 3 (9.0)
|   |   |   |   |   |   |   |   |   |   |   |   |   |   |   |   |   |   |   |   |   elevation > 2076
|   |   |   |   |   |   |   |   |   |   |   |   |   |   |   |   |   |   |   |   |   |   horiz_dist_fire <= 649
|   |   |   |   |   |   |   |   |   |   |   |   |   |   |   |   |   |   |   |   |   |   |   horiz_dist_fire <= 324: 3 (5.0/1.0)
|   |   |   |   |   |   |   |   |   |   |   |   |   |   |   |   |   |   |   |   |   |   |   horiz_dist_fire > 324
|   |   |   |   |   |   |   |   |   |   |   |   |   |   |   |   |   |   |   |   |   |   |   |   hillshade_noon <= 148: 3 (2.0)
|   |   |   |   |   |   |   |   |   |   |   |   |   |   |   |   |   |   |   |   |   |   |   |   hillshade_noon > 148
|   |   |   |   |   |   |   |   |   |   |   |   |   |   |   |   |   |   |   |   |   |   |   |   |   slope <= 24
|   |   |   |   |   |   |   |   |   |   |   |   |   |   |   |   |   |   |   |   |   |   |   |   |   |   elevation <= 2164: 3 (2.0)
|   |   |   |   |   |   |   |   |   |   |   |   |   |   |   |   |   |   |   |   |   |   |   |   |   |   elevation > 2164: 6 (3.0)
|   |   |   |   |   |   |   |   |   |   |   |   |   |   |   |   |   |   |   |   |   |   |   |   |   slope > 24: 6 (20.0)
|   |   |   |   |   |   |   |   |   |   |   |   |   |   |   |   |   |   |   |   |   |   horiz_dist_fire > 649: 3 (3.0)
|   |   |   |   |   |   |   |   |   |   |   |   |   |   |   |   |   |   |   |   horiz_dist_road > 395: 3 (14.0/1.0)
|   |   |   |   |   |   |   |   |   |   |   |   |   |   |   |   |   |   |   hillshade_3pm > 128
|   |   |   |   |   |   |   |   |   |   |   |   |   |   |   |   |   |   |   |   horiz_dist_fire <= 598: 3 (45.0)
|   |   |   |   |   |   |   |   |   |   |   |   |   |   |   |   |   |   |   |   horiz_dist_fire > 598
|   |   |   |   |   |   |   |   |   |   |   |   |   |   |   |   |   |   |   |   |   elevation <= 2119: 3 (8.0)
|   |   |   |   |   |   |   |   |   |   |   |   |   |   |   |   |   |   |   |   |   elevation > 2119: 6 (7.0)
|   |   |   |   |   |   |   |   |   |   |   |   |   |   |   |   |   |   slope > 34: 3 (19.0)
|   |   |   |   |   |   |   |   |   |   |   |   |   |   soil_type = 11: 3 (0.0)
|   |   |   |   |   |   |   |   |   |   |   |   |   |   soil_type = 12: 3 (0.0)
|   |   |   |   |   |   |   |   |   |   |   |   |   |   soil_type = 13: 3 (0.0)
|   |   |   |   |   |   |   |   |   |   |   |   |   |   soil_type = 14
|   |   |   |   |   |   |   |   |   |   |   |   |   |   |   hillshade_3pm <= 178
|   |   |   |   |   |   |   |   |   |   |   |   |   |   |   |   horiz_dist_fire <= 330: 4 (2.0)
|   |   |   |   |   |   |   |   |   |   |   |   |   |   |   |   horiz_dist_fire > 330: 3 (8.0)
|   |   |   |   |   |   |   |   |   |   |   |   |   |   |   hillshade_3pm > 178: 6 (2.0)
|   |   |   |   |   |   |   |   |   |   |   |   |   |   soil_type = 15: 6 (1.0)
|   |   |   |   |   |   |   |   |   |   |   |   |   |   soil_type = 16: 3 (0.0)
|   |   |   |   |   |   |   |   |   |   |   |   |   |   soil_type = 17: 3 (8.0)
|   |   |   |   |   |   |   |   |   |   |   |   |   |   soil_type = 18: 3 (0.0)
|   |   |   |   |   |   |   |   |   |   |   |   |   |   soil_type = 19: 3 (0.0)
|   |   |   |   |   |   |   |   |   |   |   |   |   |   soil_type = 20: 3 (0.0)
|   |   |   |   |   |   |   |   |   |   |   |   |   |   soil_type = 21: 3 (0.0)
|   |   |   |   |   |   |   |   |   |   |   |   |   |   soil_type = 22: 3 (0.0)
|   |   |   |   |   |   |   |   |   |   |   |   |   |   soil_type = 23: 3 (0.0)
|   |   |   |   |   |   |   |   |   |   |   |   |   |   soil_type = 24: 3 (0.0)
|   |   |   |   |   |   |   |   |   |   |   |   |   |   soil_type = 25: 3 (0.0)
|   |   |   |   |   |   |   |   |   |   |   |   |   |   soil_type = 26: 3 (0.0)
|   |   |   |   |   |   |   |   |   |   |   |   |   |   soil_type = 27: 3 (0.0)
|   |   |   |   |   |   |   |   |   |   |   |   |   |   soil_type = 28: 3 (0.0)
|   |   |   |   |   |   |   |   |   |   |   |   |   |   soil_type = 29: 3 (0.0)
|   |   |   |   |   |   |   |   |   |   |   |   |   |   soil_type = 30: 3 (0.0)
|   |   |   |   |   |   |   |   |   |   |   |   |   |   soil_type = 31: 3 (0.0)
|   |   |   |   |   |   |   |   |   |   |   |   |   |   soil_type = 32: 3 (0.0)
|   |   |   |   |   |   |   |   |   |   |   |   |   |   soil_type = 33: 3 (0.0)
|   |   |   |   |   |   |   |   |   |   |   |   |   |   soil_type = 34: 3 (0.0)
|   |   |   |   |   |   |   |   |   |   |   |   |   |   soil_type = 35: 3 (0.0)
|   |   |   |   |   |   |   |   |   |   |   |   |   |   soil_type = 36: 3 (0.0)
|   |   |   |   |   |   |   |   |   |   |   |   |   |   soil_type = 37: 3 (0.0)
|   |   |   |   |   |   |   |   |   |   |   |   |   |   soil_type = 38: 3 (0.0)
|   |   |   |   |   |   |   |   |   |   |   |   |   |   soil_type = 39: 3 (0.0)
|   |   |   |   |   |   |   |   |   |   |   |   |   |   soil_type = 40: 3 (0.0)
|   |   |   |   |   |   |   |   |   |   |   |   hillshade_noon > 214
|   |   |   |   |   |   |   |   |   |   |   |   |   horiz_dist_fire <= 630: 3 (215.0/16.0)
|   |   |   |   |   |   |   |   |   |   |   |   |   horiz_dist_fire > 630
|   |   |   |   |   |   |   |   |   |   |   |   |   |   elevation <= 2006: 6 (11.0/1.0)
|   |   |   |   |   |   |   |   |   |   |   |   |   |   elevation > 2006: 3 (16.0/2.0)
|   |   |   |   |   |   |   |   |   |   |   horz_dist_hydro > 277
|   |   |   |   |   |   |   |   |   |   |   |   elevation <= 2169: 3 (203.0)
|   |   |   |   |   |   |   |   |   |   |   |   elevation > 2169
|   |   |   |   |   |   |   |   |   |   |   |   |   horiz_dist_road <= 430: 6 (5.0)
|   |   |   |   |   |   |   |   |   |   |   |   |   horiz_dist_road > 430: 3 (9.0)
|   |   |   |   |   |   |   |   |   |   hillshade_3pm > 208
|   |   |   |   |   |   |   |   |   |   |   hillshade_3pm <= 219
|   |   |   |   |   |   |   |   |   |   |   |   horiz_dist_fire <= 582
|   |   |   |   |   |   |   |   |   |   |   |   |   elevation <= 2156: 3 (97.0)
|   |   |   |   |   |   |   |   |   |   |   |   |   elevation > 2156
|   |   |   |   |   |   |   |   |   |   |   |   |   |   horz_dist_hydro <= 90: 6 (2.0)
|   |   |   |   |   |   |   |   |   |   |   |   |   |   horz_dist_hydro > 90: 3 (5.0)
|   |   |   |   |   |   |   |   |   |   |   |   horiz_dist_fire > 582
|   |   |   |   |   |   |   |   |   |   |   |   |   horiz_dist_road <= 313: 3 (12.0)
|   |   |   |   |   |   |   |   |   |   |   |   |   horiz_dist_road > 313
|   |   |   |   |   |   |   |   |   |   |   |   |   |   soil_type = 1: 6 (0.0)
|   |   |   |   |   |   |   |   |   |   |   |   |   |   soil_type = 2: 6 (0.0)
|   |   |   |   |   |   |   |   |   |   |   |   |   |   soil_type = 3: 6 (0.0)
|   |   |   |   |   |   |   |   |   |   |   |   |   |   soil_type = 4: 6 (0.0)
|   |   |   |   |   |   |   |   |   |   |   |   |   |   soil_type = 5: 3 (4.0)
|   |   |   |   |   |   |   |   |   |   |   |   |   |   soil_type = 6: 6 (0.0)
|   |   |   |   |   |   |   |   |   |   |   |   |   |   soil_type = 7: 6 (0.0)
|   |   |   |   |   |   |   |   |   |   |   |   |   |   soil_type = 8: 6 (0.0)
|   |   |   |   |   |   |   |   |   |   |   |   |   |   soil_type = 9: 6 (0.0)
|   |   |   |   |   |   |   |   |   |   |   |   |   |   soil_type = 10: 6 (8.0/1.0)
|   |   |   |   |   |   |   |   |   |   |   |   |   |   soil_type = 11: 6 (0.0)
|   |   |   |   |   |   |   |   |   |   |   |   |   |   soil_type = 12: 6 (0.0)
|   |   |   |   |   |   |   |   |   |   |   |   |   |   soil_type = 13: 6 (0.0)
|   |   |   |   |   |   |   |   |   |   |   |   |   |   soil_type = 14: 6 (0.0)
|   |   |   |   |   |   |   |   |   |   |   |   |   |   soil_type = 15: 6 (0.0)
|   |   |   |   |   |   |   |   |   |   |   |   |   |   soil_type = 16: 6 (0.0)
|   |   |   |   |   |   |   |   |   |   |   |   |   |   soil_type = 17: 3 (1.0)
|   |   |   |   |   |   |   |   |   |   |   |   |   |   soil_type = 18: 6 (0.0)
|   |   |   |   |   |   |   |   |   |   |   |   |   |   soil_type = 19: 6 (0.0)
|   |   |   |   |   |   |   |   |   |   |   |   |   |   soil_type = 20: 6 (0.0)
|   |   |   |   |   |   |   |   |   |   |   |   |   |   soil_type = 21: 6 (0.0)
|   |   |   |   |   |   |   |   |   |   |   |   |   |   soil_type = 22: 6 (0.0)
|   |   |   |   |   |   |   |   |   |   |   |   |   |   soil_type = 23: 6 (0.0)
|   |   |   |   |   |   |   |   |   |   |   |   |   |   soil_type = 24: 6 (0.0)
|   |   |   |   |   |   |   |   |   |   |   |   |   |   soil_type = 25: 6 (0.0)
|   |   |   |   |   |   |   |   |   |   |   |   |   |   soil_type = 26: 6 (0.0)
|   |   |   |   |   |   |   |   |   |   |   |   |   |   soil_type = 27: 6 (0.0)
|   |   |   |   |   |   |   |   |   |   |   |   |   |   soil_type = 28: 6 (0.0)
|   |   |   |   |   |   |   |   |   |   |   |   |   |   soil_type = 29: 6 (0.0)
|   |   |   |   |   |   |   |   |   |   |   |   |   |   soil_type = 30: 6 (0.0)
|   |   |   |   |   |   |   |   |   |   |   |   |   |   soil_type = 31: 6 (0.0)
|   |   |   |   |   |   |   |   |   |   |   |   |   |   soil_type = 32: 6 (0.0)
|   |   |   |   |   |   |   |   |   |   |   |   |   |   soil_type = 33: 6 (0.0)
|   |   |   |   |   |   |   |   |   |   |   |   |   |   soil_type = 34: 6 (0.0)
|   |   |   |   |   |   |   |   |   |   |   |   |   |   soil_type = 35: 6 (0.0)
|   |   |   |   |   |   |   |   |   |   |   |   |   |   soil_type = 36: 6 (0.0)
|   |   |   |   |   |   |   |   |   |   |   |   |   |   soil_type = 37: 6 (0.0)
|   |   |   |   |   |   |   |   |   |   |   |   |   |   soil_type = 38: 6 (0.0)
|   |   |   |   |   |   |   |   |   |   |   |   |   |   soil_type = 39: 6 (0.0)
|   |   |   |   |   |   |   |   |   |   |   |   |   |   soil_type = 40: 6 (0.0)
|   |   |   |   |   |   |   |   |   |   |   hillshade_3pm > 219: 3 (232.0)
|   |   |   |   |   |   |   |   |   horiz_dist_fire > 685
|   |   |   |   |   |   |   |   |   |   hillshade_9am <= 226
|   |   |   |   |   |   |   |   |   |   |   elevation <= 2011
|   |   |   |   |   |   |   |   |   |   |   |   soil_type = 1: 6 (75.0)
|   |   |   |   |   |   |   |   |   |   |   |   soil_type = 2
|   |   |   |   |   |   |   |   |   |   |   |   |   horiz_dist_fire <= 819: 6 (21.0/1.0)
|   |   |   |   |   |   |   |   |   |   |   |   |   horiz_dist_fire > 819
|   |   |   |   |   |   |   |   |   |   |   |   |   |   elevation <= 1904: 3 (9.0)
|   |   |   |   |   |   |   |   |   |   |   |   |   |   elevation > 1904: 6 (2.0)
|   |   |   |   |   |   |   |   |   |   |   |   soil_type = 3: 3 (5.0/1.0)
|   |   |   |   |   |   |   |   |   |   |   |   soil_type = 4: 6 (0.0)
|   |   |   |   |   |   |   |   |   |   |   |   soil_type = 5: 6 (91.0)
|   |   |   |   |   |   |   |   |   |   |   |   soil_type = 6: 6 (0.0)
|   |   |   |   |   |   |   |   |   |   |   |   soil_type = 7: 6 (0.0)
|   |   |   |   |   |   |   |   |   |   |   |   soil_type = 8: 6 (0.0)
|   |   |   |   |   |   |   |   |   |   |   |   soil_type = 9: 6 (0.0)
|   |   |   |   |   |   |   |   |   |   |   |   soil_type = 10
|   |   |   |   |   |   |   |   |   |   |   |   |   slope <= 29: 6 (2.0)
|   |   |   |   |   |   |   |   |   |   |   |   |   slope > 29: 3 (5.0)
|   |   |   |   |   |   |   |   |   |   |   |   soil_type = 11: 6 (0.0)
|   |   |   |   |   |   |   |   |   |   |   |   soil_type = 12: 6 (0.0)
|   |   |   |   |   |   |   |   |   |   |   |   soil_type = 13: 6 (0.0)
|   |   |   |   |   |   |   |   |   |   |   |   soil_type = 14: 6 (0.0)
|   |   |   |   |   |   |   |   |   |   |   |   soil_type = 15: 6 (0.0)
|   |   |   |   |   |   |   |   |   |   |   |   soil_type = 16: 6 (0.0)
|   |   |   |   |   |   |   |   |   |   |   |   soil_type = 17: 3 (1.0)
|   |   |   |   |   |   |   |   |   |   |   |   soil_type = 18: 6 (0.0)
|   |   |   |   |   |   |   |   |   |   |   |   soil_type = 19: 6 (0.0)
|   |   |   |   |   |   |   |   |   |   |   |   soil_type = 20: 6 (0.0)
|   |   |   |   |   |   |   |   |   |   |   |   soil_type = 21: 6 (0.0)
|   |   |   |   |   |   |   |   |   |   |   |   soil_type = 22: 6 (0.0)
|   |   |   |   |   |   |   |   |   |   |   |   soil_type = 23: 6 (0.0)
|   |   |   |   |   |   |   |   |   |   |   |   soil_type = 24: 6 (0.0)
|   |   |   |   |   |   |   |   |   |   |   |   soil_type = 25: 6 (0.0)
|   |   |   |   |   |   |   |   |   |   |   |   soil_type = 26: 6 (0.0)
|   |   |   |   |   |   |   |   |   |   |   |   soil_type = 27: 6 (0.0)
|   |   |   |   |   |   |   |   |   |   |   |   soil_type = 28: 6 (0.0)
|   |   |   |   |   |   |   |   |   |   |   |   soil_type = 29: 6 (0.0)
|   |   |   |   |   |   |   |   |   |   |   |   soil_type = 30: 6 (0.0)
|   |   |   |   |   |   |   |   |   |   |   |   soil_type = 31: 6 (0.0)
|   |   |   |   |   |   |   |   |   |   |   |   soil_type = 32: 6 (0.0)
|   |   |   |   |   |   |   |   |   |   |   |   soil_type = 33: 6 (0.0)
|   |   |   |   |   |   |   |   |   |   |   |   soil_type = 34: 6 (0.0)
|   |   |   |   |   |   |   |   |   |   |   |   soil_type = 35: 6 (0.0)
|   |   |   |   |   |   |   |   |   |   |   |   soil_type = 36: 6 (0.0)
|   |   |   |   |   |   |   |   |   |   |   |   soil_type = 37: 6 (0.0)
|   |   |   |   |   |   |   |   |   |   |   |   soil_type = 38: 6 (0.0)
|   |   |   |   |   |   |   |   |   |   |   |   soil_type = 39: 6 (0.0)
|   |   |   |   |   |   |   |   |   |   |   |   soil_type = 40: 6 (0.0)
|   |   |   |   |   |   |   |   |   |   |   elevation > 2011
|   |   |   |   |   |   |   |   |   |   |   |   horiz_dist_road <= 384
|   |   |   |   |   |   |   |   |   |   |   |   |   vert_dist_hydro <= 43
|   |   |   |   |   |   |   |   |   |   |   |   |   |   elevation <= 2101: 3 (44.0/7.0)
|   |   |   |   |   |   |   |   |   |   |   |   |   |   elevation > 2101
|   |   |   |   |   |   |   |   |   |   |   |   |   |   |   hillshade_9am <= 128: 3 (2.0)
|   |   |   |   |   |   |   |   |   |   |   |   |   |   |   hillshade_9am > 128: 6 (25.0/1.0)
|   |   |   |   |   |   |   |   |   |   |   |   |   vert_dist_hydro > 43: 3 (91.0/1.0)
|   |   |   |   |   |   |   |   |   |   |   |   horiz_dist_road > 384
|   |   |   |   |   |   |   |   |   |   |   |   |   slope <= 20
|   |   |   |   |   |   |   |   |   |   |   |   |   |   elevation <= 2073: 6 (16.0)
|   |   |   |   |   |   |   |   |   |   |   |   |   |   elevation > 2073
|   |   |   |   |   |   |   |   |   |   |   |   |   |   |   horiz_dist_fire <= 973: 3 (41.0/3.0)
|   |   |   |   |   |   |   |   |   |   |   |   |   |   |   horiz_dist_fire > 973
|   |   |   |   |   |   |   |   |   |   |   |   |   |   |   |   horz_dist_hydro <= 192: 3 (2.0)
|   |   |   |   |   |   |   |   |   |   |   |   |   |   |   |   horz_dist_hydro > 192: 6 (4.0)
|   |   |   |   |   |   |   |   |   |   |   |   |   slope > 20
|   |   |   |   |   |   |   |   |   |   |   |   |   |   soil_type = 1
|   |   |   |   |   |   |   |   |   |   |   |   |   |   |   elevation <= 2137: 6 (48.0/1.0)
|   |   |   |   |   |   |   |   |   |   |   |   |   |   |   elevation > 2137
|   |   |   |   |   |   |   |   |   |   |   |   |   |   |   |   horiz_dist_fire <= 990: 3 (12.0/1.0)
|   |   |   |   |   |   |   |   |   |   |   |   |   |   |   |   horiz_dist_fire > 990: 6 (3.0)
|   |   |   |   |   |   |   |   |   |   |   |   |   |   soil_type = 2: 3 (6.0/1.0)
|   |   |   |   |   |   |   |   |   |   |   |   |   |   soil_type = 3: 6 (0.0)
|   |   |   |   |   |   |   |   |   |   |   |   |   |   soil_type = 4: 6 (0.0)
|   |   |   |   |   |   |   |   |   |   |   |   |   |   soil_type = 5: 6 (29.0)
|   |   |   |   |   |   |   |   |   |   |   |   |   |   soil_type = 6: 3 (8.0)
|   |   |   |   |   |   |   |   |   |   |   |   |   |   soil_type = 7: 6 (0.0)
|   |   |   |   |   |   |   |   |   |   |   |   |   |   soil_type = 8: 6 (0.0)
|   |   |   |   |   |   |   |   |   |   |   |   |   |   soil_type = 9: 6 (0.0)
|   |   |   |   |   |   |   |   |   |   |   |   |   |   soil_type = 10
|   |   |   |   |   |   |   |   |   |   |   |   |   |   |   horz_dist_hydro <= 342
|   |   |   |   |   |   |   |   |   |   |   |   |   |   |   |   horiz_dist_fire <= 696
|   |   |   |   |   |   |   |   |   |   |   |   |   |   |   |   |   aspect <= 34: 3 (4.0)
|   |   |   |   |   |   |   |   |   |   |   |   |   |   |   |   |   aspect > 34
|   |   |   |   |   |   |   |   |   |   |   |   |   |   |   |   |   |   hillshade_noon <= 199: 6 (7.0/1.0)
|   |   |   |   |   |   |   |   |   |   |   |   |   |   |   |   |   |   hillshade_noon > 199: 3 (3.0)
|   |   |   |   |   |   |   |   |   |   |   |   |   |   |   |   horiz_dist_fire > 696: 6 (99.0/6.0)
|   |   |   |   |   |   |   |   |   |   |   |   |   |   |   horz_dist_hydro > 342: 3 (6.0/1.0)
|   |   |   |   |   |   |   |   |   |   |   |   |   |   soil_type = 11: 6 (0.0)
|   |   |   |   |   |   |   |   |   |   |   |   |   |   soil_type = 12: 6 (0.0)
|   |   |   |   |   |   |   |   |   |   |   |   |   |   soil_type = 13: 6 (0.0)
|   |   |   |   |   |   |   |   |   |   |   |   |   |   soil_type = 14: 6 (1.0)
|   |   |   |   |   |   |   |   |   |   |   |   |   |   soil_type = 15: 6 (0.0)
|   |   |   |   |   |   |   |   |   |   |   |   |   |   soil_type = 16: 3 (2.0)
|   |   |   |   |   |   |   |   |   |   |   |   |   |   soil_type = 17: 6 (0.0)
|   |   |   |   |   |   |   |   |   |   |   |   |   |   soil_type = 18: 6 (0.0)
|   |   |   |   |   |   |   |   |   |   |   |   |   |   soil_type = 19: 6 (0.0)
|   |   |   |   |   |   |   |   |   |   |   |   |   |   soil_type = 20: 6 (0.0)
|   |   |   |   |   |   |   |   |   |   |   |   |   |   soil_type = 21: 6 (0.0)
|   |   |   |   |   |   |   |   |   |   |   |   |   |   soil_type = 22: 6 (0.0)
|   |   |   |   |   |   |   |   |   |   |   |   |   |   soil_type = 23: 6 (0.0)
|   |   |   |   |   |   |   |   |   |   |   |   |   |   soil_type = 24: 6 (0.0)
|   |   |   |   |   |   |   |   |   |   |   |   |   |   soil_type = 25: 6 (0.0)
|   |   |   |   |   |   |   |   |   |   |   |   |   |   soil_type = 26: 6 (0.0)
|   |   |   |   |   |   |   |   |   |   |   |   |   |   soil_type = 27: 6 (0.0)
|   |   |   |   |   |   |   |   |   |   |   |   |   |   soil_type = 28: 6 (0.0)
|   |   |   |   |   |   |   |   |   |   |   |   |   |   soil_type = 29: 6 (0.0)
|   |   |   |   |   |   |   |   |   |   |   |   |   |   soil_type = 30: 6 (0.0)
|   |   |   |   |   |   |   |   |   |   |   |   |   |   soil_type = 31: 6 (0.0)
|   |   |   |   |   |   |   |   |   |   |   |   |   |   soil_type = 32: 6 (0.0)
|   |   |   |   |   |   |   |   |   |   |   |   |   |   soil_type = 33: 6 (0.0)
|   |   |   |   |   |   |   |   |   |   |   |   |   |   soil_type = 34: 6 (0.0)
|   |   |   |   |   |   |   |   |   |   |   |   |   |   soil_type = 35: 6 (0.0)
|   |   |   |   |   |   |   |   |   |   |   |   |   |   soil_type = 36: 6 (0.0)
|   |   |   |   |   |   |   |   |   |   |   |   |   |   soil_type = 37: 6 (0.0)
|   |   |   |   |   |   |   |   |   |   |   |   |   |   soil_type = 38: 6 (0.0)
|   |   |   |   |   |   |   |   |   |   |   |   |   |   soil_type = 39: 6 (0.0)
|   |   |   |   |   |   |   |   |   |   |   |   |   |   soil_type = 40: 6 (0.0)
|   |   |   |   |   |   |   |   |   |   hillshade_9am > 226
|   |   |   |   |   |   |   |   |   |   |   soil_type = 1
|   |   |   |   |   |   |   |   |   |   |   |   horiz_dist_fire <= 940: 3 (12.0)
|   |   |   |   |   |   |   |   |   |   |   |   horiz_dist_fire > 940: 6 (4.0/1.0)
|   |   |   |   |   |   |   |   |   |   |   soil_type = 2: 3 (14.0)
|   |   |   |   |   |   |   |   |   |   |   soil_type = 3: 3 (28.0)
|   |   |   |   |   |   |   |   |   |   |   soil_type = 4: 3 (0.0)
|   |   |   |   |   |   |   |   |   |   |   soil_type = 5: 6 (1.0)
|   |   |   |   |   |   |   |   |   |   |   soil_type = 6: 3 (7.0)
|   |   |   |   |   |   |   |   |   |   |   soil_type = 7: 3 (0.0)
|   |   |   |   |   |   |   |   |   |   |   soil_type = 8: 3 (0.0)
|   |   |   |   |   |   |   |   |   |   |   soil_type = 9: 3 (0.0)
|   |   |   |   |   |   |   |   |   |   |   soil_type = 10: 6 (4.0)
|   |   |   |   |   |   |   |   |   |   |   soil_type = 11: 3 (0.0)
|   |   |   |   |   |   |   |   |   |   |   soil_type = 12: 3 (0.0)
|   |   |   |   |   |   |   |   |   |   |   soil_type = 13: 3 (0.0)
|   |   |   |   |   |   |   |   |   |   |   soil_type = 14: 3 (0.0)
|   |   |   |   |   |   |   |   |   |   |   soil_type = 15: 3 (0.0)
|   |   |   |   |   |   |   |   |   |   |   soil_type = 16: 3 (0.0)
|   |   |   |   |   |   |   |   |   |   |   soil_type = 17: 3 (0.0)
|   |   |   |   |   |   |   |   |   |   |   soil_type = 18: 3 (0.0)
|   |   |   |   |   |   |   |   |   |   |   soil_type = 19: 3 (0.0)
|   |   |   |   |   |   |   |   |   |   |   soil_type = 20: 3 (0.0)
|   |   |   |   |   |   |   |   |   |   |   soil_type = 21: 3 (0.0)
|   |   |   |   |   |   |   |   |   |   |   soil_type = 22: 3 (0.0)
|   |   |   |   |   |   |   |   |   |   |   soil_type = 23: 3 (0.0)
|   |   |   |   |   |   |   |   |   |   |   soil_type = 24: 3 (0.0)
|   |   |   |   |   |   |   |   |   |   |   soil_type = 25: 3 (0.0)
|   |   |   |   |   |   |   |   |   |   |   soil_type = 26: 3 (0.0)
|   |   |   |   |   |   |   |   |   |   |   soil_type = 27: 3 (0.0)
|   |   |   |   |   |   |   |   |   |   |   soil_type = 28: 3 (0.0)
|   |   |   |   |   |   |   |   |   |   |   soil_type = 29: 3 (0.0)
|   |   |   |   |   |   |   |   |   |   |   soil_type = 30: 3 (0.0)
|   |   |   |   |   |   |   |   |   |   |   soil_type = 31: 3 (0.0)
|   |   |   |   |   |   |   |   |   |   |   soil_type = 32: 3 (0.0)
|   |   |   |   |   |   |   |   |   |   |   soil_type = 33: 3 (0.0)
|   |   |   |   |   |   |   |   |   |   |   soil_type = 34: 3 (0.0)
|   |   |   |   |   |   |   |   |   |   |   soil_type = 35: 3 (0.0)
|   |   |   |   |   |   |   |   |   |   |   soil_type = 36: 3 (0.0)
|   |   |   |   |   |   |   |   |   |   |   soil_type = 37: 3 (0.0)
|   |   |   |   |   |   |   |   |   |   |   soil_type = 38: 3 (0.0)
|   |   |   |   |   |   |   |   |   |   |   soil_type = 39: 3 (0.0)
|   |   |   |   |   |   |   |   |   |   |   soil_type = 40: 3 (0.0)
|   |   |   |   |   |   |   |   elevation > 2185
|   |   |   |   |   |   |   |   |   aspect <= 63
|   |   |   |   |   |   |   |   |   |   horiz_dist_fire <= 313
|   |   |   |   |   |   |   |   |   |   |   aspect <= 1: 2 (2.0/1.0)
|   |   |   |   |   |   |   |   |   |   |   aspect > 1: 6 (56.0/2.0)
|   |   |   |   |   |   |   |   |   |   horiz_dist_fire > 313
|   |   |   |   |   |   |   |   |   |   |   soil_type = 1
|   |   |   |   |   |   |   |   |   |   |   |   horiz_dist_fire <= 624: 3 (6.0)
|   |   |   |   |   |   |   |   |   |   |   |   horiz_dist_fire > 624: 6 (8.0)
|   |   |   |   |   |   |   |   |   |   |   soil_type = 2
|   |   |   |   |   |   |   |   |   |   |   |   vert_dist_hydro <= 47: 3 (32.0)
|   |   |   |   |   |   |   |   |   |   |   |   vert_dist_hydro > 47
|   |   |   |   |   |   |   |   |   |   |   |   |   vert_dist_hydro <= 128
|   |   |   |   |   |   |   |   |   |   |   |   |   |   wilderness_area = 1: 2 (0.0)
|   |   |   |   |   |   |   |   |   |   |   |   |   |   wilderness_area = 2: 2 (0.0)
|   |   |   |   |   |   |   |   |   |   |   |   |   |   wilderness_area = 3: 3 (3.0)
|   |   |   |   |   |   |   |   |   |   |   |   |   |   wilderness_area = 4
|   |   |   |   |   |   |   |   |   |   |   |   |   |   |   elevation <= 2293: 3 (3.0/1.0)
|   |   |   |   |   |   |   |   |   |   |   |   |   |   |   elevation > 2293: 2 (16.0)
|   |   |   |   |   |   |   |   |   |   |   |   |   vert_dist_hydro > 128: 3 (8.0)
|   |   |   |   |   |   |   |   |   |   |   soil_type = 3
|   |   |   |   |   |   |   |   |   |   |   |   wilderness_area = 1: 6 (0.0)
|   |   |   |   |   |   |   |   |   |   |   |   wilderness_area = 2: 6 (0.0)
|   |   |   |   |   |   |   |   |   |   |   |   wilderness_area = 3
|   |   |   |   |   |   |   |   |   |   |   |   |   horiz_dist_road <= 285: 3 (4.0)
|   |   |   |   |   |   |   |   |   |   |   |   |   horiz_dist_road > 285: 6 (2.0)
|   |   |   |   |   |   |   |   |   |   |   |   wilderness_area = 4
|   |   |   |   |   |   |   |   |   |   |   |   |   slope <= 9: 3 (3.0)
|   |   |   |   |   |   |   |   |   |   |   |   |   slope > 9: 6 (13.0)
|   |   |   |   |   |   |   |   |   |   |   soil_type = 4: 3 (52.0/1.0)
|   |   |   |   |   |   |   |   |   |   |   soil_type = 5: 3 (2.0)
|   |   |   |   |   |   |   |   |   |   |   soil_type = 6
|   |   |   |   |   |   |   |   |   |   |   |   vert_dist_hydro <= 59: 3 (18.0)
|   |   |   |   |   |   |   |   |   |   |   |   vert_dist_hydro > 59
|   |   |   |   |   |   |   |   |   |   |   |   |   horz_dist_hydro <= 201: 6 (11.0)
|   |   |   |   |   |   |   |   |   |   |   |   |   horz_dist_hydro > 201
|   |   |   |   |   |   |   |   |   |   |   |   |   |   horz_dist_hydro <= 516: 3 (13.0)
|   |   |   |   |   |   |   |   |   |   |   |   |   |   horz_dist_hydro > 516
|   |   |   |   |   |   |   |   |   |   |   |   |   |   |   horiz_dist_fire <= 1099: 6 (3.0)
|   |   |   |   |   |   |   |   |   |   |   |   |   |   |   horiz_dist_fire > 1099: 3 (3.0/1.0)
|   |   |   |   |   |   |   |   |   |   |   soil_type = 7: 3 (0.0)
|   |   |   |   |   |   |   |   |   |   |   soil_type = 8: 3 (0.0)
|   |   |   |   |   |   |   |   |   |   |   soil_type = 9: 3 (0.0)
|   |   |   |   |   |   |   |   |   |   |   soil_type = 10
|   |   |   |   |   |   |   |   |   |   |   |   horz_dist_hydro <= 268
|   |   |   |   |   |   |   |   |   |   |   |   |   slope <= 27
|   |   |   |   |   |   |   |   |   |   |   |   |   |   wilderness_area = 1: 6 (0.0)
|   |   |   |   |   |   |   |   |   |   |   |   |   |   wilderness_area = 2: 6 (0.0)
|   |   |   |   |   |   |   |   |   |   |   |   |   |   wilderness_area = 3
|   |   |   |   |   |   |   |   |   |   |   |   |   |   |   aspect <= 33: 6 (18.0)
|   |   |   |   |   |   |   |   |   |   |   |   |   |   |   aspect > 33
|   |   |   |   |   |   |   |   |   |   |   |   |   |   |   |   horiz_dist_road <= 582
|   |   |   |   |   |   |   |   |   |   |   |   |   |   |   |   |   horiz_dist_fire <= 677
|   |   |   |   |   |   |   |   |   |   |   |   |   |   |   |   |   |   horiz_dist_fire <= 525: 6 (3.0)
|   |   |   |   |   |   |   |   |   |   |   |   |   |   |   |   |   |   horiz_dist_fire > 525: 2 (25.0)
|   |   |   |   |   |   |   |   |   |   |   |   |   |   |   |   |   horiz_dist_fire > 677: 3 (6.0/1.0)
|   |   |   |   |   |   |   |   |   |   |   |   |   |   |   |   horiz_dist_road > 582: 6 (6.0)
|   |   |   |   |   |   |   |   |   |   |   |   |   |   wilderness_area = 4
|   |   |   |   |   |   |   |   |   |   |   |   |   |   |   horiz_dist_road <= 351
|   |   |   |   |   |   |   |   |   |   |   |   |   |   |   |   hillshade_9am <= 203
|   |   |   |   |   |   |   |   |   |   |   |   |   |   |   |   |   horiz_dist_fire <= 418: 3 (3.0)
|   |   |   |   |   |   |   |   |   |   |   |   |   |   |   |   |   horiz_dist_fire > 418: 2 (26.0)
|   |   |   |   |   |   |   |   |   |   |   |   |   |   |   |   hillshade_9am > 203
|   |   |   |   |   |   |   |   |   |   |   |   |   |   |   |   |   horiz_dist_fire <= 899
|   |   |   |   |   |   |   |   |   |   |   |   |   |   |   |   |   |   hillshade_9am <= 211: 3 (2.0)
|   |   |   |   |   |   |   |   |   |   |   |   |   |   |   |   |   |   hillshade_9am > 211: 2 (3.0/1.0)
|   |   |   |   |   |   |   |   |   |   |   |   |   |   |   |   |   horiz_dist_fire > 899: 6 (29.0)
|   |   |   |   |   |   |   |   |   |   |   |   |   |   |   horiz_dist_road > 351
|   |   |   |   |   |   |   |   |   |   |   |   |   |   |   |   hillshade_noon <= 203
|   |   |   |   |   |   |   |   |   |   |   |   |   |   |   |   |   horiz_dist_fire <= 1052
|   |   |   |   |   |   |   |   |   |   |   |   |   |   |   |   |   |   horz_dist_hydro <= 247
|   |   |   |   |   |   |   |   |   |   |   |   |   |   |   |   |   |   |   hillshade_3pm <= 104
|   |   |   |   |   |   |   |   |   |   |   |   |   |   |   |   |   |   |   |   horiz_dist_road <= 537: 6 (22.0/1.0)
|   |   |   |   |   |   |   |   |   |   |   |   |   |   |   |   |   |   |   |   horiz_dist_road > 537
|   |   |   |   |   |   |   |   |   |   |   |   |   |   |   |   |   |   |   |   |   horiz_dist_fire <= 765: 3 (9.0)
|   |   |   |   |   |   |   |   |   |   |   |   |   |   |   |   |   |   |   |   |   horiz_dist_fire > 765: 6 (4.0)
|   |   |   |   |   |   |   |   |   |   |   |   |   |   |   |   |   |   |   hillshade_3pm > 104
|   |   |   |   |   |   |   |   |   |   |   |   |   |   |   |   |   |   |   |   elevation <= 2411: 3 (38.0/1.0)
|   |   |   |   |   |   |   |   |   |   |   |   |   |   |   |   |   |   |   |   elevation > 2411: 6 (3.0)
|   |   |   |   |   |   |   |   |   |   |   |   |   |   |   |   |   |   horz_dist_hydro > 247
|   |   |   |   |   |   |   |   |   |   |   |   |   |   |   |   |   |   |   vert_dist_hydro <= 69: 3 (2.0/1.0)
|   |   |   |   |   |   |   |   |   |   |   |   |   |   |   |   |   |   |   vert_dist_hydro > 69: 2 (3.0)
|   |   |   |   |   |   |   |   |   |   |   |   |   |   |   |   |   horiz_dist_fire > 1052
|   |   |   |   |   |   |   |   |   |   |   |   |   |   |   |   |   |   horz_dist_hydro <= 120
|   |   |   |   |   |   |   |   |   |   |   |   |   |   |   |   |   |   |   horiz_dist_road <= 607: 2 (10.0)
|   |   |   |   |   |   |   |   |   |   |   |   |   |   |   |   |   |   |   horiz_dist_road > 607: 6 (3.0/1.0)
|   |   |   |   |   |   |   |   |   |   |   |   |   |   |   |   |   |   horz_dist_hydro > 120
|   |   |   |   |   |   |   |   |   |   |   |   |   |   |   |   |   |   |   elevation <= 2388: 6 (9.0)
|   |   |   |   |   |   |   |   |   |   |   |   |   |   |   |   |   |   |   elevation > 2388
|   |   |   |   |   |   |   |   |   |   |   |   |   |   |   |   |   |   |   |   aspect <= 19: 6 (2.0)
|   |   |   |   |   |   |   |   |   |   |   |   |   |   |   |   |   |   |   |   aspect > 19: 3 (6.0)
|   |   |   |   |   |   |   |   |   |   |   |   |   |   |   |   hillshade_noon > 203: 3 (29.0/1.0)
|   |   |   |   |   |   |   |   |   |   |   |   |   slope > 27
|   |   |   |   |   |   |   |   |   |   |   |   |   |   horiz_dist_fire <= 1126
|   |   |   |   |   |   |   |   |   |   |   |   |   |   |   horiz_dist_road <= 379
|   |   |   |   |   |   |   |   |   |   |   |   |   |   |   |   elevation <= 2227: 3 (3.0/1.0)
|   |   |   |   |   |   |   |   |   |   |   |   |   |   |   |   elevation > 2227: 2 (9.0/1.0)
|   |   |   |   |   |   |   |   |   |   |   |   |   |   |   horiz_dist_road > 379
|   |   |   |   |   |   |   |   |   |   |   |   |   |   |   |   hillshade_9am <= 147: 3 (3.0)
|   |   |   |   |   |   |   |   |   |   |   |   |   |   |   |   hillshade_9am > 147
|   |   |   |   |   |   |   |   |   |   |   |   |   |   |   |   |   aspect <= 53: 6 (124.0/2.0)
|   |   |   |   |   |   |   |   |   |   |   |   |   |   |   |   |   aspect > 53
|   |   |   |   |   |   |   |   |   |   |   |   |   |   |   |   |   |   wilderness_area = 1: 6 (0.0)
|   |   |   |   |   |   |   |   |   |   |   |   |   |   |   |   |   |   wilderness_area = 2: 6 (0.0)
|   |   |   |   |   |   |   |   |   |   |   |   |   |   |   |   |   |   wilderness_area = 3: 2 (2.0/1.0)
|   |   |   |   |   |   |   |   |   |   |   |   |   |   |   |   |   |   wilderness_area = 4
|   |   |   |   |   |   |   |   |   |   |   |   |   |   |   |   |   |   |   horiz_dist_fire <= 815: 3 (3.0)
|   |   |   |   |   |   |   |   |   |   |   |   |   |   |   |   |   |   |   horiz_dist_fire > 815: 6 (3.0)
|   |   |   |   |   |   |   |   |   |   |   |   |   |   horiz_dist_fire > 1126
|   |   |   |   |   |   |   |   |   |   |   |   |   |   |   slope <= 29: 3 (3.0/1.0)
|   |   |   |   |   |   |   |   |   |   |   |   |   |   |   slope > 29: 2 (8.0)
|   |   |   |   |   |   |   |   |   |   |   |   horz_dist_hydro > 268
|   |   |   |   |   |   |   |   |   |   |   |   |   horiz_dist_fire <= 1129
|   |   |   |   |   |   |   |   |   |   |   |   |   |   slope <= 29
|   |   |   |   |   |   |   |   |   |   |   |   |   |   |   wilderness_area = 1: 2 (0.0)
|   |   |   |   |   |   |   |   |   |   |   |   |   |   |   wilderness_area = 2: 2 (0.0)
|   |   |   |   |   |   |   |   |   |   |   |   |   |   |   wilderness_area = 3: 3 (3.0)
|   |   |   |   |   |   |   |   |   |   |   |   |   |   |   wilderness_area = 4
|   |   |   |   |   |   |   |   |   |   |   |   |   |   |   |   elevation <= 2252: 3 (3.0)
|   |   |   |   |   |   |   |   |   |   |   |   |   |   |   |   elevation > 2252: 2 (19.0/1.0)
|   |   |   |   |   |   |   |   |   |   |   |   |   |   slope > 29: 3 (29.0)
|   |   |   |   |   |   |   |   |   |   |   |   |   horiz_dist_fire > 1129
|   |   |   |   |   |   |   |   |   |   |   |   |   |   elevation <= 2353: 3 (3.0)
|   |   |   |   |   |   |   |   |   |   |   |   |   |   elevation > 2353: 6 (11.0)
|   |   |   |   |   |   |   |   |   |   |   soil_type = 11
|   |   |   |   |   |   |   |   |   |   |   |   elevation <= 2367: 3 (7.0)
|   |   |   |   |   |   |   |   |   |   |   |   elevation > 2367: 6 (6.0/1.0)
|   |   |   |   |   |   |   |   |   |   |   soil_type = 12: 3 (0.0)
|   |   |   |   |   |   |   |   |   |   |   soil_type = 13: 3 (0.0)
|   |   |   |   |   |   |   |   |   |   |   soil_type = 14
|   |   |   |   |   |   |   |   |   |   |   |   elevation <= 2368: 6 (5.0)
|   |   |   |   |   |   |   |   |   |   |   |   elevation > 2368: 3 (2.0)
|   |   |   |   |   |   |   |   |   |   |   soil_type = 15: 3 (0.0)
|   |   |   |   |   |   |   |   |   |   |   soil_type = 16: 2 (2.0/1.0)
|   |   |   |   |   |   |   |   |   |   |   soil_type = 17: 3 (4.0)
|   |   |   |   |   |   |   |   |   |   |   soil_type = 18: 3 (0.0)
|   |   |   |   |   |   |   |   |   |   |   soil_type = 19: 3 (0.0)
|   |   |   |   |   |   |   |   |   |   |   soil_type = 20: 3 (0.0)
|   |   |   |   |   |   |   |   |   |   |   soil_type = 21: 3 (0.0)
|   |   |   |   |   |   |   |   |   |   |   soil_type = 22: 3 (0.0)
|   |   |   |   |   |   |   |   |   |   |   soil_type = 23: 3 (0.0)
|   |   |   |   |   |   |   |   |   |   |   soil_type = 24: 3 (0.0)
|   |   |   |   |   |   |   |   |   |   |   soil_type = 25: 3 (0.0)
|   |   |   |   |   |   |   |   |   |   |   soil_type = 26: 3 (0.0)
|   |   |   |   |   |   |   |   |   |   |   soil_type = 27: 3 (0.0)
|   |   |   |   |   |   |   |   |   |   |   soil_type = 28: 3 (0.0)
|   |   |   |   |   |   |   |   |   |   |   soil_type = 29: 3 (0.0)
|   |   |   |   |   |   |   |   |   |   |   soil_type = 30: 3 (0.0)
|   |   |   |   |   |   |   |   |   |   |   soil_type = 31: 3 (0.0)
|   |   |   |   |   |   |   |   |   |   |   soil_type = 32: 3 (0.0)
|   |   |   |   |   |   |   |   |   |   |   soil_type = 33: 3 (0.0)
|   |   |   |   |   |   |   |   |   |   |   soil_type = 34: 3 (0.0)
|   |   |   |   |   |   |   |   |   |   |   soil_type = 35: 3 (0.0)
|   |   |   |   |   |   |   |   |   |   |   soil_type = 36: 3 (0.0)
|   |   |   |   |   |   |   |   |   |   |   soil_type = 37: 3 (0.0)
|   |   |   |   |   |   |   |   |   |   |   soil_type = 38: 3 (0.0)
|   |   |   |   |   |   |   |   |   |   |   soil_type = 39: 3 (0.0)
|   |   |   |   |   |   |   |   |   |   |   soil_type = 40: 3 (0.0)
|   |   |   |   |   |   |   |   |   aspect > 63
|   |   |   |   |   |   |   |   |   |   horiz_dist_fire <= 242
|   |   |   |   |   |   |   |   |   |   |   wilderness_area = 1: 6 (0.0)
|   |   |   |   |   |   |   |   |   |   |   wilderness_area = 2: 6 (0.0)
|   |   |   |   |   |   |   |   |   |   |   wilderness_area = 3: 6 (59.0)
|   |   |   |   |   |   |   |   |   |   |   wilderness_area = 4
|   |   |   |   |   |   |   |   |   |   |   |   horiz_dist_road <= 395: 3 (57.0)
|   |   |   |   |   |   |   |   |   |   |   |   horiz_dist_road > 395
|   |   |   |   |   |   |   |   |   |   |   |   |   horiz_dist_fire <= 212: 6 (12.0)
|   |   |   |   |   |   |   |   |   |   |   |   |   horiz_dist_fire > 212: 3 (4.0)
|   |   |   |   |   |   |   |   |   |   horiz_dist_fire > 242
|   |   |   |   |   |   |   |   |   |   |   aspect <= 281
|   |   |   |   |   |   |   |   |   |   |   |   wilderness_area = 1: 3 (0.0)
|   |   |   |   |   |   |   |   |   |   |   |   wilderness_area = 2: 3 (0.0)
|   |   |   |   |   |   |   |   |   |   |   |   wilderness_area = 3
|   |   |   |   |   |   |   |   |   |   |   |   |   horiz_dist_fire <= 666
|   |   |   |   |   |   |   |   |   |   |   |   |   |   aspect <= 102
|   |   |   |   |   |   |   |   |   |   |   |   |   |   |   soil_type = 1: 2 (0.0)
|   |   |   |   |   |   |   |   |   |   |   |   |   |   |   soil_type = 2: 3 (1.0)
|   |   |   |   |   |   |   |   |   |   |   |   |   |   |   soil_type = 3: 6 (4.0)
|   |   |   |   |   |   |   |   |   |   |   |   |   |   |   soil_type = 4: 2 (0.0)
|   |   |   |   |   |   |   |   |   |   |   |   |   |   |   soil_type = 5: 2 (0.0)
|   |   |   |   |   |   |   |   |   |   |   |   |   |   |   soil_type = 6: 2 (0.0)
|   |   |   |   |   |   |   |   |   |   |   |   |   |   |   soil_type = 7: 2 (0.0)
|   |   |   |   |   |   |   |   |   |   |   |   |   |   |   soil_type = 8: 2 (0.0)
|   |   |   |   |   |   |   |   |   |   |   |   |   |   |   soil_type = 9: 2 (0.0)
|   |   |   |   |   |   |   |   |   |   |   |   |   |   |   soil_type = 10: 2 (16.0)
|   |   |   |   |   |   |   |   |   |   |   |   |   |   |   soil_type = 11: 2 (0.0)
|   |   |   |   |   |   |   |   |   |   |   |   |   |   |   soil_type = 12: 2 (0.0)
|   |   |   |   |   |   |   |   |   |   |   |   |   |   |   soil_type = 13: 2 (0.0)
|   |   |   |   |   |   |   |   |   |   |   |   |   |   |   soil_type = 14: 6 (1.0)
|   |   |   |   |   |   |   |   |   |   |   |   |   |   |   soil_type = 15: 2 (0.0)
|   |   |   |   |   |   |   |   |   |   |   |   |   |   |   soil_type = 16: 2 (0.0)
|   |   |   |   |   |   |   |   |   |   |   |   |   |   |   soil_type = 17: 2 (0.0)
|   |   |   |   |   |   |   |   |   |   |   |   |   |   |   soil_type = 18: 2 (0.0)
|   |   |   |   |   |   |   |   |   |   |   |   |   |   |   soil_type = 19: 2 (0.0)
|   |   |   |   |   |   |   |   |   |   |   |   |   |   |   soil_type = 20: 2 (0.0)
|   |   |   |   |   |   |   |   |   |   |   |   |   |   |   soil_type = 21: 2 (0.0)
|   |   |   |   |   |   |   |   |   |   |   |   |   |   |   soil_type = 22: 2 (0.0)
|   |   |   |   |   |   |   |   |   |   |   |   |   |   |   soil_type = 23: 2 (0.0)
|   |   |   |   |   |   |   |   |   |   |   |   |   |   |   soil_type = 24: 2 (0.0)
|   |   |   |   |   |   |   |   |   |   |   |   |   |   |   soil_type = 25: 2 (0.0)
|   |   |   |   |   |   |   |   |   |   |   |   |   |   |   soil_type = 26: 2 (0.0)
|   |   |   |   |   |   |   |   |   |   |   |   |   |   |   soil_type = 27: 2 (0.0)
|   |   |   |   |   |   |   |   |   |   |   |   |   |   |   soil_type = 28: 2 (0.0)
|   |   |   |   |   |   |   |   |   |   |   |   |   |   |   soil_type = 29: 2 (0.0)
|   |   |   |   |   |   |   |   |   |   |   |   |   |   |   soil_type = 30: 2 (0.0)
|   |   |   |   |   |   |   |   |   |   |   |   |   |   |   soil_type = 31: 2 (0.0)
|   |   |   |   |   |   |   |   |   |   |   |   |   |   |   soil_type = 32: 2 (0.0)
|   |   |   |   |   |   |   |   |   |   |   |   |   |   |   soil_type = 33: 2 (0.0)
|   |   |   |   |   |   |   |   |   |   |   |   |   |   |   soil_type = 34: 2 (0.0)
|   |   |   |   |   |   |   |   |   |   |   |   |   |   |   soil_type = 35: 2 (0.0)
|   |   |   |   |   |   |   |   |   |   |   |   |   |   |   soil_type = 36: 2 (0.0)
|   |   |   |   |   |   |   |   |   |   |   |   |   |   |   soil_type = 37: 2 (0.0)
|   |   |   |   |   |   |   |   |   |   |   |   |   |   |   soil_type = 38: 2 (0.0)
|   |   |   |   |   |   |   |   |   |   |   |   |   |   |   soil_type = 39: 2 (0.0)
|   |   |   |   |   |   |   |   |   |   |   |   |   |   |   soil_type = 40: 2 (0.0)
|   |   |   |   |   |   |   |   |   |   |   |   |   |   aspect > 102
|   |   |   |   |   |   |   |   |   |   |   |   |   |   |   slope <= 21
|   |   |   |   |   |   |   |   |   |   |   |   |   |   |   |   elevation <= 2341
|   |   |   |   |   |   |   |   |   |   |   |   |   |   |   |   |   aspect <= 169: 3 (2.0)
|   |   |   |   |   |   |   |   |   |   |   |   |   |   |   |   |   aspect > 169: 2 (2.0/1.0)
|   |   |   |   |   |   |   |   |   |   |   |   |   |   |   |   elevation > 2341: 6 (36.0/1.0)
|   |   |   |   |   |   |   |   |   |   |   |   |   |   |   slope > 21: 3 (6.0/1.0)
|   |   |   |   |   |   |   |   |   |   |   |   |   horiz_dist_fire > 666
|   |   |   |   |   |   |   |   |   |   |   |   |   |   horiz_dist_fire <= 1025: 3 (146.0/6.0)
|   |   |   |   |   |   |   |   |   |   |   |   |   |   horiz_dist_fire > 1025
|   |   |   |   |   |   |   |   |   |   |   |   |   |   |   horz_dist_hydro <= 134
|   |   |   |   |   |   |   |   |   |   |   |   |   |   |   |   elevation <= 2411: 6 (10.0)
|   |   |   |   |   |   |   |   |   |   |   |   |   |   |   |   elevation > 2411: 3 (4.0/1.0)
|   |   |   |   |   |   |   |   |   |   |   |   |   |   |   horz_dist_hydro > 134: 3 (7.0)
|   |   |   |   |   |   |   |   |   |   |   |   wilderness_area = 4
|   |   |   |   |   |   |   |   |   |   |   |   |   horiz_dist_fire <= 934
|   |   |   |   |   |   |   |   |   |   |   |   |   |   hillshade_noon <= 201
|   |   |   |   |   |   |   |   |   |   |   |   |   |   |   horz_dist_hydro <= 127
|   |   |   |   |   |   |   |   |   |   |   |   |   |   |   |   vert_dist_hydro <= 5: 3 (3.0)
|   |   |   |   |   |   |   |   |   |   |   |   |   |   |   |   vert_dist_hydro > 5: 6 (12.0/1.0)
|   |   |   |   |   |   |   |   |   |   |   |   |   |   |   horz_dist_hydro > 127: 3 (29.0/3.0)
|   |   |   |   |   |   |   |   |   |   |   |   |   |   hillshade_noon > 201
|   |   |   |   |   |   |   |   |   |   |   |   |   |   |   elevation <= 2390: 3 (382.0/13.0)
|   |   |   |   |   |   |   |   |   |   |   |   |   |   |   elevation > 2390
|   |   |   |   |   |   |   |   |   |   |   |   |   |   |   |   horz_dist_hydro <= 108
|   |   |   |   |   |   |   |   |   |   |   |   |   |   |   |   |   horiz_dist_road <= 424: 3 (3.0)
|   |   |   |   |   |   |   |   |   |   |   |   |   |   |   |   |   horiz_dist_road > 424: 6 (9.0)
|   |   |   |   |   |   |   |   |   |   |   |   |   |   |   |   horz_dist_hydro > 108: 3 (57.0/1.0)
|   |   |   |   |   |   |   |   |   |   |   |   |   horiz_dist_fire > 934
|   |   |   |   |   |   |   |   |   |   |   |   |   |   hillshade_noon <= 224: 6 (34.0/5.0)
|   |   |   |   |   |   |   |   |   |   |   |   |   |   hillshade_noon > 224
|   |   |   |   |   |   |   |   |   |   |   |   |   |   |   horiz_dist_fire <= 1250
|   |   |   |   |   |   |   |   |   |   |   |   |   |   |   |   horz_dist_hydro <= 582: 3 (65.0)
|   |   |   |   |   |   |   |   |   |   |   |   |   |   |   |   horz_dist_hydro > 582: 6 (3.0/1.0)
|   |   |   |   |   |   |   |   |   |   |   |   |   |   |   horiz_dist_fire > 1250
|   |   |   |   |   |   |   |   |   |   |   |   |   |   |   |   soil_type = 1: 6 (8.0)
|   |   |   |   |   |   |   |   |   |   |   |   |   |   |   |   soil_type = 2: 3 (0.0)
|   |   |   |   |   |   |   |   |   |   |   |   |   |   |   |   soil_type = 3: 3 (0.0)
|   |   |   |   |   |   |   |   |   |   |   |   |   |   |   |   soil_type = 4: 3 (4.0)
|   |   |   |   |   |   |   |   |   |   |   |   |   |   |   |   soil_type = 5: 3 (0.0)
|   |   |   |   |   |   |   |   |   |   |   |   |   |   |   |   soil_type = 6: 6 (3.0)
|   |   |   |   |   |   |   |   |   |   |   |   |   |   |   |   soil_type = 7: 3 (0.0)
|   |   |   |   |   |   |   |   |   |   |   |   |   |   |   |   soil_type = 8: 3 (0.0)
|   |   |   |   |   |   |   |   |   |   |   |   |   |   |   |   soil_type = 9: 3 (0.0)
|   |   |   |   |   |   |   |   |   |   |   |   |   |   |   |   soil_type = 10
|   |   |   |   |   |   |   |   |   |   |   |   |   |   |   |   |   slope <= 24: 2 (2.0/1.0)
|   |   |   |   |   |   |   |   |   |   |   |   |   |   |   |   |   slope > 24: 3 (8.0)
|   |   |   |   |   |   |   |   |   |   |   |   |   |   |   |   soil_type = 11: 6 (3.0)
|   |   |   |   |   |   |   |   |   |   |   |   |   |   |   |   soil_type = 12: 3 (0.0)
|   |   |   |   |   |   |   |   |   |   |   |   |   |   |   |   soil_type = 13: 3 (0.0)
|   |   |   |   |   |   |   |   |   |   |   |   |   |   |   |   soil_type = 14: 3 (0.0)
|   |   |   |   |   |   |   |   |   |   |   |   |   |   |   |   soil_type = 15: 3 (0.0)
|   |   |   |   |   |   |   |   |   |   |   |   |   |   |   |   soil_type = 16: 3 (4.0/1.0)
|   |   |   |   |   |   |   |   |   |   |   |   |   |   |   |   soil_type = 17: 3 (0.0)
|   |   |   |   |   |   |   |   |   |   |   |   |   |   |   |   soil_type = 18: 3 (0.0)
|   |   |   |   |   |   |   |   |   |   |   |   |   |   |   |   soil_type = 19: 3 (0.0)
|   |   |   |   |   |   |   |   |   |   |   |   |   |   |   |   soil_type = 20: 3 (0.0)
|   |   |   |   |   |   |   |   |   |   |   |   |   |   |   |   soil_type = 21: 3 (0.0)
|   |   |   |   |   |   |   |   |   |   |   |   |   |   |   |   soil_type = 22: 3 (0.0)
|   |   |   |   |   |   |   |   |   |   |   |   |   |   |   |   soil_type = 23: 3 (0.0)
|   |   |   |   |   |   |   |   |   |   |   |   |   |   |   |   soil_type = 24: 3 (0.0)
|   |   |   |   |   |   |   |   |   |   |   |   |   |   |   |   soil_type = 25: 3 (0.0)
|   |   |   |   |   |   |   |   |   |   |   |   |   |   |   |   soil_type = 26: 3 (0.0)
|   |   |   |   |   |   |   |   |   |   |   |   |   |   |   |   soil_type = 27: 3 (0.0)
|   |   |   |   |   |   |   |   |   |   |   |   |   |   |   |   soil_type = 28: 3 (0.0)
|   |   |   |   |   |   |   |   |   |   |   |   |   |   |   |   soil_type = 29: 3 (0.0)
|   |   |   |   |   |   |   |   |   |   |   |   |   |   |   |   soil_type = 30: 3 (0.0)
|   |   |   |   |   |   |   |   |   |   |   |   |   |   |   |   soil_type = 31: 3 (0.0)
|   |   |   |   |   |   |   |   |   |   |   |   |   |   |   |   soil_type = 32: 3 (0.0)
|   |   |   |   |   |   |   |   |   |   |   |   |   |   |   |   soil_type = 33: 3 (0.0)
|   |   |   |   |   |   |   |   |   |   |   |   |   |   |   |   soil_type = 34: 3 (0.0)
|   |   |   |   |   |   |   |   |   |   |   |   |   |   |   |   soil_type = 35: 3 (0.0)
|   |   |   |   |   |   |   |   |   |   |   |   |   |   |   |   soil_type = 36: 3 (0.0)
|   |   |   |   |   |   |   |   |   |   |   |   |   |   |   |   soil_type = 37: 3 (0.0)
|   |   |   |   |   |   |   |   |   |   |   |   |   |   |   |   soil_type = 38: 3 (0.0)
|   |   |   |   |   |   |   |   |   |   |   |   |   |   |   |   soil_type = 39: 3 (0.0)
|   |   |   |   |   |   |   |   |   |   |   |   |   |   |   |   soil_type = 40: 3 (0.0)
|   |   |   |   |   |   |   |   |   |   |   aspect > 281
|   |   |   |   |   |   |   |   |   |   |   |   wilderness_area = 1: 3 (0.0)
|   |   |   |   |   |   |   |   |   |   |   |   wilderness_area = 2: 3 (0.0)
|   |   |   |   |   |   |   |   |   |   |   |   wilderness_area = 3
|   |   |   |   |   |   |   |   |   |   |   |   |   horz_dist_hydro <= 120
|   |   |   |   |   |   |   |   |   |   |   |   |   |   horiz_dist_fire <= 1216: 6 (35.0)
|   |   |   |   |   |   |   |   |   |   |   |   |   |   horiz_dist_fire > 1216: 2 (4.0)
|   |   |   |   |   |   |   |   |   |   |   |   |   horz_dist_hydro > 120: 3 (10.0)
|   |   |   |   |   |   |   |   |   |   |   |   wilderness_area = 4
|   |   |   |   |   |   |   |   |   |   |   |   |   soil_type = 1: 3 (3.0)
|   |   |   |   |   |   |   |   |   |   |   |   |   soil_type = 2
|   |   |   |   |   |   |   |   |   |   |   |   |   |   elevation <= 2295: 3 (19.0)
|   |   |   |   |   |   |   |   |   |   |   |   |   |   elevation > 2295
|   |   |   |   |   |   |   |   |   |   |   |   |   |   |   horz_dist_hydro <= 319: 2 (19.0)
|   |   |   |   |   |   |   |   |   |   |   |   |   |   |   horz_dist_hydro > 319: 3 (3.0)
|   |   |   |   |   |   |   |   |   |   |   |   |   soil_type = 3: 3 (0.0)
|   |   |   |   |   |   |   |   |   |   |   |   |   soil_type = 4: 3 (2.0)
|   |   |   |   |   |   |   |   |   |   |   |   |   soil_type = 5: 3 (0.0)
|   |   |   |   |   |   |   |   |   |   |   |   |   soil_type = 6
|   |   |   |   |   |   |   |   |   |   |   |   |   |   horiz_dist_road <= 384: 6 (2.0)
|   |   |   |   |   |   |   |   |   |   |   |   |   |   horiz_dist_road > 384: 3 (49.0/1.0)
|   |   |   |   |   |   |   |   |   |   |   |   |   soil_type = 7: 3 (0.0)
|   |   |   |   |   |   |   |   |   |   |   |   |   soil_type = 8: 3 (0.0)
|   |   |   |   |   |   |   |   |   |   |   |   |   soil_type = 9: 3 (0.0)
|   |   |   |   |   |   |   |   |   |   |   |   |   soil_type = 10
|   |   |   |   |   |   |   |   |   |   |   |   |   |   horiz_dist_road <= 272
|   |   |   |   |   |   |   |   |   |   |   |   |   |   |   elevation <= 2348
|   |   |   |   |   |   |   |   |   |   |   |   |   |   |   |   vert_dist_hydro <= 76
|   |   |   |   |   |   |   |   |   |   |   |   |   |   |   |   |   horiz_dist_fire <= 514: 3 (6.0)
|   |   |   |   |   |   |   |   |   |   |   |   |   |   |   |   |   horiz_dist_fire > 514
|   |   |   |   |   |   |   |   |   |   |   |   |   |   |   |   |   |   horiz_dist_road <= 85: 3 (2.0)
|   |   |   |   |   |   |   |   |   |   |   |   |   |   |   |   |   |   horiz_dist_road > 85: 2 (66.0/1.0)
|   |   |   |   |   |   |   |   |   |   |   |   |   |   |   |   vert_dist_hydro > 76
|   |   |   |   |   |   |   |   |   |   |   |   |   |   |   |   |   elevation <= 2293
|   |   |   |   |   |   |   |   |   |   |   |   |   |   |   |   |   |   horiz_dist_road <= 218: 3 (6.0)
|   |   |   |   |   |   |   |   |   |   |   |   |   |   |   |   |   |   horiz_dist_road > 218: 2 (4.0)
|   |   |   |   |   |   |   |   |   |   |   |   |   |   |   |   |   elevation > 2293: 3 (26.0)
|   |   |   |   |   |   |   |   |   |   |   |   |   |   |   elevation > 2348
|   |   |   |   |   |   |   |   |   |   |   |   |   |   |   |   horz_dist_hydro <= 247: 3 (61.0)
|   |   |   |   |   |   |   |   |   |   |   |   |   |   |   |   horz_dist_hydro > 247
|   |   |   |   |   |   |   |   |   |   |   |   |   |   |   |   |   aspect <= 303: 2 (3.0)
|   |   |   |   |   |   |   |   |   |   |   |   |   |   |   |   |   aspect > 303: 3 (3.0)
|   |   |   |   |   |   |   |   |   |   |   |   |   |   horiz_dist_road > 272
|   |   |   |   |   |   |   |   |   |   |   |   |   |   |   slope <= 7
|   |   |   |   |   |   |   |   |   |   |   |   |   |   |   |   vert_dist_hydro <= 49: 6 (7.0)
|   |   |   |   |   |   |   |   |   |   |   |   |   |   |   |   vert_dist_hydro > 49: 3 (2.0)
|   |   |   |   |   |   |   |   |   |   |   |   |   |   |   slope > 7
|   |   |   |   |   |   |   |   |   |   |   |   |   |   |   |   horiz_dist_fire <= 1342
|   |   |   |   |   |   |   |   |   |   |   |   |   |   |   |   |   horiz_dist_road <= 540
|   |   |   |   |   |   |   |   |   |   |   |   |   |   |   |   |   |   horz_dist_hydro <= 134
|   |   |   |   |   |   |   |   |   |   |   |   |   |   |   |   |   |   |   slope <= 12: 6 (3.0/1.0)
|   |   |   |   |   |   |   |   |   |   |   |   |   |   |   |   |   |   |   slope > 12
|   |   |   |   |   |   |   |   |   |   |   |   |   |   |   |   |   |   |   |   elevation <= 2210: 6 (3.0/1.0)
|   |   |   |   |   |   |   |   |   |   |   |   |   |   |   |   |   |   |   |   elevation > 2210: 3 (127.0)
|   |   |   |   |   |   |   |   |   |   |   |   |   |   |   |   |   |   horz_dist_hydro > 134
|   |   |   |   |   |   |   |   |   |   |   |   |   |   |   |   |   |   |   horiz_dist_fire <= 853
|   |   |   |   |   |   |   |   |   |   |   |   |   |   |   |   |   |   |   |   horiz_dist_fire <= 430
|   |   |   |   |   |   |   |   |   |   |   |   |   |   |   |   |   |   |   |   |   hillshade_9am <= 148: 3 (16.0)
|   |   |   |   |   |   |   |   |   |   |   |   |   |   |   |   |   |   |   |   |   hillshade_9am > 148
|   |   |   |   |   |   |   |   |   |   |   |   |   |   |   |   |   |   |   |   |   |   elevation <= 2317
|   |   |   |   |   |   |   |   |   |   |   |   |   |   |   |   |   |   |   |   |   |   |   elevation <= 2203
|   |   |   |   |   |   |   |   |   |   |   |   |   |   |   |   |   |   |   |   |   |   |   |   vert_dist_hydro <= 57: 2 (5.0)
|   |   |   |   |   |   |   |   |   |   |   |   |   |   |   |   |   |   |   |   |   |   |   |   vert_dist_hydro > 57: 3 (2.0)
|   |   |   |   |   |   |   |   |   |   |   |   |   |   |   |   |   |   |   |   |   |   |   elevation > 2203: 2 (24.0)
|   |   |   |   |   |   |   |   |   |   |   |   |   |   |   |   |   |   |   |   |   |   elevation > 2317: 3 (15.0)
|   |   |   |   |   |   |   |   |   |   |   |   |   |   |   |   |   |   |   |   horiz_dist_fire > 430
|   |   |   |   |   |   |   |   |   |   |   |   |   |   |   |   |   |   |   |   |   vert_dist_hydro <= 138: 3 (45.0)
|   |   |   |   |   |   |   |   |   |   |   |   |   |   |   |   |   |   |   |   |   vert_dist_hydro > 138
|   |   |   |   |   |   |   |   |   |   |   |   |   |   |   |   |   |   |   |   |   |   elevation <= 2198: 6 (3.0)
|   |   |   |   |   |   |   |   |   |   |   |   |   |   |   |   |   |   |   |   |   |   elevation > 2198: 3 (6.0)
|   |   |   |   |   |   |   |   |   |   |   |   |   |   |   |   |   |   |   horiz_dist_fire > 853: 2 (13.0)
|   |   |   |   |   |   |   |   |   |   |   |   |   |   |   |   |   horiz_dist_road > 540
|   |   |   |   |   |   |   |   |   |   |   |   |   |   |   |   |   |   horiz_dist_fire <= 800
|   |   |   |   |   |   |   |   |   |   |   |   |   |   |   |   |   |   |   horz_dist_hydro <= 85
|   |   |   |   |   |   |   |   |   |   |   |   |   |   |   |   |   |   |   |   slope <= 25
|   |   |   |   |   |   |   |   |   |   |   |   |   |   |   |   |   |   |   |   |   elevation <= 2316: 3 (19.0)
|   |   |   |   |   |   |   |   |   |   |   |   |   |   |   |   |   |   |   |   |   elevation > 2316
|   |   |   |   |   |   |   |   |   |   |   |   |   |   |   |   |   |   |   |   |   |   horz_dist_hydro <= 30: 6 (3.0)
|   |   |   |   |   |   |   |   |   |   |   |   |   |   |   |   |   |   |   |   |   |   horz_dist_hydro > 30: 3 (2.0)
|   |   |   |   |   |   |   |   |   |   |   |   |   |   |   |   |   |   |   |   slope > 25: 6 (11.0)
|   |   |   |   |   |   |   |   |   |   |   |   |   |   |   |   |   |   |   horz_dist_hydro > 85
|   |   |   |   |   |   |   |   |   |   |   |   |   |   |   |   |   |   |   |   aspect <= 355: 3 (94.0/2.0)
|   |   |   |   |   |   |   |   |   |   |   |   |   |   |   |   |   |   |   |   aspect > 355
|   |   |   |   |   |   |   |   |   |   |   |   |   |   |   |   |   |   |   |   |   elevation <= 2306: 3 (8.0)
|   |   |   |   |   |   |   |   |   |   |   |   |   |   |   |   |   |   |   |   |   elevation > 2306: 6 (4.0)
|   |   |   |   |   |   |   |   |   |   |   |   |   |   |   |   |   |   horiz_dist_fire > 800
|   |   |   |   |   |   |   |   |   |   |   |   |   |   |   |   |   |   |   horz_dist_hydro <= 384
|   |   |   |   |   |   |   |   |   |   |   |   |   |   |   |   |   |   |   |   horiz_dist_fire <= 1277: 6 (23.0)
|   |   |   |   |   |   |   |   |   |   |   |   |   |   |   |   |   |   |   |   horiz_dist_fire > 1277: 3 (5.0/2.0)
|   |   |   |   |   |   |   |   |   |   |   |   |   |   |   |   |   |   |   horz_dist_hydro > 384: 3 (6.0)
|   |   |   |   |   |   |   |   |   |   |   |   |   |   |   |   horiz_dist_fire > 1342
|   |   |   |   |   |   |   |   |   |   |   |   |   |   |   |   |   elevation <= 2354: 3 (16.0)
|   |   |   |   |   |   |   |   |   |   |   |   |   |   |   |   |   elevation > 2354: 2 (21.0)
|   |   |   |   |   |   |   |   |   |   |   |   |   soil_type = 11: 6 (18.0/1.0)
|   |   |   |   |   |   |   |   |   |   |   |   |   soil_type = 12: 3 (0.0)
|   |   |   |   |   |   |   |   |   |   |   |   |   soil_type = 13: 3 (0.0)
|   |   |   |   |   |   |   |   |   |   |   |   |   soil_type = 14: 6 (2.0)
|   |   |   |   |   |   |   |   |   |   |   |   |   soil_type = 15: 3 (0.0)
|   |   |   |   |   |   |   |   |   |   |   |   |   soil_type = 16
|   |   |   |   |   |   |   |   |   |   |   |   |   |   elevation <= 2312: 3 (4.0)
|   |   |   |   |   |   |   |   |   |   |   |   |   |   elevation > 2312: 2 (2.0)
|   |   |   |   |   |   |   |   |   |   |   |   |   soil_type = 17
|   |   |   |   |   |   |   |   |   |   |   |   |   |   slope <= 17: 3 (4.0)
|   |   |   |   |   |   |   |   |   |   |   |   |   |   slope > 17: 6 (3.0/1.0)
|   |   |   |   |   |   |   |   |   |   |   |   |   soil_type = 18: 3 (0.0)
|   |   |   |   |   |   |   |   |   |   |   |   |   soil_type = 19: 3 (0.0)
|   |   |   |   |   |   |   |   |   |   |   |   |   soil_type = 20: 3 (0.0)
|   |   |   |   |   |   |   |   |   |   |   |   |   soil_type = 21: 3 (0.0)
|   |   |   |   |   |   |   |   |   |   |   |   |   soil_type = 22: 3 (0.0)
|   |   |   |   |   |   |   |   |   |   |   |   |   soil_type = 23: 3 (0.0)
|   |   |   |   |   |   |   |   |   |   |   |   |   soil_type = 24: 3 (0.0)
|   |   |   |   |   |   |   |   |   |   |   |   |   soil_type = 25: 3 (0.0)
|   |   |   |   |   |   |   |   |   |   |   |   |   soil_type = 26: 3 (0.0)
|   |   |   |   |   |   |   |   |   |   |   |   |   soil_type = 27: 3 (0.0)
|   |   |   |   |   |   |   |   |   |   |   |   |   soil_type = 28: 3 (0.0)
|   |   |   |   |   |   |   |   |   |   |   |   |   soil_type = 29: 3 (0.0)
|   |   |   |   |   |   |   |   |   |   |   |   |   soil_type = 30: 3 (0.0)
|   |   |   |   |   |   |   |   |   |   |   |   |   soil_type = 31: 3 (0.0)
|   |   |   |   |   |   |   |   |   |   |   |   |   soil_type = 32: 3 (0.0)
|   |   |   |   |   |   |   |   |   |   |   |   |   soil_type = 33: 3 (0.0)
|   |   |   |   |   |   |   |   |   |   |   |   |   soil_type = 34: 3 (0.0)
|   |   |   |   |   |   |   |   |   |   |   |   |   soil_type = 35: 3 (0.0)
|   |   |   |   |   |   |   |   |   |   |   |   |   soil_type = 36: 3 (0.0)
|   |   |   |   |   |   |   |   |   |   |   |   |   soil_type = 37: 3 (0.0)
|   |   |   |   |   |   |   |   |   |   |   |   |   soil_type = 38: 3 (0.0)
|   |   |   |   |   |   |   |   |   |   |   |   |   soil_type = 39: 3 (0.0)
|   |   |   |   |   |   |   |   |   |   |   |   |   soil_type = 40: 3 (0.0)
|   |   |   |   |   |   |   horiz_dist_fire > 1486
|   |   |   |   |   |   |   |   hillshade_9am <= 235: 3 (253.0/1.0)
|   |   |   |   |   |   |   |   hillshade_9am > 235: 4 (8.0)
|   |   |   |   |   |   horiz_dist_road > 690
|   |   |   |   |   |   |   slope <= 33
|   |   |   |   |   |   |   |   soil_type = 1
|   |   |   |   |   |   |   |   |   horiz_dist_road <= 1172
|   |   |   |   |   |   |   |   |   |   elevation <= 2078
|   |   |   |   |   |   |   |   |   |   |   horz_dist_hydro <= 95: 4 (2.0)
|   |   |   |   |   |   |   |   |   |   |   horz_dist_hydro > 95: 6 (9.0)
|   |   |   |   |   |   |   |   |   |   elevation > 2078
|   |   |   |   |   |   |   |   |   |   |   horz_dist_hydro <= 30
|   |   |   |   |   |   |   |   |   |   |   |   hillshade_3pm <= 181: 4 (8.0)
|   |   |   |   |   |   |   |   |   |   |   |   hillshade_3pm > 181: 3 (16.0/1.0)
|   |   |   |   |   |   |   |   |   |   |   horz_dist_hydro > 30
|   |   |   |   |   |   |   |   |   |   |   |   elevation <= 2363: 3 (83.0/1.0)
|   |   |   |   |   |   |   |   |   |   |   |   elevation > 2363
|   |   |   |   |   |   |   |   |   |   |   |   |   vert_dist_hydro <= 87: 3 (15.0/1.0)
|   |   |   |   |   |   |   |   |   |   |   |   |   vert_dist_hydro > 87: 6 (7.0)
|   |   |   |   |   |   |   |   |   horiz_dist_road > 1172
|   |   |   |   |   |   |   |   |   |   elevation <= 2263
|   |   |   |   |   |   |   |   |   |   |   vert_dist_hydro <= 6: 4 (6.0)
|   |   |   |   |   |   |   |   |   |   |   vert_dist_hydro > 6: 3 (7.0)
|   |   |   |   |   |   |   |   |   |   elevation > 2263
|   |   |   |   |   |   |   |   |   |   |   hillshade_noon <= 215: 3 (2.0)
|   |   |   |   |   |   |   |   |   |   |   hillshade_noon > 215: 6 (43.0)
|   |   |   |   |   |   |   |   soil_type = 2
|   |   |   |   |   |   |   |   |   horiz_dist_road <= 1181
|   |   |   |   |   |   |   |   |   |   horiz_dist_fire <= 95: 6 (3.0)
|   |   |   |   |   |   |   |   |   |   horiz_dist_fire > 95
|   |   |   |   |   |   |   |   |   |   |   hillshade_3pm <= 122
|   |   |   |   |   |   |   |   |   |   |   |   vert_dist_hydro <= 45: 3 (26.0/2.0)
|   |   |   |   |   |   |   |   |   |   |   |   vert_dist_hydro > 45: 6 (7.0)
|   |   |   |   |   |   |   |   |   |   |   hillshade_3pm > 122: 3 (98.0)
|   |   |   |   |   |   |   |   |   horiz_dist_road > 1181
|   |   |   |   |   |   |   |   |   |   horz_dist_hydro <= 301
|   |   |   |   |   |   |   |   |   |   |   hillshade_noon <= 231
|   |   |   |   |   |   |   |   |   |   |   |   vert_dist_hydro <= 54
|   |   |   |   |   |   |   |   |   |   |   |   |   elevation <= 2295: 6 (21.0/1.0)
|   |   |   |   |   |   |   |   |   |   |   |   |   elevation > 2295: 3 (4.0/1.0)
|   |   |   |   |   |   |   |   |   |   |   |   vert_dist_hydro > 54
|   |   |   |   |   |   |   |   |   |   |   |   |   elevation <= 2352
|   |   |   |   |   |   |   |   |   |   |   |   |   |   horz_dist_hydro <= 170: 3 (12.0)
|   |   |   |   |   |   |   |   |   |   |   |   |   |   horz_dist_hydro > 170
|   |   |   |   |   |   |   |   |   |   |   |   |   |   |   hillshade_9am <= 173: 3 (6.0)
